2708 50
1033 0.007962770201936732 -0.003543069226047218 -0.014845767200371868 -0.0039604798905765095 0.010698506157760811 -0.010436877450534269 0.008982345533506278 0.031234186662658977 0.014221036609100433 -0.010160550264509582 -0.00016580667394785784 -0.0003617749162537498 0.0005775687527958285 -0.001374040729494716 0.009794262032288248 -0.0026723474186095375 -0.0026723474186095375 0.013823836019030686 -0.0008786611247267528 -0.001162737380787665 0.00020393963529976786 0.004865101841131125 -0.0022158495432637137 -0.0005393268101467919 -0.0018008270113969952 -0.0022367562357104498 -0.0002627882162660181 -0.0002627882162660181 -0.00044072771872028817 0.0018449118717107854 -0.013952012378629986 -0.0001402302142238441 -0.0023177207142329476 -0.002877513366965406 -0.003774290865779071 0.0011395849956591059 -0.0006686282518075133 -0.003969990266533339 0.006405608767633533 -0.00044270443769299354 -0.004574940672062934 -0.0022208840921176145 0.0019292798718011294 0.0019292798718011294 -0.0010606117221413042 -0.0015321034088119495 -0.0013519717487149446 -0.008273254907939474 -0.004653131139424183 -0.004653131139424183
35 0.0455205029247682 -0.019860967375616864 -0.0847099698053649 -0.025035514546250727 0.05846588602105755 -0.05646687275265216 0.04824065109802581 0.16282539943428714 0.07857190664175881 -0.05282728133075623 -0.0006295021395774232 -0.005953001778482115 0.005078512470057523 -0.007964696750286656 0.05677293642431509 -0.015490397295911227 -0.015490397295911227 0.08013056633172684 -0.005093203756258307 -0.006739866176748777 0.0011821464354440328 0.028200809475364425 -0.012844284217722346 -0.0031262351980632964 -0.010438585070747288 -0.012965470920427422 -0.0015232652185480917 -0.0015232652185480917 -0.0025547005657853075 0.010694125198591063 -0.0808735470984902 -0.0008128515462068507 -0.013434785624958763 -0.016679652117156787 -0.02187786835428223 0.006605662202560379 -0.00387573756003564 -0.02301224985241612 0.03713043597618871 -0.0025661587175278893 -0.026518875548131895 -0.012873467235398131 0.011183168588444177 0.011183168588444177 -0.006147889618789506 -0.008880915084486058 -0.00783677278433306 -0.04795634151528442 -0.026972110556328737 -0.026972110556328737
103482 0.006193697213282215 -0.0029564759495172145 0.0009522250085468926 0.0028939655516757395 0.00582174746652907 -0.004993059129144455 0.0035997483503297273 0.013598709033027165 0.003963088756957426 -0.0020283111032157364 -0.00011527614680932523 0.003463376905916997 -0.0022881393938009057 -0.0015051862049502028 0.010729076498401331 -0.002927409925326213 -0.002927409925326213 0.015143253637751037 -0.000962525036831345 -0.0012737149838237792 0.0002234046772461329 0.005329452045894887 -0.0024273415577661162 -0.0005908029195694425 -0.0019727071526135127 -0.0024502436918779754 -0.0002878700677908795 -0.0002878700677908795 -0.00048279302652175704 0.0020209996974900955 -0.015283663804733902 -0.0001536145031483859 -0.002538935834364727 -0.0031521579612191967 -0.004134528491545841 0.0012483528166339266 -0.0007324455522004033 -0.004348906444112625 0.007016992833171465 -0.0004849584136641444 -0.005011596410673495 -0.002432856629714399 0.00211342021105233 0.00211342021105233 -0.0011618419299423526 -0.0016783351948737501 -0.0014810108477617482 -0.009062896674137611 -0.005097249776184703 -0.005097249776184703
103515 0.012236943268542686 -0.005429577639158513 -0.024560616478022712 -0.007060278799803739 0.017354772858293444 -0.016942702055797076 0.014661675276647383 0.05084367712949668 0.024004807531944613 -0.016545315473550336 -0.0002546737925616567 -0.0008323251130041246 0.0008561343229058242 -0.002038031755857281 0.014527238253214891 -0.00396373177657734 -0.00396373177657734 0.020504062354038823 -0.001303265060773722 -0.001724618240857446 0.00030249136295388136 0.0072161121827525885 -0.003286636006076747 -0.0007999509346922183 -0.0026710581114886686 -0.0033176456422554863 -0.0003897779143797399 -0.0003897779143797399 -0.0006537048481587423 0.002736446526361166 -0.020694178618867135 -0.0002079950205144534 -0.0034377353708809418 -0.004268042055737321 -0.005598178041729929 0.0016902777041448546 -0.0009917359658968923 -0.005888447161689865 0.009501053210290163 -0.0006566367962099541 -0.006785733618141193 -0.003294103448795542 0.0028615844932871415 0.0028615844932871415 -0.0015731414098279742 -0.002272476596501061 -0.0020052981674831987 -0.012271220106323371 -0.00690170882329114 -0.00690170882329114
1050679 0.0046028429886294416 -0.0022208033742941854 -0.001750211983515444 0.0024955715812498523 0.0031005867821934973 -0.004516298899610174 0.002323668515951179 0.012195846209745972 0.001911925991421576 -0.0023110380115041445 -8.984989111187663e-05 0.003184246272877209 -0.002166052570883988 -0.0012289793900014123 0.008760254277456688 -0.0023902201950027737 -0.0023902201950027737 0.012364414819345089 -0.000785898401630151 -0.0010399839293685465 0.00018240915513473914 0.004351479373691473 -0.0019819160826597846 -0.00048238856383058177 -0.0016107086452806008 -0.002000615596858045 -0.00023504492610269752 -0.00023504492610269752 -0.0003941988554507513 0.0016501393430566572 -0.012479059240614083 -0.0001254257166015839 -0.0020730324279537027 -0.0025737261978795944 -0.003375828377095398 0.0010192758065730365 -0.0005980392890873952 -0.0035508672423924833 0.00572935065667888 -0.0003959668866489344 -0.004091951334304549 -0.001986419120049169 0.001725600376387769 0.001725600376387769 -0.0009486399633764083 -0.0013703549482650893 -0.0012092402935143466 -0.0073998241477346025 -0.004161887014389412 -0.004161887014389412
1103960 0.006897113630824226 -0.003068819799432002 -0.010474000089858434 -0.0017728634845133363 0.00804678108683189 -0.008281302888931244 0.006315007968198842 0.024796095136891315 0.00891570901085795 -0.007734093308957797 -9.713122089562748e-05 0.001077800436375821 -0.000708214566995407 -0.0013740407294947023 0.0097942620322882 -0.002672347418609514 -0.002672347418609514 0.013823836019030707 -0.0008786611247267716 -0.0011627373807877122 0.00020393963529981543 0.004865101841131171 -0.002215849543263682 -0.0005393268101468763 -0.0018008270113970017 -0.0022367562357104593 -0.00026278821626602827 -0.00026278821626602827 -0.00044072771872022415 0.0018449118717107837 -0.013952012378629999 -0.0001402302142238763 -0.0023177207142329615 -0.002877513366965382 -0.0037742908657790297 0.0011395849956590948 -0.0006686282518075584 -0.00396999026653338 0.00640560876763352 -0.00044270443769297397 -0.004574940672062944 -0.002220884092117648 0.0019292798718011444 0.0019292798718011444 -0.001060611722141285 -0.0015321034088119614 -0.0013519717487149648 -0.008273254907939502 -0.0046531311394241645 -0.0046531311394241645
1103985 0.005104351629171274 -0.0022344028768667566 -0.00988801906239114 -0.0029652875927532237 0.0068614471189942395 -0.006629029029267851 0.00570901095273634 0.019366530155109033 0.009366475079091847 -0.006339980828601249 -7.40498433867832e-05 -0.0008231298082593788 0.0006754508703909977 -0.0008690196606085109 0.006194435204508088 -0.0016901409084155163 -0.0016901409084155163 0.008742961564162344 -0.0005557140891163762 -0.0007353796887815353 0.0001289827505463016 0.003076960573330609 -0.0014014263017914147 -0.00034110022465145266 -0.0011389430055937166 -0.0014146488550859006 -0.0001662018611307206 -0.0001662018611307206 -0.0002787406838251848 0.0011668247193780585 -0.00882402741186686 -8.868937474417301e-05 -0.0014658552874256775 -0.0018198992474381152 -0.0023870711375661184 0.0007207368347271862 -0.00042287763672969354 -0.0025108423061888877 0.0040512627011332365 -0.0002799908706747932 -0.00289344653677209 -0.0014046104300653938 0.001220183727761854 0.001220183727761854 -0.0006707897510080062 -0.0009689872765507889 -0.000855062011628017 -0.005232465834451077 -0.002942898530406996 -0.002942898530406996
1109199 0.005332499495962132 -0.0020867059435535074 -0.00805973912087726 -0.0022441110323596324 0.005320072596647819 -0.005019506912633759 0.004044559025205674 0.014016770321893125 0.006124871267696628 -0.003023655428342025 -7.753577771503259e-05 0.001102071261748252 -0.0007287369952405113 -0.0010643273724687224 0.007586602747888764 -0.002069991409511009 -0.002069991409511009 0.01070789733648164 -0.0006806079806053418 -0.0009006525023607247 0.00015797096222954616 0.0037684916816608273 -0.0017163896757523022 -0.0004177607507724039 -0.001394914604908223 -0.001732583930086463 -0.00020355487703557483 -0.00020355487703557483 -0.00034138622296310225 0.0014290625908712213 -0.010807182317702748 -0.00010862185686480623 -0.001795298745476838 -0.0022289122697492164 -0.0029235531333809996 0.0008827187419551219 -0.0005179172168108755 -0.0030751412373778834 0.004961763215872975 -0.0003429173828954122 -0.00354373380655733 -0.0017202894205257046 0.0014944137627317942 0.0014944137627317942 -0.0008215463073291036 -0.0011867621973992762 -0.0010472328134631956 -0.006408435695475693 -0.003604299882141793 -0.003604299882141793
1112911 0.006899973692490499 -0.002977657666464794 -0.012612365174852397 -0.0038786127137491857 0.008543677101141007 -0.008161316637973095 0.006896070395834186 0.021937584179755727 0.011414423279480475 -0.00792347720961687 -0.0001337359962978375 -0.00014565034907795436 0.00037088311580475713 -0.0012289793900014236 0.008760254277456669 -0.002390220195002816 -0.002390220195002816 0.012364414819345125 -0.0007858984016301757 -0.0010399839293685352 0.00018240915513474305 0.004351479373691439 -0.001981916082659796 -0.00048238856383058133 -0.0016107086452806145 -0.002000615596858051 -0.0002350449261026996 -0.0002350449261026996 -0.0003941988554507452 0.0016501393430566342 -0.012479059240614111 -0.00012542571660156826 -0.0020730324279536897 -0.002573726197879602 -0.0033758283770953905 0.0010192758065730321 -0.0005980392890874078 -0.0035508672423924512 0.005729350656678905 -0.0003959668866489446 -0.004091951334304526 -0.001986419120049166 0.0017256003763877737 0.0017256003763877737 -0.0009486399633763955 -0.0013703549482650982 -0.001209240293514351 -0.007399824147734588 -0.004161887014389427 -0.004161887014389427
1113438 0.007815207814814141 -0.003522504890953814 -0.013971976108327467 -0.003451496594491446 0.010462956272022933 -0.010399728748776031 0.008818658479503328 0.030487705237045606 0.013856920493304259 -0.010061191326220064 -0.00018702748181921315 5.435057407747682e-07 0.00034977784076607347 -0.0013740407294947111 0.00979426203228825 -0.0026723474186095106 -0.0026723474186095106 0.013823836019030675 -0.0008786611247267702 -0.0011627373807877237 0.00020393963529980084 0.004865101841131158 -0.0022158495432637064 -0.0005393268101468315 -0.001800827011396985 -0.0022367562357104398 -0.0002627882162660409 -0.0002627882162660409 -0.0004407277187202318 0.0018449118717107223 -0.013952012378629978 -0.00014023021422389107 -0.002317720714232965 -0.0028775133669653795 -0.003774290865779047 0.0011395849956591013 -0.0006686282518075373 -0.003969990266533386 0.006405608767633498 -0.0004427044376929818 -0.004574940672062939 -0.0022208840921176445 0.0019292798718011422 0.0019292798718011422 -0.0010606117221412536 -0.0015321034088119463 -0.0013519717487149635 -0.008273254907939481 -0.004653131139424195 -0.004653131139424195
1113831 0.006287764644952007 -0.0027595680166397313 -0.012289479330627002 -0.0036131318719273982 0.008562686923748033 -0.008283736660395401 0.007152808308290553 0.024321882147505167 0.011726267558757107 -0.007958699355884842 -0.00010986099542314667 -0.0007302229020697193 0.000670907681168707 -0.001064327372468772 0.007586602747888801 -0.002069991409511123 -0.002069991409511123 0.010707897336481675 -0.000680607980605345 -0.0009006525023607685 0.00015797096222954277 0.0037684916816608112 -0.001716389675752363 -0.00041776075077232683 -0.0013949146049082339 -0.0017325839300864035 -0.00020355487703559123 -0.00020355487703559123 -0.00034138622296306625 0.0014290625908711986 -0.010807182317702791 -0.00010862185686489103 -0.0017952987454768702 -0.0022289122697492884 -0.002923553133381013 0.0008827187419551203 -0.0005179172168108687 -0.003075141237377825 0.004961763215873039 -0.0003429173828954677 -0.003543733806557404 -0.0017202894205257467 0.001494413762731828 0.001494413762731828 -0.0008215463073290641 -0.001186762197399293 -0.0010472328134631856 -0.006408435695475625 -0.0036042998821418743 -0.0036042998821418743
1114331 0.008185250781314863 -0.0035976389942662997 -0.016197975185144074 -0.00479145827639243 0.011207438147180301 -0.010823505334557969 0.00942490386064924 0.03208832192268808 0.015477217082565982 -0.010432540696608794 -0.00011149023277250012 -0.0016640760071672815 0.001292492487230503 -0.001374040729494723 0.009794262032288245 -0.002672347418609593 -0.002672347418609593 0.01382383601903074 -0.0008786611247267776 -0.0011627373807876489 0.00020393963529980263 0.004865101841131056 -0.002215849543263693 -0.000539326810146899 -0.001800827011397027 -0.002236756235710459 -0.00026278821626604746 -0.00026278821626604746 -0.0004407277187201896 0.0018449118717107204 -0.013952012378630039 -0.00014023021422392723 -0.0023177207142329845 -0.0028775133669654393 -0.0037742908657790184 0.0011395849956590666 -0.0006686282518075893 -0.003969990266533367 0.006405608767633569 -0.0004427044376930446 -0.004574940672062971 -0.002220884092117625 0.0019292798718011457 0.0019292798718011457 -0.0010606117221412569 -0.0015321034088119888 -0.0013519717487149182 -0.008273254907939454 -0.004653131139424224 -0.004653131139424224
1117476 0.006219663476615103 -0.0027240363440571833 -0.01200753502486923 -0.003644635469965103 0.008276050841474055 -0.007984471116863852 0.006832792817306428 0.02250562797384726 0.011321862667433945 -0.007926385587425717 -0.00011207217791749125 -0.0005340631940036628 0.0005302973405489462 -0.001064327372468719 0.007586602747888759 -0.00206999140951106 -0.00206999140951106 0.010707897336481611 -0.0006806079806052942 -0.0009006525023607177 0.00015797096222954505 0.0037684916816608004 -0.0017163896757523011 -0.0004177607507723677 -0.0013949146049082137 -0.0017325839300864525 -0.00020355487703556429 -0.00020355487703556429 -0.0003413862229630887 0.0014290625908712092 -0.010807182317702719 -0.00010862185686481452 -0.0017952987454768177 -0.002228912269749265 -0.002923553133380998 0.0008827187419551214 -0.0005179172168108653 -0.003075141237377851 0.004961763215872982 -0.0003429173828954522 -0.0035437338065573355 -0.001720289420525699 0.0014944137627318041 0.0014944137627318041 -0.0008215463073290889 -0.0011867621973992665 -0.0010472328134631746 -0.006408435695475625 -0.0036042998821418063 -0.0036042998821418063
1119505 0.005080289026640697 -0.002224749802675169 -0.009758153973585378 -0.0028867509409257926 0.0067822964226651175 -0.006555004453909347 0.005633173792193914 0.019081833815326035 0.009230461611292798 -0.00625580524591137 -7.631457109366879e-05 -0.0007283664900232205 0.0006231600490297606 -0.0008690196606085107 0.006194435204508184 -0.0016901409084155534 -0.0016901409084155534 0.008742961564162382 -0.000555714089116342 -0.0007353796887815153 0.00012898275054628913 0.0030769605733306287 -0.0014014263017914223 -0.00034110022465143206 -0.0011389430055937094 -0.0014146488550858918 -0.00016620186113073374 -0.00016620186113073374 -0.00027874068382518574 0.0011668247193780635 -0.008824027411866898 -8.868937474414272e-05 -0.0014658552874256563 -0.0018198992474381583 -0.002387071137566127 0.0007207368347271874 -0.0004228776367296875 -0.002510842306188916 0.004051262701133264 -0.0002799908706747962 -0.002893446536772101 -0.0014046104300653622 0.0012201837277618652 0.0012201837277618652 -0.0006707897510080085 -0.0009689872765507813 -0.000855062011627997 -0.005232465834451071 -0.0029428985304070327 -0.0029428985304070327
1119708 0.008055636570728001 -0.003561466058065335 -0.015524566811042861 -0.004417689199774847 0.01086458882841867 -0.010547607498163494 0.00914883132473448 0.03139220381160485 0.014863430112067814 -0.01015442066552692 -0.00013274895890863652 -0.0009128408565816288 0.0007729134383217931 -0.001374040729494684 0.00979426203228816 -0.002672347418609539 -0.002672347418609539 0.013823836019030677 -0.0008786611247267759 -0.0011627373807876877 0.00020393963529983679 0.004865101841131124 -0.0022158495432636873 -0.0005393268101468035 -0.0018008270113969757 -0.0022367562357104216 -0.0002627882162660194 -0.0002627882162660194 -0.0004407277187202125 0.0018449118717107093 -0.013952012378629974 -0.0001402302142238808 -0.0023177207142329554 -0.002877513366965406 -0.0037742908657790205 0.0011395849956591228 -0.0006686282518075222 -0.003969990266533346 0.006405608767633516 -0.0004427044376929977 -0.004574940672062953 -0.0022208840921176215 0.0019292798718011542 0.0019292798718011542 -0.0010606117221412467 -0.0015321034088119395 -0.0013519717487149377 -0.008273254907939459 -0.004653131139424202 -0.004653131139424202
1120431 0.00705322587498707 -0.003023220969193236 -0.013930464326209233 -0.004837640514944764 0.009553523105882035 -0.009128678124638493 0.008030998122907652 0.028490695943097617 0.013784999795500331 -0.008163254754183624 6.380750946536321e-05 -0.013447641026968134 0.012861188407629376 -0.001228979390001441 0.008760254277456712 -0.002390220195002808 -0.002390220195002808 0.012364414819345027 -0.0007858984016301839 -0.0010399839293685886 0.0001824091551347605 0.004351479373691493 -0.0019819160826598263 -0.00048238856383057076 -0.0016107086452806126 -0.002000615596858047 -0.00023504492610272815 -0.00023504492610272815 -0.0003941988554507639 0.0016501393430566442 -0.012479059240613998 -0.00012542571660158013 -0.0020730324279536723 -0.002573726197879539 -0.003375828377095396 0.0010192758065730168 -0.0005980392890874134 -0.0035508672423924543 0.005729350656678839 -0.0003959668866489948 -0.004091951334304508 -0.0019864191200491934 0.0017256003763877856 0.0017256003763877856 -0.0009486399633764109 -0.0013703549482650978 -0.001209240293514386 -0.007399824147734495 -0.004161887014389416 -0.004161887014389416
1123756 0.006313495287372361 -0.002231805919577556 -0.011444435408154636 -0.0035248108118665585 0.006735886206608516 -0.00645582276876412 0.0048001734897803235 0.01687356039336211 0.008473925633969799 -0.0035696751875131847 -0.00016611582957400646 0.003321937132711942 -0.002162377634301101 -0.001228979390001412 0.0087602542774567 -0.0023902201950028825 -0.0023902201950028825 0.012364414819345103 -0.0007858984016301579 -0.0010399839293685296 0.0001824091551346929 0.004351479373691454 -0.001981916082659769 -0.00048238856383060345 -0.0016107086452805852 -0.0020006155968580676 -0.00023504492610270088 -0.00023504492610270088 -0.00039419885545071825 0.001650139343056614 -0.012479059240614094 -0.0001254257166015564 -0.0020730324279536806 -0.002573726197879617 -0.00337582837709537 0.0010192758065729925 -0.000598039289087418 -0.003550867242392468 0.0057293506566789346 -0.0003959668866490224 -0.004091951334304573 -0.0019864191200491335 0.001725600376387771 0.001725600376387771 -0.0009486399633763627 -0.0013703549482650672 -0.0012092402935143295 -0.007399824147734518 -0.004161887014389448 -0.004161887014389448
1125386 0.006197131169555273 -0.002376098819453348 -0.010793993694574702 -0.005355774402219438 0.00438604207080515 -0.0033374527952681945 0.0023120976956858053 -0.003252839026836724 0.006044722193956361 -0.004285880386594347 0.00015402474041488945 -0.003910905060706114 0.0022861820701339753 -0.0012289793900014012 0.008760254277456686 -0.0023902201950028023 -0.0023902201950028023 0.012364414819345089 -0.0007858984016301953 -0.0010399839293685747 0.00018240915513476495 0.004351479373691502 -0.001981916082659794 -0.000482388563830578 -0.0016107086452805618 -0.0020006155968580277 -0.0002350449261027197 -0.0002350449261027197 -0.0003941988554507326 0.0016501393430566518 -0.012479059240614073 -0.00012542571660155636 -0.0020730324279537075 -0.002573726197879561 -0.003375828377095379 0.001019275806573044 -0.0005980392890874125 -0.003550867242392481 0.005729350656678874 -0.000395966886648963 -0.0040919513343045015 -0.0019864191200491695 0.0017256003763877654 0.0017256003763877654 -0.0009486399633763706 -0.0013703549482650505 -0.0012092402935143687 -0.007399824147734563 -0.004161887014389423 -0.004161887014389423
1127430 0.005089684559559424 -0.0022375119340207806 -0.009814538237957676 -0.002851378322678252 0.006827718162694816 -0.006617451849926261 0.005717922722482123 0.0194948157473248 0.009331722386089734 -0.006354239969123252 -7.808272330746174e-05 -0.0007444680325196552 0.0006303627060045452 -0.0008690196606084986 0.006194435204508066 -0.001690140908415534 -0.001690140908415534 0.008742961564162356 -0.0005557140891163671 -0.0007353796887815206 0.0001289827505463074 0.0030769605733306084 -0.0014014263017914032 -0.0003411002246514304 -0.0011389430055936955 -0.0014146488550858944 -0.0001662018611307107 -0.0001662018611307107 -0.00027874068382519604 0.0011668247193780616 -0.008824027411866865 -8.868937474415388e-05 -0.001465855287425672 -0.0018198992474381288 -0.0023870711375661292 0.0007207368347271927 -0.00042287763672967484 -0.00251084230618888 0.004051262701133253 -0.0002799908706748154 -0.0028934465367720973 -0.0014046104300653771 0.0012201837277618624 0.0012201837277618624 -0.0006707897510080127 -0.0009689872765507681 -0.0008550620116280055 -0.005232465834451066 -0.0029428985304069976 -0.0029428985304069976
1127913 0.007270500249913107 -0.003200730108828918 -0.014274503233862324 -0.004200812378378295 0.009862434550464035 -0.009533292588340542 0.008315652586464165 0.028377016465018206 0.013618091198431447 -0.009204401898689943 -0.00011173491150942044 -0.0011268395454659 0.000910151083465493 -0.0012289793900014142 0.008760254277456673 -0.0023902201950028565 -0.0023902201950028565 0.01236441481934514 -0.0007858984016302178 -0.0010399839293685062 0.00018240915513476747 0.004351479373691408 -0.001981916082659772 -0.00048238856383057044 -0.001610708645280574 -0.0020006155968580208 -0.00023504492610270235 -0.00023504492610270235 -0.00039419885545072285 0.0016501393430566184 -0.012479059240614121 -0.00012542571660158962 -0.0020730324279537127 -0.002573726197879606 -0.003375828377095383 0.001019275806573039 -0.0005980392890873916 -0.0035508672423924447 0.005729350656678934 -0.0003959668866489804 -0.0040919513343045475 -0.0019864191200491673 0.0017256003763877843 0.0017256003763877843 -0.0009486399633763839 -0.0013703549482650618 -0.0012092402935143468 -0.00739982414773456 -0.004161887014389438 -0.004161887014389438
1128204 0.00507863771089468 -0.0022255187726938335 -0.009757438767761873 -0.0028570782444095836 0.006825590723519717 -0.006620951780348099 0.005664865403352369 0.019442991901254435 0.009220587949121594 -0.006321041472628674 -7.271358695534416e-05 -0.00072659771690827 0.0005961278998159083 -0.0008690196606084824 0.006194435204508057 -0.0016901409084155287 -0.0016901409084155287 0.008742961564162353 -0.000555714089116362 -0.0007353796887815246 0.0001289827505462898 0.0030769605733306006 -0.0014014263017913782 -0.0003411002246514542 -0.0011389430055937174 -0.001414648855085902 -0.00016620186113071913 -0.00016620186113071913 -0.0002787406838251907 0.0011668247193780696 -0.008824027411866872 -8.868937474419063e-05 -0.0014658552874257007 -0.0018198992474381373 -0.002387071137566121 0.0007207368347271869 -0.00042287763672969815 -0.0025108423061888903 0.004051262701133255 -0.00027999087067480226 -0.002893446536772111 -0.001404610430065381 0.0012201837277618613 0.0012201837277618613 -0.0006707897510080112 -0.0009689872765507891 -0.0008550620116279883 -0.00523246583445108 -0.0029428985304069902 -0.0029428985304069902
1128227 0.007350220188164064 -0.0032270859024615085 -0.0146288913342596 -0.004341813151501185 0.01022968316021081 -0.009900334062113646 0.008574026132369716 0.02927072188843442 0.014128097737959826 -0.009633629510478378 -0.0001215448647640215 -0.0011298219365291772 0.0009589865486785085 -0.0012289793900014108 0.00876025427745667 -0.002390220195002826 -0.002390220195002826 0.01236441481934511 -0.0007858984016302161 -0.0010399839293685302 0.00018240915513480948 0.004351479373691419 -0.001981916082659791 -0.00048238856383054024 -0.0016107086452805477 -0.0020006155968580117 -0.00023504492610271297 -0.00023504492610271297 -0.00039419885545072833 0.0016501393430566468 -0.012479059240614094 -0.00012542571660158444 -0.0020730324279537144 -0.0025737261978795887 -0.003375828377095356 0.0010192758065729966 -0.0005980392890874099 -0.0035508672423924317 0.005729350656678897 -0.0003959668866489639 -0.004091951334304521 -0.0019864191200491725 0.0017256003763877808 0.0017256003763877808 -0.0009486399633764015 -0.001370354948265036 -0.0012092402935143566 -0.007399824147734561 -0.004161887014389428 -0.004161887014389428
1128314 0.006331049983882286 -0.0027930609223050518 -0.012513181482030162 -0.003646782127274147 0.008785603998652858 -0.008538407769281027 0.007373632137641686 0.025317237198145662 0.012090938516579282 -0.008283156782642164 -0.00011628955928625266 -0.0006627666280636951 0.0006076178536682269 -0.001064327372468727 0.0075866027478887765 -0.0020699914095111244 -0.0020699914095111244 0.010707897336481668 -0.0006806079806053387 -0.000900652502360709 0.00015797096222956462 0.0037684916816607917 -0.0017163896757522923 -0.0004177607507724133 -0.0013949146049082124 -0.001732583930086385 -0.00020355487703558532 -0.00020355487703558532 -0.00034138622296307514 0.0014290625908712025 -0.010807182317702764 -0.00010862185686482714 -0.0017952987454768333 -0.002228912269749272 -0.002923553133381004 0.0008827187419551231 -0.0005179172168108957 -0.0030751412373778483 0.004961763215873043 -0.0003429173828954917 -0.003543733806557365 -0.001720289420525701 0.0014944137627318232 0.0014944137627318232 -0.0008215463073290873 -0.001186762197399276 -0.001047232813463179 -0.0064084356954755995 -0.00360429988214184 -0.00360429988214184
1128453 0.007228104695209194 -0.003159657270599631 -0.01390904279431762 -0.004158589570634889 0.009600055495753674 -0.00927931655012025 0.007982446141229659 0.02769456821456034 0.012903051712623183 -0.008454296810520534 -6.270767021005706e-05 -0.0016354385964029176 0.0011504613785934383 -0.0012289793900014479 0.0087602542774567 -0.0023902201950028535 -0.0023902201950028535 0.012364414819345101 -0.000785898401630109 -0.0010399839293686087 0.00018240915513468173 0.004351479373691464 -0.001981916082659795 -0.00048238856383053504 -0.0016107086452805499 -0.0020006155968580104 -0.00023504492610273284 -0.00023504492610273284 -0.00039419885545074497 0.0016501393430566685 -0.012479059240614104 -0.00012542571660157623 -0.002073032427953649 -0.0025737261978796026 -0.0033758283770954803 0.0010192758065729792 -0.0005980392890873665 -0.003550867242392421 0.005729350656678926 -0.00039596688664896094 -0.0040919513343045475 -0.001986419120049242 0.0017256003763878145 0.0017256003763878145 -0.0009486399633764274 -0.0013703549482650351 -0.0012092402935143978 -0.007399824147734552 -0.0041618870143894805 -0.0041618870143894805
1128945 0.003538289346990811 -0.0015456399465107657 -0.006651969026810177 -0.001966551904977471 0.004601303379252065 -0.004444964416774959 0.003804460652904182 0.012855530366024213 0.006208198971567702 -0.0041844164504529465 -5.0222153837407603e-05 -0.00047625886639881133 0.0004066480550942056 -0.000614489695000703 0.004380127138728335 -0.0011951100975014135 -0.0011951100975014135 0.0061822074096725506 -0.0003929492008150884 -0.000519991964684272 9.120457756738415e-05 0.002175739686845726 -0.0009909580413298871 -0.00024119428191527904 -0.0008053543226402921 -0.001000307798429023 -0.00011752246305135215 -0.00011752246305135215 -0.00019709942772536576 0.0008250696715283108 -0.006239529620307047 -6.271285830079016e-05 -0.001036516213976853 -0.0012868630989398 -0.0016879141885476918 0.0005096379032865203 -0.00029901964454369997 -0.0017754336211962295 0.0028646753283394517 -0.00019798344332448055 -0.0020459756671522664 -0.0009932095600245845 0.0008628001881938903 0.0008628001881938903 -0.0004743199816881962 -0.0006851774741325343 -0.0006046201467571745 -0.0036999120738672804 -0.0020809435071947116 -0.0020809435071947116
1128959 0.004825206930809016 -0.002035549814527894 -0.008310811891042715 -0.0026475384318137636 0.0056532129129111645 -0.005361173384737818 0.004509459592365332 0.015086799115185241 0.007190429781386444 -0.004214272584454563 -4.751814790538188e-05 -0.00022320075143614993 0.00015460911400580197 -0.0008690196606085109 0.006194435204508105 -0.001690140908415532 -0.001690140908415532 0.00874296156416238 -0.0005557140891163948 -0.000735379688781552 0.00012898275054627143 0.003076960573330621 -0.001401426301791418 -0.0003411002246514543 -0.0011389430055937194 -0.0014146488550858848 -0.00016620186113073182 -0.00016620186113073182 -0.00027874068382519117 0.0011668247193780663 -0.008824027411866877 -8.86893747441723e-05 -0.0014658552874256784 -0.0018198992474381156 -0.0023870711375661552 0.0007207368347272102 -0.00042287763672968904 -0.002510842306188906 0.004051262701133256 -0.00027999087067480535 -0.0028934465367721055 -0.0014046104300654047 0.0012201837277618617 0.0012201837277618617 -0.0006707897510080091 -0.0009689872765507953 -0.0008550620116280303 -0.005232465834451078 -0.002942898530406994 -0.002942898530406994
1128985 0.0070995225883371945 -0.0030780233649839676 -0.013417908678979018 -0.004068235165599064 0.009161950903580787 -0.008790360646243103 0.007529847120241375 0.025166920260478273 0.012338450195183424 -0.008104640585798033 -0.00010398133068719772 -0.0008552389286737527 0.0007579842175166768 -0.0012289793900014197 0.008760254277456693 -0.0023902201950028006 -0.0023902201950028006 0.012364414819345082 -0.0007858984016301684 -0.0010399839293685628 0.0001824091551347207 0.004351479373691464 -0.0019819160826598198 -0.0004823885638305679 -0.0016107086452805976 -0.002000615596858047 -0.00023504492610268023 -0.00023504492610268023 -0.0003941988554507278 0.0016501393430566483 -0.012479059240614073 -0.00012542571660155365 -0.00207303242795367 -0.002573726197879575 -0.0033758283770953853 0.0010192758065730328 -0.0005980392890873936 -0.0035508672423924417 0.005729350656678869 -0.00039596688664893096 -0.004091951334304513 -0.0019864191200491786 0.0017256003763877743 0.0017256003763877743 -0.0009486399633763932 -0.0013703549482650809 -0.0012092402935143737 -0.0073998241477345635 -0.004161887014389439 -0.004161887014389439
1129018 0.004948404072645047 -0.002202306331637239 -0.00920827487238817 -0.0024833127816067785 0.006519485437859809 -0.006409297677397216 0.005440677053092947 0.01891250984255027 0.00866325372127025 -0.005997916960864959 -0.00010340497099078157 -0.0001389023718212622 0.00026464000999535975 -0.0008690196606085018 0.006194435204508075 -0.0016901409084154949 -0.0016901409084154949 0.008742961564162315 -0.0005557140891163472 -0.0007353796887815354 0.00012898275054627328 0.003076960573330621 -0.001401426301791414 -0.0003411002246514258 -0.0011389430055937 -0.0014146488550858852 -0.0001662018611306968 -0.0001662018611306968 -0.000278740683825178 0.00116682471937805 -0.008824027411866834 -8.868937474415429e-05 -0.0014658552874256654 -0.0018198992474381152 -0.0023870711375661327 0.000720736834727202 -0.00042287763672966503 -0.0025108423061888756 0.004051262701133215 -0.0002799908706747876 -0.0028934465367720834 -0.0014046104300653936 0.0012201837277618422 0.0012201837277618422 -0.000670789751007997 -0.0009689872765507739 -0.0008550620116280197 -0.0052324658344510755 -0.0029428985304069846 -0.0029428985304069846
1129027 0.005089684559559426 -0.0022375119340207745 -0.009814538237957682 -0.0028513783226782586 0.00682771816269482 -0.00661745184992625 0.005717922722482133 0.01949481574732478 0.009331722386089732 -0.0063542399691232454 -7.808272330746521e-05 -0.00074446803251965 0.0006303627060045382 -0.0008690196606084934 0.0061944352045080605 -0.0016901409084155393 -0.0016901409084155393 0.008742961564162348 -0.0005557140891163669 -0.0007353796887815297 0.0001289827505463106 0.0030769605733306136 -0.001401426301791398 -0.0003411002246514306 -0.001138943005593692 -0.0014146488550858915 -0.00016620186113071233 -0.00016620186113071233 -0.0002787406838251965 0.001166824719378061 -0.008824027411866855 -8.868937474415356e-05 -0.0014658552874256695 -0.0018198992474381262 -0.002387071137566127 0.0007207368347271877 -0.0004228776367296776 -0.0025108423061888816 0.004051262701133254 -0.0002799908706748197 -0.002893446536772097 -0.001404610430065382 0.0012201837277618643 0.0012201837277618643 -0.0006707897510080112 -0.0009689872765507647 -0.0008550620116280113 -0.005232465834451054 -0.0029428985304069963 -0.0029428985304069963
1129573 0.005982766524739441 -0.002484960999958801 -0.010501044706367495 -0.0039039276017457463 0.006893027793053648 -0.0064827582692902255 0.005468280754202691 0.01769086048072228 0.00893051140345268 -0.004982657906206416 -8.609505686407958e-06 -0.0012448522848947474 0.0007244007016776457 -0.0010643273724687376 0.00758660274788879 -0.002069991409511035 -0.002069991409511035 0.010707897336481599 -0.0006806079806052982 -0.0009006525023607368 0.0001579709622295307 0.0037684916816608225 -0.0017163896757523087 -0.0004177607507723679 -0.0013949146049082011 -0.0017325839300864085 -0.0002035548770356097 -0.0002035548770356097 -0.00034138622296309195 0.0014290625908712105 -0.010807182317702706 -0.00010862185686483468 -0.0017952987454768362 -0.0022289122697492364 -0.0029235531333810035 0.0008827187419551568 -0.0005179172168108857 -0.003075141237377911 0.00496176321587297 -0.00034291738289545204 -0.003543733806557339 -0.001720289420525704 0.0014944137627317992 0.0014944137627317992 -0.0008215463073290973 -0.0011867621973992632 -0.0010472328134631737 -0.006408435695475637 -0.003604299882141755 -0.003604299882141755
1129683 0.007389103137149519 -0.003263638335108685 -0.01317773824909329 -0.0037084281013804463 0.007620632358970145 -0.007030965961405282 0.006651938961859666 0.021836770459212927 0.010533176041364589 -0.006492825388475883 8.159772343871871e-06 -0.002014957571555593 0.0011444606591009862 -0.0013740407294946886 0.009794262032288201 -0.002672347418609532 -0.002672347418609532 0.01382383601903069 -0.0008786611247267648 -0.001162737380787671 0.00020393963529979228 0.004865101841131124 -0.0022158495432636743 -0.0005393268101468139 -0.0018008270113970112 -0.002236756235710464 -0.000262788216266026 -0.000262788216266026 -0.00044072771872022247 0.0018449118717107275 -0.013952012378629985 -0.00014023021422388283 -0.0023177207142329745 -0.002877513366965441 -0.0037742908657790483 0.0011395849956591392 -0.0006686282518075098 -0.00396999026653338 0.006405608767633522 -0.00044270443769301723 -0.004574940672062977 -0.0022208840921176085 0.0019292798718011438 0.0019292798718011438 -0.0010606117221412608 -0.0015321034088119697 -0.0013519717487149145 -0.00827325490793947 -0.004653131139424183 -0.004653131139424183
1129778 0.007318604341959709 -0.003249519732647597 -0.014556932134865584 -0.004108646164570928 0.010283484007476223 -0.010066230151925083 0.008641331449966946 0.030139343228093134 0.014113233852460598 -0.009834100048918718 -0.0001539498846104461 -0.0001068842270242649 0.00019207306455948971 -0.0012289793900014322 0.008760254277456673 -0.002390220195002873 -0.002390220195002873 0.012364414819345094 -0.0007858984016301887 -0.0010399839293685307 0.0001824091551347863 0.0043514793736914095 -0.0019819160826597933 -0.0004823885638305641 -0.0016107086452805748 -0.00200061559685802 -0.00023504492610270086 -0.00023504492610270086 -0.00039419885545072367 0.0016501393430566327 -0.012479059240614076 -0.00012542571660160127 -0.0020730324279536953 -0.002573726197879605 -0.0033758283770953896 0.0010192758065730512 -0.0005980392890873973 -0.0035508672423924434 0.005729350656678918 -0.00039596688664898295 -0.004091951334304533 -0.0019864191200491773 0.0017256003763877936 0.0017256003763877936 -0.0009486399633763985 -0.0013703549482650618 -0.0012092402935143527 -0.007399824147734506 -0.004161887014389454 -0.004161887014389454
1130847 0.006217013456940655 -0.0026918320335526593 -0.012022598853246478 -0.0036169371829201215 0.008275821949957659 -0.00799005565199174 0.006848234977259948 0.023286131767541175 0.011280944844198013 -0.007465904138419246 -9.440042410424237e-05 -0.0007541812855785154 0.0006505820944959837 -0.0010643273724687257 0.007586602747888777 -0.002069991409511042 -0.002069991409511042 0.010707897336481633 -0.0006806079806053166 -0.0009006525023606881 0.00015797096222957852 0.00376849168166077 -0.0017163896757522992 -0.0004177607507723885 -0.0013949146049082252 -0.0017325839300864165 -0.0002035548770355893 -0.0002035548770355893 -0.0003413862229630648 0.0014290625908711958 -0.01080718231770275 -0.0001086218568648199 -0.0017952987454768283 -0.0022289122697492524 -0.002923553133380987 0.0008827187419550961 -0.0005179172168108953 -0.0030751412373778574 0.0049617632158729845 -0.0003429173828954294 -0.0035437338065573377 -0.0017202894205256905 0.001494413762731793 0.001494413762731793 -0.0008215463073290913 -0.0011867621973992847 -0.0010472328134631702 -0.0064084356954756646 -0.0036042998821418084 -0.0036042998821418084
1130856 0.005057158855402006 -0.0021883094924903604 -0.009728954092344911 -0.002926444900012234 0.006689348225217183 -0.006457625999439172 0.00552950267607134 0.018791107879685992 0.009099746888785093 -0.006014593627675876 -7.57643469190607e-05 -0.0006044069293864479 0.000521143718717832 -0.0008690196606085115 0.00619443520450804 -0.0016901409084155074 -0.0016901409084155074 0.008742961564162346 -0.000555714089116352 -0.0007353796887815267 0.0001289827505463003 0.0030769605733305914 -0.0014014263017914123 -0.0003411002246514404 -0.0011389430055937081 -0.001414648855085877 -0.0001662018611307189 -0.0001662018611307189 -0.00027874068382517783 0.0011668247193780486 -0.008824027411866857 -8.868937474415477e-05 -0.001465855287425664 -0.001819899247438119 -0.002387071137566118 0.0007207368347271733 -0.0004228776367296943 -0.0025108423061888617 0.004051262701133234 -0.0002799908706747935 -0.0028934465367720817 -0.0014046104300653888 0.0012201837277618476 0.0012201837277618476 -0.0006707897510080022 -0.0009689872765507845 -0.0008550620116280167 -0.005232465834451083 -0.002942898530406991 -0.002942898530406991
1131116 0.007445956802090011 -0.0032826695467253293 -0.015124181014880077 -0.004479638542690063 0.010583190111578693 -0.010230502424038583 0.008941170254830379 0.030511245423468555 0.014798716668848012 -0.010135538280494606 -0.0001225984459274274 -0.0014310815727838842 0.0011755668905587418 -0.001228979390001413 0.008760254277456728 -0.0023902201950029406 -0.0023902201950029406 0.012364414819345186 -0.0007858984016302731 -0.0010399839293684023 0.00018240915513481517 0.004351479373691327 -0.001981916082659772 -0.00048238856383057407 -0.0016107086452805807 -0.00200061559685803 -0.0002350449261026014 -0.0002350449261026014 -0.0003941988554506937 0.0016501393430565516 -0.012479059240614187 -0.00012542571660155316 -0.0020730324279537482 -0.0025737261978798134 -0.0033758283770952495 0.001019275806572926 -0.0005980392890874224 -0.0035508672423923905 0.005729350656679006 -0.00039596688664904177 -0.004091951334304651 -0.0019864191200490507 0.0017256003763877971 0.0017256003763877971 -0.0009486399633763297 -0.0013703549482650622 -0.0012092402935142234 -0.007399824147734547 -0.004161887014389515 -0.004161887014389515
1131360 0.007421671352398801 -0.0032594406921152732 -0.0149900779743223 -0.004502526036064178 0.010465706088460083 -0.010109083698838662 0.008805383168753613 0.03002422027517992 0.014556101519417237 -0.009903927386759213 -0.0001244514296362989 -0.0012481523696764966 0.0010397413789725702 -0.0012289793900014051 0.008760254277456744 -0.0023902201950028105 -0.0023902201950028105 0.012364414819345075 -0.0007858984016302285 -0.0010399839293685513 0.0001824091551348022 0.004351479373691436 -0.0019819160826597933 -0.00048238856383061305 -0.0016107086452806312 -0.0020006155968580698 -0.00023504492610270947 -0.00023504492610270947 -0.00039419885545072833 0.0016501393430566383 -0.012479059240614057 -0.000125425716601597 -0.0020730324279537122 -0.0025737261978795436 -0.003375828377095351 0.001019275806573018 -0.0005980392890874274 -0.0035508672423924656 0.0057293506566788634 -0.0003959668866489606 -0.00409195133430447 -0.0019864191200491834 0.0017256003763877724 0.0017256003763877724 -0.0009486399633763873 -0.0013703549482651138 -0.0012092402935143711 -0.007399824147734545 -0.004161887014389404 -0.004161887014389404
1131557 0.005151079925775279 -0.0022682835507966542 -0.010074694815037843 -0.002927850176935524 0.007089525724284561 -0.006869585133913557 0.005935862780756212 0.02027182907701941 0.009709651870227926 -0.006698018178398954 -8.980489594020428e-05 -0.0006954606610812053 0.0006422062757799144 -0.0008690196606085278 0.006194435204508072 -0.0016901409084155241 -0.0016901409084155241 0.00874296156416235 -0.0005557140891163838 -0.0007353796887815392 0.00012898275054627886 0.0030769605733306123 -0.0014014263017914238 -0.0003411002246514186 -0.0011389430055936815 -0.0014146488550859139 -0.0001662018611307189 -0.0001662018611307189 -0.0002787406838251669 0.0011668247193780273 -0.008824027411866857 -8.868937474417177e-05 -0.0014658552874256747 -0.0018198992474381013 -0.002387071137566146 0.0007207368347271969 -0.0004228776367296726 -0.0025108423061889055 0.004051262701133252 -0.0002799908706747995 -0.0028934465367720973 -0.0014046104300654125 0.001220183727761838 0.001220183727761838 -0.0006707897510079933 -0.0009689872765507492 -0.0008550620116280388 -0.005232465834451066 -0.0029428985304069907 -0.0029428985304069907
1131752 0.005041661044646657 -0.0022050517698648632 -0.009577969685091838 -0.002832479203840021 0.0066405482182128025 -0.0064164016106438605 0.005502457578306605 0.01861505199614395 0.008996766353639524 -0.0060798129829735745 -7.353053098173218e-05 -0.0006993803418049925 0.0005977138454471502 -0.0008690196606085047 0.006194435204508094 -0.001690140908415526 -0.001690140908415526 0.008742961564162361 -0.0005557140891163698 -0.0007353796887815252 0.0001289827505463025 0.003076960573330612 -0.001401426301791412 -0.0003411002246514408 -0.001138943005593707 -0.0014146488550859247 -0.00016620186113070745 -0.00016620186113070745 -0.000278740683825191 0.0011668247193780557 -0.008824027411866867 -8.868937474415234e-05 -0.001465855287425666 -0.0018198992474381178 -0.0023870711375661253 0.0007207368347271951 -0.00042287763672968075 -0.0025108423061889025 0.004051262701133243 -0.0002799908706748074 -0.0028934465367720904 -0.0014046104300653845 0.0012201837277618578 0.0012201837277618578 -0.0006707897510080062 -0.0009689872765507748 -0.0008550620116280163 -0.005232465834451072 -0.002942898530406998 -0.002942898530406998
1133196 0.005133340601839824 -0.002268512401707621 -0.010022327874461343 -0.0028506043547060224 0.007062358777694144 -0.006859987720974626 0.005992570758990445 0.02060233301295588 0.00976699643447537 -0.006763898371647551 -9.495128458201403e-05 -0.0006187452566098002 0.0005750238867255654 -0.0008690196606085147 0.0061944352045080996 -0.0016901409084155343 -0.0016901409084155343 0.00874296156416239 -0.0005557140891163949 -0.0007353796887814792 0.00012898275054629352 0.0030769605733305633 -0.0014014263017914285 -0.00034110022465142745 -0.001138943005593706 -0.0014146488550859056 -0.00016620186113068235 -0.00016620186113068235 -0.00027874068382520163 0.0011668247193780585 -0.008824027411866884 -8.868937474416629e-05 -0.0014658552874256684 -0.0018198992474381492 -0.00238707113756612 0.0007207368347271929 -0.00042287763672967316 -0.0025108423061888686 0.004051262701133265 -0.00027999087067481787 -0.002893446536772096 -0.001404610430065373 0.0012201837277618576 0.0012201837277618576 -0.0006707897510080242 -0.000968987276550776 -0.000855062011627999 -0.005232465834451075 -0.002942898530407008 -0.002942898530407008
1133338 0.0051043516291712785 -0.002234402876866749 -0.009888019062391118 -0.0029652875927532285 0.0068614471189942395 -0.006629029029267833 0.005709010952736353 0.01936653015510904 0.009366475079091845 -0.006339980828601238 -7.404984338678797e-05 -0.000823129808259384 0.0006754508703909977 -0.0008690196606084946 0.006194435204508081 -0.0016901409084155291 -0.0016901409084155291 0.008742961564162358 -0.0005557140891163742 -0.0007353796887815237 0.00012898275054630247 0.0030769605733306014 -0.0014014263017913975 -0.00034110022465145244 -0.0011389430055937105 -0.001414648855085897 -0.0001662018611307217 -0.0001662018611307217 -0.00027874068382518504 0.001166824719378059 -0.00882402741186687 -8.868937474416878e-05 -0.0014658552874256792 -0.001819899247438123 -0.0023870711375661184 0.0007207368347271813 -0.0004228776367296949 -0.0025108423061888877 0.004051262701133251 -0.00027999087067480285 -0.0028934465367720947 -0.0014046104300653856 0.001220183727761856 0.001220183727761856 -0.0006707897510080078 -0.0009689872765507834 -0.0008550620116280097 -0.0052324658344510755 -0.0029428985304069976 -0.0029428985304069976
1136814 0.006254856220538954 -0.002747274373879764 -0.012142682324633086 -0.0035526017060165324 0.0084925061955343 -0.00823928914959254 0.007082485420776458 0.024268158461268948 0.011566864974816907 -0.007948081134513642 -9.556726218430888e-05 -0.0009192917931816929 0.0007689417179413714 -0.0010643273724687257 0.007586602747888748 -0.0020699914095110403 -0.0020699914095110403 0.010707897336481611 -0.0006806079806053208 -0.0009006525023607337 0.0001579709622295568 0.0037684916816608 -0.0017163896757523042 -0.00041776075077240034 -0.001394914604908231 -0.0017325839300864306 -0.00020355487703558424 -0.00020355487703558424 -0.0003413862229630795 0.0014290625908712018 -0.010807182317702722 -0.00010862185686484544 -0.0017952987454768327 -0.002228912269749248 -0.0029235531333809896 0.0008827187419551138 -0.0005179172168108901 -0.0030751412373778457 0.004961763215872978 -0.0003429173828954278 -0.0035437338065573407 -0.0017202894205257163 0.0014944137627318022 0.0014944137627318022 -0.0008215463073290915 -0.0011867621973992886 -0.001047232813463185 -0.006408435695475647 -0.0036042998821418037 -0.0036042998821418037
1137466 0.0035382893469908024 -0.001545639946510791 -0.006651969026810184 -0.001966551904977462 0.004601303379252072 -0.004444964416774969 0.0038044606529041816 0.012855530366024218 0.006208198971567701 -0.0041844164504529525 -5.022215383739416e-05 -0.0004762588663988044 0.00040664805509420775 -0.0006144896950007222 0.0043801271387283345 -0.001195110097501405 -0.001195110097501405 0.006182207409672547 -0.0003929492008150912 -0.0005199919646842709 9.120457756738285e-05 0.0021757396868457243 -0.000990958041329905 -0.00024119428191527871 -0.0008053543226402916 -0.001000307798429023 -0.00011752246305135201 -0.00011752246305135201 -0.0001970994277253648 0.0008250696715283092 -0.006239529620307042 -6.271285830078962e-05 -0.0010365162139768494 -0.0012868630989397959 -0.0016879141885476944 0.000509637903286521 -0.00029901964454370127 -0.0017754336211962289 0.0028646753283394447 -0.0001979834433244722 -0.0020459756671522607 -0.0009932095600245856 0.0008628001881938893 0.0008628001881938893 -0.0004743199816881944 -0.0006851774741325339 -0.0006046201467571771 -0.0036999120738672835 -0.002080943507194714 -0.002080943507194714
1152421 0.007271042992586561 -0.003201705813126622 -0.014263074713662135 -0.004165838428631477 0.009861977700567086 -0.009536719015306398 0.008330174080397733 0.028441435237352618 0.013624969126469681 -0.009242252071718925 -0.00010679700653894477 -0.0012702166746666075 0.0010158245582300674 -0.001228979390001411 0.008760254277456641 -0.002390220195002833 -0.002390220195002833 0.012364414819345124 -0.0007858984016302111 -0.001039983929368493 0.00018240915513475413 0.00435147937369141 -0.00198191608265979 -0.00048238856383059185 -0.0016107086452805887 -0.0020006155968580446 -0.00023504492610270275 -0.00023504492610270275 -0.0003941988554507255 0.0016501393430566444 -0.01247905924061411 -0.00012542571660157382 -0.002073032427953715 -0.0025737261978795996 -0.003375828377095382 0.0010192758065730204 -0.0005980392890874013 -0.0035508672423924326 0.0057293506566789155 -0.00039596688664896224 -0.0040919513343045345 -0.0019864191200491444 0.0017256003763877754 0.0017256003763877754 -0.0009486399633764032 -0.0013703549482650735 -0.0012092402935143273 -0.00739982414773457 -0.004161887014389435 -0.004161887014389435
1152508 0.0035382893469907977 -0.0015456399465107824 -0.006651969026810183 -0.0019665519049774658 0.004601303379252065 -0.004444964416774966 0.003804460652904184 0.012855530366024211 0.006208198971567701 -0.004184416450452947 -5.022215383739264e-05 -0.000476258866398807 0.00040664805509420775 -0.0006144896950007201 0.004380127138728335 -0.0011951100975014077 -0.0011951100975014077 0.006182207409672544 -0.00039294920081509114 -0.0005199919646842769 9.120457756738307e-05 0.0021757396868457277 -0.0009909580413299016 -0.00024119428191527736 -0.0008053543226402906 -0.0010003077984290208 -0.00011752246305135298 -0.00011752246305135298 -0.0001970994277253653 0.0008250696715283102 -0.00623952962030704 -6.271285830079253e-05 -0.0010365162139768507 -0.0012868630989397944 -0.001687914188547692 0.0005096379032865203 -0.0002990196445436999 -0.0017754336211962295 0.0028646753283394447 -0.00019798344332447524 -0.002045975667152263 -0.00099320956002459 0.0008628001881938902 0.0008628001881938902 -0.0004743199816881958 -0.000685177474132533 -0.0006046201467571806 -0.0036999120738672783 -0.0020809435071947125 -0.0020809435071947125
1153065 0.0051043516291712715 -0.0022344028768667497 -0.009888019062391139 -0.002965287592753228 0.006861447118994244 -0.006629029029267845 0.005709010952736341 0.01936653015510904 0.009366475079091852 -0.006339980828601251 -7.404984338678017e-05 -0.0008231298082593771 0.0006754508703909938 -0.0008690196606085125 0.006194435204508092 -0.0016901409084155129 -0.0016901409084155129 0.008742961564162348 -0.0005557140891163757 -0.000735379688781534 0.0001289827505463042 0.0030769605733306114 -0.0014014263017914168 -0.0003411002246514542 -0.0011389430055937138 -0.001414648855085896 -0.00016620186113072035 -0.00016620186113072035 -0.0002787406838251853 0.0011668247193780598 -0.008824027411866862 -8.868937474416946e-05 -0.0014658552874256795 -0.0018198992474381173 -0.00238707113756612 0.0007207368347271839 -0.00042287763672969604 -0.002510842306188888 0.004051262701133237 -0.0002799908706747903 -0.00289344653677209 -0.001404610430065392 0.0012201837277618537 0.0012201837277618537 -0.0006707897510080066 -0.0009689872765507868 -0.0008550620116280158 -0.005232465834451082 -0.0029428985304069963 -0.0029428985304069963
1153280 0.007271042992586565 -0.003201705813126632 -0.014263074713662146 -0.004165838428631474 0.009861977700567097 -0.009536719015306415 0.008330174080397733 0.02844143523735263 0.013624969126469674 -0.009242252071718943 -0.00010679700653894304 -0.0012702166746666075 0.0010158245582300722 -0.0012289793900014093 0.00876025427745664 -0.0023902201950028287 -0.0023902201950028287 0.012364414819345136 -0.000785898401630213 -0.0010399839293684942 0.0001824091551347533 0.0043514793736914095 -0.001981916082659786 -0.0004823885638305913 -0.0016107086452805913 -0.002000615596858045 -0.00023504492610270208 -0.00023504492610270208 -0.0003941988554507264 0.0016501393430566422 -0.012479059240614121 -0.00012542571660157848 -0.0020730324279537213 -0.0025737261978795987 -0.003375828377095384 0.0010192758065730222 -0.0005980392890873992 -0.0035508672423924317 0.005729350656678919 -0.00039596688664895823 -0.004091951334304536 -0.001986419120049148 0.0017256003763877722 0.0017256003763877722 -0.0009486399633764032 -0.0013703549482650763 -0.0012092402935143284 -0.007399824147734586 -0.004161887014389433 -0.004161887014389433
1153577 0.008068717722599626 -0.003551910911934351 -0.015691242399341956 -0.004445604945076607 0.011068274771768263 -0.010787155426873645 0.009233225174566808 0.032118727328730584 0.014966965883452135 -0.010422200072551274 -0.0001261292854855361 -0.0010506253317538019 0.0008816226632428439 -0.001374040729494712 0.00979426203228828 -0.0026723474186095505 -0.0026723474186095505 0.013823836019030707 -0.0008786611247267877 -0.001162737380787722 0.00020393963529985066 0.004865101841131146 -0.002215849543263707 -0.0005393268101468603 -0.0018008270113970398 -0.0022367562357104563 -0.0002627882162660513 -0.0002627882162660513 -0.00044072771872021206 0.0018449118717107258 -0.013952012378629995 -0.00014023021422390256 -0.00231772071423296 -0.002877513366965383 -0.0037742908657790114 0.0011395849956590876 -0.0006686282518075606 -0.00396999026653337 0.006405608767633524 -0.0004427044376930159 -0.0045749406720629205 -0.0022208840921176622 0.0019292798718011394 0.0019292798718011394 -0.0010606117221412575 -0.0015321034088119996 -0.0013519717487149728 -0.008273254907939462 -0.004653131139424183 -0.004653131139424183
1153853 0.007442036668980966 -0.00327896207772947 -0.015109501531727215 -0.0045563899183250385 0.01058375970631893 -0.01025730314395623 0.008977453924324346 0.030945034425054654 0.014823688270416961 -0.009910438192325819 -0.00013495036121549217 -0.0011675390037011685 0.0009789409551169016 -0.001228979390001428 0.008760254277456666 -0.0023902201950028725 -0.0023902201950028725 0.012364414819345144 -0.0007858984016302422 -0.0010399839293685122 0.00018240915513479961 0.004351479373691425 -0.0019819160826598 -0.00048238856383057033 -0.00161070864528058 -0.0020006155968580225 -0.00023504492610268467 -0.00023504492610268467 -0.00039419885545068865 0.0016501393430566132 -0.012479059240614116 -0.00012542571660155874 -0.0020730324279536988 -0.0025737261978796265 -0.0033758283770953935 0.0010192758065730397 -0.0005980392890873997 -0.0035508672423924404 0.0057293506566789285 -0.0003959668866489653 -0.00409195133430453 -0.00198641912004916 0.0017256003763877644 0.0017256003763877644 -0.0009486399633763781 -0.0013703549482650661 -0.001209240293514353 -0.007399824147734535 -0.004161887014389458 -0.004161887014389458
1153943 0.007576621320257943 -0.00339163510734796 -0.01342836747157539 -0.0031538935087773385 0.009339982127750586 -0.009438018206537233 0.008028544953504222 0.02864215443152801 0.01243799887972806 -0.008583847127143206 -0.00010590488934015283 -0.0007932594156480718 0.0006728559678561481 -0.0013740407294946825 0.00979426203228818 -0.002672347418609564 -0.002672347418609564 0.013823836019030703 -0.0008786611247267662 -0.0011627373807876803 0.00020393963529980767 0.004865101841131106 -0.002215849543263685 -0.0005393268101468288 -0.0018008270113969694 -0.0022367562357104073 -0.0002627882162660313 -0.0002627882162660313 -0.00044072771872019775 0.0018449118717107451 -0.013952012378629999 -0.00014023021422389712 -0.0023177207142329797 -0.0028775133669654315 -0.003774290865779053 0.0011395849956590948 -0.0006686282518075458 -0.0039699902665333445 0.006405608767633546 -0.0004427044376930295 -0.004574940672062981 -0.0022208840921176193 0.0019292798718011418 0.0019292798718011418 -0.0010606117221412658 -0.0015321034088119371 -0.0013519717487149208 -0.008273254907939457 -0.0046531311394242035 -0.0046531311394242035
1154176 0.004892467287153016 -0.002151487231805515 -0.008924470250878861 -0.0023930321000948137 0.006329673834221299 -0.006209541878587901 0.005200841581426719 0.018342836921396297 0.008230801361328532 -0.005861657277710348 -6.824351198311578e-05 -0.0003832155755267527 0.00034076354501616973 -0.0008690196606085096 0.006194435204508072 -0.001690140908415537 -0.001690140908415537 0.00874296156416235 -0.0005557140891163811 -0.0007353796887815398 0.00012898275054628144 0.003076960573330617 -0.0014014263017914064 -0.0003411002246514799 -0.001138943005593709 -0.0014146488550858978 -0.00016620186113070861 -0.00016620186113070861 -0.00027874068382520076 0.0011668247193780854 -0.008824027411866853 -8.868937474416436e-05 -0.0014658552874256727 -0.0018198992474381217 -0.0023870711375661062 0.0007207368347271722 -0.0004228776367296961 -0.0025108423061888808 0.004051262701133257 -0.00027999087067480415 -0.002893446536772097 -0.001404610430065391 0.001220183727761862 0.001220183727761862 -0.0006707897510080188 -0.0009689872765507817 -0.0008550620116280174 -0.005232465834451057 -0.00294289853040699 -0.00294289853040699
1154459 0.007271042992586555 -0.0032017058131266233 -0.01426307471366213 -0.004165838428631472 0.009861977700567095 -0.009536719015306403 0.008330174080397736 0.028441435237352618 0.013624969126469665 -0.009242252071718932 -0.00010679700653894521 -0.001270216674666611 0.0010158245582300648 -0.001228979390001411 0.008760254277456634 -0.002390220195002837 -0.002390220195002837 0.012364414819345127 -0.0007858984016302017 -0.001039983929368493 0.00018240915513475841 0.00435147937369141 -0.00198191608265979 -0.00048238856383058833 -0.001610708645280589 -0.0020006155968580464 -0.00023504492610270118 -0.00023504492610270118 -0.0003941988554507228 0.0016501393430566386 -0.012479059240614107 -0.00012542571660156964 -0.0020730324279537075 -0.002573726197879601 -0.003375828377095381 0.0010192758065730217 -0.0005980392890873971 -0.0035508672423924257 0.005729350656678918 -0.0003959668866489646 -0.0040919513343045276 -0.0019864191200491426 0.0017256003763877735 0.0017256003763877735 -0.0009486399633764005 -0.001370354948265073 -0.001209240293514327 -0.0073998241477345695 -0.0041618870143894345 -0.0041618870143894345
116552 0.00711045330465922 -0.00319639980081487 -0.013071313413691011 -0.0033453468422749797 0.00968635862115585 -0.009624827422142724 0.008246774512426449 0.028556881531530583 0.01313168442869032 -0.008963576131942626 -0.00016722716224055873 -0.00011611558603168774 0.00031954948804699846 -0.0012289793900014166 0.008760254277456657 -0.0023902201950028036 -0.0023902201950028036 0.012364414819345098 -0.0007858984016301631 -0.0010399839293684927 0.00018240915513477728 0.004351479373691416 -0.0019819160826598146 -0.0004823885638305453 -0.001610708645280567 -0.0020006155968579943 -0.00023504492610269993 -0.00023504492610269993 -0.0003941988554507153 0.0016501393430566429 -0.012479059240614083 -0.00012542571660151467 -0.002073032427953662 -0.0025737261978795783 -0.003375828377095405 0.0010192758065730575 -0.0005980392890873801 -0.0035508672423924274 0.005729350656678873 -0.0003959668866489248 -0.0040919513343044885 -0.001986419120049135 0.0017256003763877574 0.0017256003763877574 -0.0009486399633763969 -0.0013703549482650585 -0.0012092402935143488 -0.0073998241477345695 -0.004161887014389434 -0.004161887014389434
12576 0.01583648118755548 -0.006437890574321801 -0.02641088526057151 -0.010426749980835953 0.01713116757293204 -0.015944623454832163 0.013220586808586263 0.041786607105022605 0.021437317150908602 -0.010971190628186845 -1.998958325785359e-05 -0.001979445517713715 0.00090309441492729 -0.0028822121496804303 0.020544617361521758 -0.005605563236044654 -0.005605563236044654 0.028997123064825308 -0.0018430951243131163 -0.002438978506136725 0.0004277873879899668 0.010205123716454597 -0.004648005214377502 -0.0011313014610747523 -0.00377744660715395 -0.004691859462425695 -0.0005512292128294268 -0.0005512292128294268 -0.0009244782620553024 0.00386991979028883 -0.029265988064973242 -0.000294149378917589 -0.004861691985349554 -0.006035922960002317 -0.007917019311193764 0.0023904136533786095 -0.0014025264532645833 -0.008327521837379297 0.013436518306820674 -0.0009286246627532316 -0.009596476513426199 -0.004658565773146639 0.004046891600283253 0.004046891600283253 -0.002224757917309521 -0.0032137672229472724 -0.0028359198650566597 -0.017354125901228142 -0.009760490221448174 -0.009760490221448174
128540 0.00668953543154712 -0.0028394505411111007 -0.011055358969870028 -0.003277568100601055 0.007697821842057608 -0.007311681688963583 0.0060921241744437814 0.02071263253556054 0.00952382956766901 -0.00559824705012545 -8.391544673533849e-05 0.00015383745836743663 -3.620752939439101e-05 -0.0012289793900014303 0.008760254277456707 -0.0023902201950027875 -0.0023902201950027875 0.012364414819345066 -0.0007858984016301932 -0.0010399839293685677 0.000182409155134725 0.004351479373691473 -0.0019819160826598033 -0.0004823885638305544 -0.001610708645280599 -0.002000615596858058 -0.00023504492610271685 -0.00023504492610271685 -0.0003941988554507385 0.0016501393430566399 -0.012479059240614052 -0.0001254257166015665 -0.00207303242795369 -0.002573726197879562 -0.0033758283770954013 0.001019275806573044 -0.0005980392890873956 -0.0035508672423924872 0.0057293506566788634 -0.00039596688664893633 -0.00409195133430452 -0.001986419120049182 0.0017256003763877691 0.0017256003763877691 -0.0009486399633764049 -0.0013703549482650815 -0.001209240293514378 -0.007399824147734561 -0.004161887014389402 -0.004161887014389402
132806 0.007295015950217899 -0.003121674003363389 -0.011522254455681936 -0.0031550958543662766 0.008248951289405233 -0.007905249351429885 0.006527121960182701 0.022490167961623054 0.009977570691681538 -0.006137736068000626 -0.0001137440893161338 0.0007043524828657568 -0.00038591699255362976 -0.0013740407294947066 0.009794262032288252 -0.002672347418609535 -0.002672347418609535 0.013823836019030688 -0.0008786611247267927 -0.001162737380787697 0.00020393963529981245 0.004865101841131157 -0.002215849543263689 -0.00053932681014682 -0.0018008270113969954 -0.002236756235710447 -0.0002627882162660315 -0.0002627882162660315 -0.00044072771872023667 0.0018449118717107408 -0.013952012378629974 -0.00014023021422387551 -0.002317720714232971 -0.002877513366965386 -0.003774290865779026 0.001139584995659121 -0.0006686282518075359 -0.003969990266533402 0.0064056087676335124 -0.00044270443769301316 -0.004574940672062947 -0.002220884092117627 0.0019292798718011392 0.0019292798718011392 -0.0010606117221412643 -0.0015321034088119562 -0.001351971748714953 -0.00827325490793946 -0.004653131139424182 -0.004653131139424182
135130 0.008442657334671309 -0.0034523267681624914 -0.014671660713724116 -0.005661642127238945 0.009555293809771397 -0.008925116545569153 0.007476501220677243 0.023813884580562057 0.012252422277634137 -0.006554677369938502 -2.342225933714342e-06 -0.00158760473198665 0.0008446639350355508 -0.0015051862049502002 0.010729076498401335 -0.002927409925326288 -0.002927409925326288 0.015143253637751052 -0.0009625250368313796 -0.0012737149838238269 0.00022340467724611622 0.005329452045894925 -0.0024273415577660854 -0.0005908029195694561 -0.001972707152613488 -0.0024502436918778605 -0.0002878700677909523 -0.0002878700677909523 -0.0004827930265217411 0.0020209996974901202 -0.015283663804733895 -0.0001536145031484045 -0.0025389358343647426 -0.0031521579612191555 -0.004134528491545792 0.0012483528166339249 -0.000732445552200491 -0.004348906444112624 0.007016992833171497 -0.0004849584136642131 -0.005011596410673434 -0.0024328566297144296 0.002113420211052328 0.002113420211052328 -0.0011618419299423506 -0.0016783351948737404 -0.0014810108477617732 -0.009062896674137544 -0.005097249776184624 -0.005097249776184624
141342 0.009762876249559809 -0.00439523885374986 -0.017288084538340333 -0.0042468536338640325 0.01272167967374524 -0.012587922691085858 0.010622268402880502 0.037311459397450064 0.016663098696716526 -0.011762793749994534 -0.00022746998754585537 0.0012112903064278031 -0.0007024601260012872 -0.0017380393212170337 0.012388870409016152 -0.003380281816831103 -0.003380281816831103 0.017485923128324685 -0.0011114281782326858 -0.0014707593775630105 0.00025796550109258905 0.006153921146661212 -0.0028028526035828462 -0.0006822004493028258 -0.002277886011187377 -0.002829297710171764 -0.0003324037222614159 -0.0003324037222614159 -0.0005574813676504197 0.0023336494387561505 -0.017648054823733703 -0.00017737874948832197 -0.002931710574851348 -0.0036397984948763323 -0.004774142275132257 0.001441473669454395 -0.0008457552734593414 -0.005021684612377751 0.00810252540226651 -0.0005599817413496466 -0.005786893073544224 -0.0028092208601307343 0.002440367455523729 0.002440367455523729 -0.001341579502016041 -0.0019379745531015239 -0.001710124023255967 -0.010464931668902082 -0.005885797060814019 -0.005885797060814019
141347 0.0062800096402650645 -0.002767080054998275 -0.012243170111441685 -0.0035449234507522794 0.008551705831538043 -0.008291671255582504 0.007184530497077617 0.02458743253749847 0.011739179437855223 -0.008019607599738424 -0.00010097047443362568 -0.000870907675904743 0.0007329967796002469 -0.001064327372468713 0.0075866027478887765 -0.0020699914095110455 -0.0020699914095110455 0.010707897336481599 -0.0006806079806053039 -0.0009006525023606871 0.00015797096222957614 0.003768491681660756 -0.001716389675752311 -0.0004177607507723526 -0.0013949146049081818 -0.001732583930086417 -0.00020355487703557478 -0.00020355487703557478 -0.00034138622296305747 0.0014290625908711721 -0.010807182317702715 -0.00010862185686483365 -0.0017952987454768362 -0.002228912269749268 -0.0029235531333809835 0.0008827187419551103 -0.0005179172168108699 -0.0030751412373778665 0.0049617632158729715 -0.0003429173828954472 -0.003543733806557353 -0.0017202894205256903 0.0014944137627317924 0.0014944137627317924 -0.0008215463073290785 -0.0011867621973992396 -0.0010472328134631553 -0.006408435695475634 -0.003604299882141812 -0.003604299882141812
148170 0.00588837859558011 -0.002480989955882145 -0.010472148263403674 -0.003058919483636851 0.007153577242839801 -0.006854973499101775 0.005794330932938853 0.019638960751174196 0.009299171322665983 -0.005875514815565027 -9.491465914449336e-05 3.201934883516084e-05 9.289461729081412e-05 -0.001064327372468737 0.007586602747888756 -0.002069991409511018 -0.002069991409511018 0.010707897336481604 -0.0006806079806053088 -0.0009006525023607374 0.00015797096222956388 0.003768491681660814 -0.001716389675752313 -0.0004177607507724229 -0.0013949146049082172 -0.0017325839300864566 -0.00020355487703557057 -0.00020355487703557057 -0.0003413862229630886 0.0014290625908711977 -0.010807182317702715 -0.00010862185686482519 -0.0017952987454768227 -0.002228912269749239 -0.0029235531333809944 0.0008827187419551094 -0.000517917216810892 -0.0030751412373778713 0.0049617632158729654 -0.0003429173828954141 -0.003543733806557317 -0.001720289420525713 0.0014944137627317944 0.0014944137627317944 -0.0008215463073290939 -0.0011867621973992706 -0.0010472328134631885 -0.00640843569547566 -0.0036042998821417863 -0.0036042998821417863
15670 0.005080289026640633 -0.002224749802675074 -0.009758153973585352 -0.002886750940925858 0.006782296422665252 -0.006555004453909368 0.005633173792193881 0.01908183381532592 0.009230461611292883 -0.006255805245911226 -7.6314571093844e-05 -0.000728366490023217 0.0006231600490299193 -0.0008690196606085124 0.006194435204508028 -0.0016901409084155003 -0.0016901409084155003 0.008742961564162304 -0.0005557140891163845 -0.0007353796887815605 0.000128982750546309 0.0030769605733306006 -0.0014014263017914086 -0.0003411002246514463 -0.0011389430055937049 -0.0014146488550858764 -0.0001662018611307088 -0.0001662018611307088 -0.0002787406838251794 0.0011668247193780434 -0.00882402741186682 -8.86893747442032e-05 -0.0014658552874256944 -0.0018198992474380885 -0.0023870711375661396 0.000720736834727204 -0.00042287763672967023 -0.002510842306188859 0.004051262701133218 -0.0002799908706748138 -0.0028934465367720873 -0.001404610430065422 0.0012201837277618492 0.0012201837277618492 -0.0006707897510079917 -0.0009689872765507821 -0.0008550620116280325 -0.0052324658344510624 -0.0029428985304069673 -0.0029428985304069673
1688 0.015061669551464216 -0.006598443955523292 -0.029700573468090255 -0.009018633945114221 0.02062305819753631 -0.019922013559797044 0.01722053198212169 0.05855360493845074 0.028334827226247767 -0.019203165242986254 -0.00021730479328919364 -0.0027348853123778942 0.0021793679700267466 -0.0025336059183414953 0.0180597268466114 -0.004927565166240524 -0.004927565166240524 0.025489894149556085 -0.001620171060462721 -0.002143981794865674 0.00037604610685016684 0.008970804542713163 -0.004085824674958333 -0.0009944695006317938 -0.003320560938293744 -0.0041243747110519344 -0.0004845575285435051 -0.0004845575285435051 -0.0008126617592604512 0.0034018494042049006 -0.02572623967869602 -0.00025857173885859017 -0.004273665832891899 -0.005305872482638431 -0.0069594484863608475 0.0021012909060685887 -0.001232889578588367 -0.007320300351464886 0.011811358961844497 -0.0008163066489502846 -0.008435773783112327 -0.004095107924354613 0.0035574163097261734 0.0035574163097261734 -0.0019556713848414785 -0.002825059098142407 -0.0024929127284562843 -0.01525512828605292 -0.008579949881107054 -0.008579949881107054
175291 0.005785805644355708 -0.0022467036230588286 -0.006133855678267438 -0.001995953167138839 -0.0013693496311868324 0.0023379523989065652 -0.0010358303992259634 0.0028870754204930577 -0.004115888949587879 0.012651155385813162 0.0006962406754601164 -0.011723852995991768 0.006441122797012751 -0.0015051862049501868 0.010729076498401255 -0.0029274099253262294 -0.0029274099253262294 0.01514325363775104 -0.0009625250368314526 -0.0012737149838238067 0.00022340467724617314 0.005329452045894918 -0.0024273415577660707 -0.0005908029195694335 -0.0019727071526134737 -0.0024502436918779095 -0.00028787006779093055 -0.00028787006779093055 -0.00048279302652172364 0.002020999697490066 -0.015283663804733871 -0.0001536145031483363 -0.002538935834364725 -0.003152157961219134 -0.00413452849154579 0.0012483528166339056 -0.0007324455522004161 -0.004348906444112556 0.007016992833171469 -0.0004849584136641646 -0.005011596410673396 -0.002432856629714385 0.0021134202110522954 0.0021134202110522954 -0.0011618419299423085 -0.0016783351948737155 -0.0014810108477617688 -0.009062896674137578 -0.005097249776184662 -0.005097249776184662
178727 0.005044595840753939 -0.0022122735097039638 -0.009597444972179589 -0.002767666547786543 0.006721289986496374 -0.006527401378954444 0.005567230224780767 0.019121821283726664 0.009034573357809593 -0.0062243826880502935 -7.335365192407663e-05 -0.000646679040389423 0.00054652115810332 -0.0008690196606084852 0.006194435204508074 -0.0016901409084155346 -0.0016901409084155346 0.008742961564162335 -0.000555714089116364 -0.0007353796887815412 0.00012898275054629323 0.0030769605733306214 -0.0014014263017913754 -0.00034110022465145195 -0.001138943005593702 -0.0014146488550858796 -0.00016620186113073133 -0.00016620186113073133 -0.00027874068382518135 0.0011668247193780592 -0.008824027411866851 -8.868937474418416e-05 -0.0014658552874256825 -0.0018198992474381178 -0.002387071137566116 0.0007207368347271849 -0.0004228776367297068 -0.0025108423061888916 0.004051262701133251 -0.0002799908706748068 -0.0028934465367720934 -0.0014046104300653986 0.0012201837277618706 0.0012201837277618706 -0.0006707897510080068 -0.0009689872765507774 -0.0008550620116280163 -0.005232465834451057 -0.002942898530406985 -0.002942898530406985
18582 0.006071536041683459 -0.002593928323218985 -0.011174123849521302 -0.003874374233899602 0.007425880596840411 -0.007060929164295073 0.006046850589148746 0.01976868668526597 0.009973815882937324 -0.006231894366972332 -4.4798701984574474e-05 -0.0012644498751713162 0.0008686971794778411 -0.0010643273724687396 0.007586602747888781 -0.002069991409511053 -0.002069991409511053 0.010707897336481623 -0.000680607980605332 -0.0009006525023607144 0.0001579709622295708 0.00376849168166079 -0.0017163896757523098 -0.0004177607507723657 -0.0013949146049082133 -0.0017325839300864124 -0.00020355487703558323 -0.00020355487703558323 -0.00034138622296306994 0.0014290625908711778 -0.010807182317702734 -0.00010862185686484834 -0.0017952987454768468 -0.0022289122697492763 -0.0029235531333809887 0.000882718741955121 -0.000517917216810886 -0.0030751412373778556 0.004961763215872988 -0.0003429173828954378 -0.0035437338065573407 -0.0017202894205257046 0.0014944137627317913 0.0014944137627317913 -0.0008215463073290756 -0.0011867621973992732 -0.0010472328134631676 -0.006408435695475642 -0.003604299882141802 -0.003604299882141802
190697 0.008195168827671477 -0.0035806576575788266 -0.016571623217794207 -0.00521792373577339 0.011396137948682031 -0.010924373736537053 0.009546067664696435 0.031944306961230046 0.016132634188023538 -0.010954384293884106 -8.62191372780308e-05 -0.005551191957447152 0.005254305641613957 -0.0013740407294947055 0.009794262032288196 -0.0026723474186095483 -0.0026723474186095483 0.013823836019030703 -0.0008786611247267876 -0.0011627373807876914 0.00020393963529983513 0.004865101841131148 -0.002215849543263715 -0.0005393268101468065 -0.0018008270113969809 -0.0022367562357104367 -0.0002627882162660247 -0.0002627882162660247 -0.0004407277187202088 0.001844911871710711 -0.013952012378629976 -0.00014023021422386646 -0.0023177207142329446 -0.0028775133669654155 -0.0037742908657790457 0.00113958499565911 -0.0006686282518075283 -0.003969990266533364 0.006405608767633525 -0.00044270443769300254 -0.004574940672062944 -0.0022208840921176362 0.0019292798718011353 0.0019292798718011353 -0.0010606117221412554 -0.0015321034088119415 -0.0013519717487149572 -0.00827325490793945 -0.004653131139424208 -0.004653131139424208
190706 0.007999588386851216 -0.0035641323383785134 -0.015061208999774221 -0.004067388790603431 0.010861679125394466 -0.01060796771094932 0.009103228492437151 0.03156099776497436 0.014499828151083707 -0.010464767659283676 -0.00016244827130417066 -0.0006137666278144278 0.0007792442807989558 -0.0013740407294947077 0.00979426203228824 -0.0026723474186095505 -0.0026723474186095505 0.013823836019030665 -0.0008786611247268018 -0.0011627373807877276 0.0002039396352997682 0.004865101841131152 -0.0022158495432636864 -0.0005393268101467806 -0.0018008270113969594 -0.0022367562357104485 -0.00026278821626601683 -0.00026278821626601683 -0.0004407277187202424 0.00184491187171072 -0.01395201237862995 -0.00014023021422390912 -0.0023177207142329654 -0.00287751336696542 -0.00377429086577906 0.0011395849956591082 -0.0006686282518075262 -0.003969990266533397 0.006405608767633525 -0.00044270443769301864 -0.004574940672062967 -0.002220884092117659 0.0019292798718011442 0.0019292798718011442 -0.0010606117221412486 -0.001532103408811916 -0.0013519717487149657 -0.00827325490793943 -0.00465313113942417 -0.00465313113942417
1956 0.012389220520347976 -0.004637421089486057 -0.030019235237753204 -0.019031858458359807 0.01196885790614756 -0.007371805002307182 0.004085765835950649 -0.059834765907738716 0.02485032417758764 -0.03799522572662117 -0.0004988467599122634 0.0006125688679093444 0.001124401582967353 -0.002128654744937336 0.015173205495777534 -0.004139982819021986 -0.004139982819021986 0.02141579467296317 -0.0013612159612107206 -0.0018013050047215363 0.0003159419244591156 0.00753698336332163 -0.003432779351504554 -0.0008355215015447303 -0.002789829209816346 -0.003465167860172926 -0.0004071097540711659 -0.0004071097540711659 -0.0006827724459262164 0.002858125181742481 -0.0216143646354054 -0.00021724371372959603 -0.0035905974909536576 -0.004457824539498351 -0.00584710626676198 0.0017654374839102952 -0.001035834433621718 -0.006150282474755856 0.009923526431745863 -0.000685834765790882 -0.00708746761311469 -0.003440578841051419 0.0029888275254635927 0.0029888275254635927 -0.0016430926146581456 -0.0023735243947984523 -0.0020944656269264385 -0.01281687139095134 -0.007208599764283585 -0.007208599764283585
197054 0.008995386091906752 -0.00396636967079075 -0.017664573724280208 -0.005157098031859364 0.01254997092395415 -0.012169720233630252 0.010522349136400195 0.03606759510366545 0.01713442468201117 -0.011903481020146342 -0.00017657747984765255 -0.0009392610589636595 0.000990389016064857 -0.0015051862049502082 0.010729076498401328 -0.00292740992532627 -0.00292740992532627 0.015143253637751035 -0.0009625250368314759 -0.0012737149838237707 0.0002234046772461101 0.005329452045894854 -0.0024273415577660933 -0.000590802919569362 -0.001972707152613471 -0.0024502436918779832 -0.0002878700677908542 -0.0002878700677908542 -0.00048279302652172646 0.0020209996974900985 -0.01528366380473387 -0.00015361450314839992 -0.0025389358343647483 -0.0031521579612191976 -0.004134528491545741 0.001248352816633847 -0.0007324455522004352 -0.0043489064441125675 0.007016992833171464 -0.0004849584136641921 -0.005011596410673409 -0.002432856629714413 0.0021134202110523123 0.0021134202110523123 -0.0011618419299423493 -0.001678335194873696 -0.001481010847761767 -0.009062896674137528 -0.0050972497761846485 -0.0050972497761846485
198443 0.008460229236300746 -0.0036900291176866144 -0.018430784734378074 -0.006137342811764309 0.012761767359644629 -0.012188873034106073 0.01087910408736854 0.03700269619466404 0.01905095491698242 -0.01272912351325132 -1.733917115657532e-05 -0.014093597993079965 0.01362943287932551 -0.001374040729494723 0.009794262032288234 -0.0026723474186095535 -0.0026723474186095535 0.013823836019030658 -0.000878661124726742 -0.0011627373807877306 0.00020393963529990932 0.0048651018411311735 -0.0022158495432637445 -0.0005393268101468301 -0.0018008270113970234 -0.00223675623571044 -0.0002627882162660236 -0.0002627882162660236 -0.00044072771872025787 0.001844911871710763 -0.013952012378629936 -0.0001402302142238685 -0.002317720714232919 -0.0028775133669654094 -0.003774290865779034 0.0011395849956591106 -0.0006686282518075375 -0.003969990266533347 0.006405608767633496 -0.00044270443769303084 -0.00457494067206292 -0.0022208840921176367 0.0019292798718011776 0.0019292798718011776 -0.0010606117221412857 -0.0015321034088119853 -0.0013519717487149572 -0.008273254907939401 -0.004653131139424217 -0.004653131139424217
198653 0.009156905531354944 -0.0036695331234427387 -0.016965670874485354 -0.011510807371962776 0.009236581515057019 -0.007388323229954709 0.0052926734563960715 -0.012102974632441458 0.015605480314519662 -0.01882524618545857 -0.0002894420646352733 0.0012338866030020535 -0.0001725497771672725 -0.0016257869161837653 0.011588727119920197 -0.0031619641073307963 -0.0031619641073307963 0.01635658335941429 -0.0010396458632383162 -0.0013757694223064624 0.00024130463067396804 0.005756466129007337 -0.00262182853705854 -0.0006381400875986429 -0.0021307672549971224 -0.0026465656691617772 -0.00031093521069764713 -0.00031093521069764713 -0.0005214760693144863 0.0021829291651656616 -0.016508243673353632 -0.00016592262706986466 -0.0027423641320689263 -0.003404719731180529 -0.004465801177314612 0.001348375150788563 -0.0007911316165855483 -0.004697355830988175 0.007579218505728398 -0.0005238149547448243 -0.005413142803774359 -0.0026277854955969325 0.002282754729100736 0.002282754729100736 -0.0012549327134156688 -0.0018128092004981082 -0.0015996745459789065 -0.009789047220258081 -0.005505659012411716 -0.005505659012411716
206371 0.006233873189060559 -0.0027147332578155918 -0.011963581131211026 -0.0036535052599623004 0.008282777852217647 -0.007990235673009468 0.006857271889553908 0.023242930502452915 0.011229583673672282 -0.007495635091689777 -7.958004003900039e-05 -0.0010419757915178039 0.0008126850919057663 -0.001064327372468733 0.007586602747888781 -0.0020699914095110346 -0.0020699914095110346 0.010707897336481633 -0.0006806079806052829 -0.000900652502360707 0.00015797096222958261 0.003768491681660788 -0.001716389675752315 -0.00041776075077233665 -0.001394914604908217 -0.001732583930086427 -0.0002035548770356068 -0.0002035548770356068 -0.00034138622296309493 0.001429062590871218 -0.01080718231770275 -0.00010862185686484357 -0.0017952987454768355 -0.0022289122697492798 -0.002923553133380998 0.0008827187419551197 -0.0005179172168108835 -0.0030751412373778717 0.004961763215872977 -0.00034291738289541344 -0.0035437338065573416 -0.0017202894205256942 0.0014944137627318148 0.0014944137627318148 -0.0008215463073291101 -0.0011867621973992728 -0.0010472328134631496 -0.006408435695475673 -0.0036042998821417993 -0.0036042998821417993
210871 0.014072420223393835 -0.006119548825877334 -0.02640538055230374 -0.0085205816977756 0.017786243608627957 -0.017003340265758077 0.014341986789883729 0.04393239205009967 0.02428795621735061 -0.017921381246261005 -0.0002681903687602272 -0.00018253682191460478 0.0004689129869415077 -0.0024579587800028285 0.017520508554913338 -0.004780440390005676 -0.004780440390005676 0.024728829638690164 -0.001571796803260356 -0.002079967858737128 0.00036481831026949026 0.008702958747382947 -0.003963832165319561 -0.0009647771276611351 -0.003221417290561176 -0.004001231193716113 -0.00047008985220536246 -0.00047008985220536246 -0.0007883977109014752 0.003300278686113242 -0.024958118481228135 -0.00025085143320315175 -0.004146064855907397 -0.005147452395759165 -0.006751656754190799 0.0020385516131460907 -0.0011960785781747884 -0.007101734484784911 0.011458701313357795 -0.0007919337732979786 -0.00818390266860904 -0.003972838240098353 0.003451200752775551 0.003451200752775551 -0.0018972799267527522 -0.002740709896530142 -0.0024184805870287236 -0.014799648295469061 -0.008323774028778829 -0.008323774028778829
229635 0.006120333193623766 -0.0026185837183614314 -0.011254019530126372 -0.0036840390685806833 0.007724956776771967 -0.007393674049021837 0.006291012812361279 0.020999920713314905 0.010233896311330084 -0.006507843405991686 -7.315250417472438e-05 -0.0006636106205608263 0.0005039215054843622 -0.0010643273724687235 0.007586602747888799 -0.0020699914095110294 -0.0020699914095110294 0.010707897336481616 -0.0006806079806053002 -0.0009006525023607264 0.0001579709622295466 0.003768491681660812 -0.0017163896757523044 -0.0004177607507723582 -0.0013949146049082076 -0.001732583930086451 -0.00020355487703557418 -0.00020355487703557418 -0.0003413862229631132 0.0014290625908712472 -0.010807182317702724 -0.00010862185686483052 -0.0017952987454768342 -0.002228912269749236 -0.002923553133380993 0.0008827187419551444 -0.0005179172168108706 -0.0030751412373778895 0.004961763215872971 -0.00034291738289543886 -0.0035437338065573195 -0.001720289420525701 0.0014944137627318044 0.0014944137627318044 -0.0008215463073291206 -0.0011867621973992613 -0.0010472328134631735 -0.006408435695475653 -0.003604299882141768 -0.003604299882141768
231249 0.006276261371719078 -0.0027574941820918708 -0.01225380982733632 -0.003624368146804209 0.008442410890634336 -0.008145634416749026 0.007101878085046101 0.024138967558619943 0.011635673446355512 -0.007841640669105103 -9.036358932081082e-05 -0.0010664434044047198 0.0008507319928750003 -0.0010643273724687274 0.007586602747888769 -0.002069991409511068 -0.002069991409511068 0.010707897336481621 -0.000680607980605335 -0.0009006525023606826 0.00015797096222957356 0.003768491681660764 -0.0017163896757523066 -0.00041776075077238007 -0.001394914604908207 -0.0017325839300864124 -0.00020355487703557326 -0.00020355487703557326 -0.000341386222963085 0.0014290625908711964 -0.01080718231770273 -0.00010862185686483003 -0.0017952987454768379 -0.0022289122697492715 -0.0029235531333809853 0.0008827187419551188 -0.0005179172168108627 -0.0030751412373778452 0.004961763215872992 -0.0003429173828954544 -0.00354373380655735 -0.0017202894205256929 0.0014944137627318028 0.0014944137627318028 -0.0008215463073290863 -0.0011867621973992658 -0.0010472328134631653 -0.0064084356954756255 -0.0036042998821418093 -0.0036042998821418093
248425 0.00891697599862575 -0.003916914518712522 -0.017528744523667483 -0.00512258933742342 0.012211788119844347 -0.01182150890551607 0.01023105684553505 0.03486445714985601 0.01674616807886567 -0.011349819468267386 -0.00017111492451938711 -0.0007917816891327993 0.0007981255085873533 -0.0015051862049502288 0.010729076498401345 -0.0029274099253263613 -0.0029274099253263613 0.015143253637751078 -0.0009625250368314344 -0.0012737149838238275 0.00022340467724612736 0.0053294520458949 -0.002427341557766131 -0.0005908029195694122 -0.00197270715261351 -0.0024502436918779004 -0.000287870067790886 -0.000287870067790886 -0.0004827930265217031 0.0020209996974900925 -0.015283663804733932 -0.00015361450314841578 -0.002538935834364765 -0.003152157961219199 -0.004134528491545767 0.001248352816633854 -0.000732445552200459 -0.00434890644411253 0.007016992833171533 -0.0004849584136642333 -0.005011596410673495 -0.002432856629714439 0.0021134202110523583 0.0021134202110523583 -0.0011618419299423211 -0.0016783351948737519 -0.001481010847761781 -0.009062896674137509 -0.005097249776184758 -0.005097249776184758
249421 0.006451530027790334 -0.003031162417256984 -0.006679615455217958 0.0013620210656804935 0.006018103666587523 -0.007945434637590511 0.0049333575890475176 0.0207915789330815 0.006481949615117218 -0.0058321159443442865 -0.0001922713262740724 0.006138319534798084 -0.004252001110711493 -0.0013740407294946927 0.009794262032288108 -0.002672347418609545 -0.002672347418609545 0.0138238360190308 -0.00087866112472699 -0.0011627373807878139 0.00020393963529978957 0.004865101841131187 -0.0022158495432636686 -0.0005393268101468158 -0.001800827011396993 -0.002236756235710244 -0.0002627882162662396 -0.0002627882162662396 -0.00044072771872009974 0.0018449118717106504 -0.01395201237863003 -0.0001402302142239814 -0.002317720714232998 -0.0028775133669652897 -0.0037742908657790366 0.001139584995659081 -0.0006686282518075274 -0.003969990266533261 0.006405608767633558 -0.00044270443769302276 -0.004574940672062955 -0.0022208840921177854 0.0019292798718010431 0.0019292798718010431 -0.0010606117221412187 -0.0015321034088119862 -0.001351971748715104 -0.008273254907939481 -0.004653131139424186 -0.004653131139424186
254923 0.00709348441405928 -0.0029144768318234556 -0.0103280276199172 -0.005410977325549566 0.005882078325915652 -0.005311222223762413 0.0047724391200293015 0.01711615005301821 0.007271979291504796 -0.0009898689755566657 0.000253365794908469 -0.005668303979914778 0.0031755911306903944 -0.0013740407294947085 0.00979426203228825 -0.002672347418609538 -0.002672347418609538 0.013823836019030736 -0.0008786611247267835 -0.0011627373807876935 0.00020393963529985543 0.0048651018411311996 -0.0022158495432637168 -0.0005393268101468304 -0.0018008270113969867 -0.0022367562357103916 -0.0002627882162660488 -0.0002627882162660488 -0.000440727718720207 0.0018449118717107171 -0.013952012378630014 -0.00014023021422385394 -0.002317720714232965 -0.002877513366965473 -0.0037742908657790483 0.0011395849956591152 -0.0006686282518075574 -0.0039699902665333835 0.006405608767633533 -0.0004427044376929746 -0.004574940672062958 -0.002220884092117619 0.0019292798718011407 0.0019292798718011407 -0.001060611722141249 -0.0015321034088119582 -0.0013519717487149377 -0.008273254907939483 -0.004653131139424222 -0.004653131139424222
259701 0.005109740243076662 -0.0022405050552426298 -0.009917172619429444 -0.002933225827460671 0.006868871062085527 -0.006635248565909277 0.005736732343393854 0.01947434779454695 0.009402261082354875 -0.006345877378739895 -7.197015237364104e-05 -0.0008824418846067416 0.0007117379130141792 -0.0008690196606085291 0.006194435204508075 -0.0016901409084155445 -0.0016901409084155445 0.008742961564162344 -0.0005557140891163649 -0.0007353796887815254 0.00012898275054628789 0.0030769605733305776 -0.0014014263017914168 -0.00034110022465147217 -0.0011389430055937179 -0.0014146488550859006 -0.00016620186113071328 -0.00016620186113071328 -0.0002787406838251902 0.0011668247193780655 -0.008824027411866855 -8.868937474419072e-05 -0.0014658552874256786 -0.0018198992474381186 -0.0023870711375661075 0.0007207368347271649 -0.00042287763672970764 -0.002510842306188879 0.004051262701133257 -0.0002799908706748304 -0.0028934465367720973 -0.0014046104300653966 0.0012201837277618604 0.0012201837277618604 -0.0006707897510080127 -0.0009689872765507904 -0.0008550620116280092 -0.005232465834451048 -0.0029428985304069963 -0.0029428985304069963
259702 0.00816841951765098 -0.0035918034604886686 -0.016136277626381187 -0.004772621611148462 0.011153018198713324 -0.010763087911380328 0.009399985720637225 0.03197464211530239 0.015442261781672508 -0.010441517987344382 -0.00011707567526904565 -0.0015572919743045133 0.0012339082566458126 -0.0013740407294946932 0.009794262032288234 -0.0026723474186096077 -0.0026723474186096077 0.013823836019030712 -0.000878661124726813 -0.001162737380787643 0.00020393963529981803 0.004865101841131068 -0.0022158495432636678 -0.0005393268101468737 -0.0018008270113970342 -0.0022367562357104454 -0.0002627882162660213 -0.0002627882162660213 -0.0004407277187201987 0.0018449118717107048 -0.013952012378630006 -0.0001402302142238988 -0.002317720714232975 -0.0028775133669654757 -0.003774290865778993 0.001139584995659076 -0.0006686282518075585 -0.0039699902665333445 0.006405608767633569 -0.0004427044376930569 -0.004574940672062998 -0.0022208840921176007 0.00192927987180115 0.00192927987180115 -0.0010606117221412404 -0.001532103408811996 -0.0013519717487149073 -0.008273254907939422 -0.004653131139424223 -0.004653131139424223
263279 0.006646799274014108 -0.0025662467247145374 -0.009894525391178249 -0.004607234367874683 0.004070978494595978 -0.0033125447086465843 0.0026565908932754227 0.007576178584395645 0.00425198507484429 0.0013614184633572327 0.0003490702863275797 -0.006671246952071552 0.0037530592835584436 -0.0013740407294946773 0.009794262032288203 -0.002672347418609519 -0.002672347418609519 0.013823836019030701 -0.0008786611247267383 -0.0011627373807877187 0.00020393963529984638 0.004865101841131189 -0.0022158495432636847 -0.0005393268101468291 -0.0018008270113970032 -0.0022367562357104398 -0.0002627882162660582 -0.0002627882162660582 -0.0004407277187202315 0.0018449118717107486 -0.013952012378630002 -0.00014023021422384272 -0.002317720714232945 -0.0028775133669654267 -0.0037742908657790427 0.0011395849956591453 -0.0006686282518075325 -0.003969990266533388 0.006405608767633517 -0.0004427044376929804 -0.004574940672062944 -0.0022208840921176054 0.001929279871801142 0.001929279871801142 -0.0010606117221412404 -0.0015321034088119682 -0.0013519717487149344 -0.008273254907939502 -0.004653131139424199 -0.004653131139424199
263498 0.0070763997969822265 -0.003140226580164539 -0.013094607771506435 -0.0036294186752712804 0.009426559849040325 -0.009200463241471805 0.007812410843810375 0.026884127273431622 0.012443785932139106 -0.008950455567844878 -0.00013902593630505007 -0.00032457550485834194 0.0004598277738859672 -0.0012289793900014151 0.008760254277456678 -0.002390220195002793 -0.002390220195002793 0.012364414819345096 -0.0007858984016301851 -0.0010399839293685066 0.00018240915513474814 0.004351479373691422 -0.0019819160826597734 -0.0004823885638305822 -0.0016107086452805774 -0.0020006155968580637 -0.00023504492610268364 -0.00023504492610268364 -0.00039419885545076405 0.0016501393430566435 -0.012479059240614088 -0.00012542571660154893 -0.0020730324279536875 -0.0025737261978795675 -0.0033758283770953645 0.0010192758065730202 -0.0005980392890874068 -0.003550867242392464 0.005729350656678886 -0.0003959668866489417 -0.004091951334304495 -0.0019864191200491418 0.0017256003763877813 0.0017256003763877813 -0.0009486399633764164 -0.0013703549482650594 -0.0012092402935143418 -0.007399824147734591 -0.004161887014389401 -0.004161887014389401
265203 0.0056065513291316095 -0.002326354692014338 -0.009197458734013017 -0.002941532532624063 0.005862610319156267 -0.005466579534340522 0.0044807828069447645 0.013354788822920783 0.007335014924804615 -0.004571589425139917 -9.052764749764584e-05 0.000729596128606549 -0.0004233316044996872 -0.001064327372468736 0.007586602747888797 -0.002069991409511015 -0.002069991409511015 0.01070789733648164 -0.0006806079806053458 -0.00090065250236073 0.00015797096222954618 0.003768491681660811 -0.0017163896757523235 -0.0004177607507723904 -0.0013949146049082395 -0.0017325839300864451 -0.00020355487703559982 -0.00020355487703559982 -0.0003413862229630803 0.0014290625908711906 -0.010807182317702748 -0.00010862185686483068 -0.0017952987454768429 -0.002228912269749241 -0.0029235531333810273 0.0008827187419551434 -0.0005179172168108745 -0.00307514123737789 0.004961763215872971 -0.0003429173828954077 -0.0035437338065573538 -0.0017202894205257066 0.001494413762731792 0.001494413762731792 -0.0008215463073290841 -0.0011867621973992947 -0.0010472328134631835 -0.006408435695475686 -0.003604299882141804 -0.003604299882141804
273152 0.0071474883225204145 -0.0031262801243635415 -0.013683907730224567 -0.004164512796899881 0.009314667038322282 -0.008946630231240166 0.00772345827417773 0.025359551422880353 0.012767987996260582 -0.008844716649698261 -0.00011134618932824473 -0.0007938455949840263 0.0006827369472932034 -0.001228979390001411 0.008760254277456619 -0.002390220195002827 -0.002390220195002827 0.012364414819345079 -0.0007858984016301931 -0.001039983929368521 0.00018240915513475836 0.004351479373691429 -0.0019819160826597755 -0.0004823885638305823 -0.0016107086452805922 -0.0020006155968580568 -0.00023504492610269335 -0.00023504492610269335 -0.00039419885545073104 0.0016501393430566167 -0.012479059240614068 -0.00012542571660156495 -0.0020730324279536957 -0.0025737261978795857 -0.003375828377095399 0.0010192758065730345 -0.0005980392890873971 -0.0035508672423924382 0.005729350656678893 -0.0003959668866489636 -0.004091951334304518 -0.0019864191200491643 0.0017256003763877756 0.0017256003763877756 -0.000948639963376391 -0.0013703549482650757 -0.0012092402935143527 -0.00739982414773454 -0.004161887014389415 -0.004161887014389415
27510 0.005838085293347131 -0.002890408456314179 0.0021605313634067333 0.004055167642451828 0.005262524480878528 -0.005124296135747622 0.0033538178876319916 0.013504987840458976 0.0036976040049336374 -0.0021299603112035336 -0.0001758475454521499 0.004722040814712434 -0.003003964972432451 -0.0015051862049501985 0.010729076498401357 -0.002927409925326213 -0.002927409925326213 0.015143253637751054 -0.000962525036831364 -0.0012737149838237941 0.00022340467724615994 0.005329452045894894 -0.002427341557766112 -0.000590802919569428 -0.001972707152613477 -0.0024502436918779633 -0.0002878700677908744 -0.0002878700677908744 -0.00048279302652176305 0.002020999697490118 -0.015283663804733921 -0.00015361450314842678 -0.0025389358343647613 -0.0031521579612192163 -0.004134528491545831 0.0012483528166339064 -0.0007324455522004086 -0.004348906444112643 0.007016992833171466 -0.0004849584136641419 -0.005011596410673504 -0.002432856629714426 0.002113420211052348 0.002113420211052348 -0.0011618419299423749 -0.0016783351948737165 -0.0014810108477617515 -0.009062896674137623 -0.005097249776184715 -0.005097249776184715
28290 0.009444241178442826 -0.003863931552984443 -0.015208924583905147 -0.0055949059777318675 0.010112068643770686 -0.009406274209662781 0.0077713262391589525 0.02535650210422811 0.012255798481974198 -0.005985984335440511 -2.3623696418893186e-05 -0.0006311480829104891 0.00018917477248831958 -0.0017380393212170287 0.012388870409016173 -0.003380281816831029 -0.003380281816831029 0.017485923128324733 -0.0011114281782327855 -0.0014707593775631362 0.0002579655010925291 0.006153921146661309 -0.002802852603582843 -0.0006822004493029101 -0.002277886011187414 -0.0028292977101717514 -0.00033240372226147344 -0.00033240372226147344 -0.0005574813676503882 0.002333649438756125 -0.017648054823733734 -0.0001773787494883458 -0.00293171057485137 -0.003639798494876198 -0.004774142275132292 0.0014414736694544667 -0.0008457552734593817 -0.005021684612377834 0.008102525402266499 -0.0005599817413496042 -0.00578689307354418 -0.002809220860130817 0.0024403674555236996 0.0024403674555236996 -0.0013415795020160172 -0.0019379745531015729 -0.001710124023256071 -0.01046493166890216 -0.005885797060813953 -0.005885797060813953
286500 0.004975282611396145 -0.0022106457945401817 -0.006593016756366653 -0.00018928014724820381 0.005091150754455833 -0.00575067590580886 0.0036689404463642185 0.017089767516353837 0.004508662775179108 -0.004859951650475882 -0.00015510466158189193 0.006500217826870387 -0.004851441934416192 -0.0010643273724687515 0.007586602747888771 -0.0020699914095110425 -0.0020699914095110425 0.010707897336481625 -0.0006806079806052925 -0.0009006525023607261 0.00015797096222955925 0.003768491681660807 -0.0017163896757523259 -0.00041776075077239286 -0.001394914604908184 -0.0017325839300864135 -0.00020355487703557518 -0.00020355487703557518 -0.00034138622296309476 0.0014290625908712049 -0.010807182317702729 -0.00010862185686484716 -0.0017952987454768231 -0.002228912269749248 -0.002923553133381015 0.0008827187419550867 -0.0005179172168108789 -0.0030751412373778726 0.004961763215872976 -0.00034291738289543274 -0.0035437338065573225 -0.0017202894205256983 0.0014944137627318057 0.0014944137627318057 -0.0008215463073290963 -0.0011867621973992418 -0.0010472328134631653 -0.006408435695475643 -0.003604299882141804 -0.003604299882141804
287787 0.012424856000413263 -0.005319939143264649 -0.024187858959398775 -0.0073902671883972135 0.016500319626328454 -0.015914848603230586 0.013607829692085271 0.04644019668260984 0.0225301020794219 -0.014581231475999906 -0.00019069507296543724 -0.0012644354172983774 0.0011026606280930308 -0.002128654744937464 0.015173205495777605 -0.004139982819022056 -0.004139982819022056 0.021415794672963184 -0.0013612159612106012 -0.0018013050047214478 0.0003159419244591257 0.00753698336332157 -0.0034327793515046257 -0.0008355215015447446 -0.002789829209816426 -0.003465167860172811 -0.0004071097540711865 -0.0004071097540711865 -0.0006827724459261557 0.0028581251817424084 -0.021614364635405416 -0.0002172437137296594 -0.0035905974909536446 -0.004457824539498489 -0.005847106266761961 0.0017654374839101974 -0.0010358344336217837 -0.006150282474755726 0.009923526431745917 -0.0006858347657908699 -0.007087467613114667 -0.003440578841051412 0.0029888275254636 0.0029888275254636 -0.0016430926146581764 -0.0023735243947985486 -0.0020944656269263643 -0.012816871390951286 -0.007208599764283602 -0.007208599764283602
28851 0.007338952729388539 -0.0032503597325689707 -0.014683723237837832 -0.004293900432981442 0.01030541274424662 -0.010025098280828213 0.008641736687685824 0.02929347504968482 0.014252164626403456 -0.01003622278063597 -0.0001511959745555066 -0.000752396672731859 0.0007617286853293391 -0.001228979390001412 0.008760254277456669 -0.002390220195002873 -0.002390220195002873 0.012364414819345096 -0.0007858984016301817 -0.0010399839293685827 0.00018240915513474942 0.004351479373691465 -0.0019819160826597933 -0.00048238856383054024 -0.0016107086452805763 -0.002000615596858098 -0.00023504492610264133 -0.00023504492610264133 -0.0003941988554507143 0.001650139343056607 -0.01247905924061407 -0.00012542571660158422 -0.002073032427953692 -0.0025737261978795683 -0.0033758283770953823 0.0010192758065730603 -0.0005980392890873643 -0.003550867242392434 0.005729350656678913 -0.00039596688664903147 -0.004091951334304524 -0.0019864191200491886 0.0017256003763877913 0.0017256003763877913 -0.0009486399633763657 -0.0013703549482650525 -0.0012092402935143683 -0.007399824147734501 -0.004161887014389443 -0.004161887014389443
289779 0.007223271537051405 -0.0031571972468505895 -0.013886473485066076 -0.004151719331986345 0.009582427211851178 -0.009262077914979152 0.007966174393025093 0.027635060998040393 0.012874358959738614 -0.008433411155854019 -6.250691714052673e-05 -0.00162972867435103 0.001146340276671768 -0.0012289793900014366 0.008760254277456695 -0.0023902201950028387 -0.0023902201950028387 0.012364414819345115 -0.0007858984016301259 -0.0010399839293685877 0.00018240915513468474 0.004351479373691463 -0.0019819160826597903 -0.00048238856383054924 -0.0016107086452805735 -0.002000615596857991 -0.0002350449261027408 -0.0002350449261027408 -0.00039419885545075327 0.0016501393430566546 -0.012479059240614118 -0.00012542571660156934 -0.002073032427953664 -0.0025737261978796043 -0.003375828377095484 0.001019275806572965 -0.0005980392890873934 -0.0035508672423924196 0.005729350656678922 -0.0003959668866489471 -0.004091951334304554 -0.001986419120049234 0.0017256003763878062 0.0017256003763878062 -0.0009486399633764315 -0.001370354948265064 -0.0012092402935143917 -0.007399824147734574 -0.004161887014389486 -0.004161887014389486
