2708 50
22241 0.125841 0.174965 -0.109444 -0.389374 -0.0316215 -0.0446669 -0.0111609 -0.0105117 0.00984685 0.10936 -0.220464 -0.156145 0.0454057 -0.368077 0.309662 0.208259 0.0782013 0.183883 0.0464383 -0.230768 0.28827 0.0283189 -0.0193 0.061516 -0.200172 -0.619331 0.514932 0.0678975 0.0349656 0.00493724 0.299019 -0.647832 -0.378419 0.593697 0.23056 -0.452749 0.0261799 -0.685536 0.200141 0.0565796 0.0066362 -0.0852448 0.190846 0.0224037 -0.113464 -0.227682 -0.0815249 0.43295 0.413138 -0.415981
595193 -0.0783773 0.286781 -0.117733 -0.164851 0.047532 -0.143243 -0.222831 -0.459355 0.386506 -0.012201 0.189909 -0.0953955 0.0226562 0.02387 -0.0607406 0.126799 0.201328 0.248812 0.0993315 -0.353914 0.0626356 -0.00637357 -0.0378456 0.286795 -0.396217 -0.0986934 0.157136 0.198502 0.138148 0.222949 0.211781 -0.160467 -0.141766 0.31874 0.0572471 -0.561067 0.0556106 -0.618136 0.34769 0.205242 0.125763 0.410356 0.418342 -0.410789 -0.207921 -0.25925 -0.066414 0.312159 0.583226 -0.240357
18313 0.0151206 -0.192407 -0.214051 -0.136035 0.174123 -0.0627011 -0.0622245 -0.192961 0.262416 0.278139 -0.216652 -0.0645745 0.00873248 -0.0770381 0.223565 0.181035 0.128328 0.189327 0.0868422 -0.184977 0.0949568 0.00101619 -0.0192658 0.119774 -0.190339 -0.158221 0.132934 0.236824 0.135806 0.313208 0.180627 -0.314857 -0.138259 0.273065 0.0973851 -0.242668 0.0263195 -0.165532 0.180123 0.0509751 0.102132 0.107184 0.205959 -0.212324 0.171329 -0.0426002 -0.0150508 0.314315 0.323719 -0.409593
1107572 0.270687 -0.191705 -0.923166 -0.416633 0.266612 -0.0739182 -0.044617 -0.282424 0.238746 0.232439 -0.418004 -0.0996336 0.041982 -0.118888 0.262465 0.296558 0.116763 0.115636 0.0840791 -0.100145 0.0487662 0.00486751 -0.026005 0.0616811 -0.0758621 -0.163566 0.0733161 0.00695403 0.0137664 0.000517946 0.151831 -0.176691 -0.0210241 -0.151555 0.16533 -0.0744027 0.0187999 -0.0430239 0.124804 0.0374973 0.0885854 0.12861 0.28419 -0.0587199 0.00329464 0.496859 0.00206451 -0.0863374 -0.108802 0.248596
15429 0.313787 -0.582699 -0.130444 -0.590641 0.831321 -0.116506 -0.0639029 -0.520046 0.463169 0.483762 -0.808219 -0.227811 -0.00245471 -0.0707688 0.762721 1.14421 0.433392 -0.0748571 0.0861773 -0.101231 -0.0559269 0.014863 -0.0165421 -0.0374101 0.145893 -0.695586 0.268736 -0.195456 0.0627471 -0.00665359 0.345805 -0.368078 0.223596 -0.509607 0.804758 -0.0176074 0.091577 -0.0534198 0.309068 0.0933575 0.0143305 0.130983 0.713741 -0.0594457 0.093843 0.102086 0.0193805 0.149414 0.202631 -0.314696
12350 0.135339 -0.444651 -0.266995 -0.940765 1.25827 -0.438544 0.0885088 -0.499144 0.654763 0.379448 -1.37056 -0.386148 0.110911 -0.283823 0.906531 0.910862 0.255092 -0.228612 0.00910891 0.168858 -0.144948 0.0209196 -0.0224358 -0.141565 0.286709 -0.766461 0.246411 -0.0692575 0.140644 0.381457 0.52194 -0.114913 0.394999 -0.536199 0.989922 -0.538813 0.0819021 0.157185 0.189232 -0.131099 -0.0862616 0.181834 0.686034 0.0552089 -0.0187627 -0.355861 0.0615948 0.489266 -0.298694 -0.178678
20601 0.416403 -0.552806 0.198154 -0.967424 0.997329 -0.169166 0.00546173 -0.783685 0.328642 0.386311 -1.06374 -0.0926173 -0.0583399 -0.0937381 1.24664 1.37692 0.489569 -0.00787143 0.102368 -0.223731 -0.0778249 0.0171683 -0.0317237 -0.0435792 0.214966 -0.509952 0.333573 -0.356021 -0.0498 0.183416 0.558448 -0.719654 -0.0427788 -0.434057 0.744962 -0.142128 0.081822 -0.0587014 0.200149 0.0294115 -0.0501461 -0.0775104 0.531807 0.103241 0.0686013 -0.430686 0.115889 0.371483 -0.0915199 -0.489114
1118209 0.411875 -0.480607 -0.231485 -0.684144 0.723242 -0.109744 0.0230625 -0.548991 0.301286 0.393545 -0.941025 -0.106765 0.0344152 -0.114082 0.94682 1.12109 0.43237 0.0611691 0.112088 -0.165519 -0.112554 0.0177597 -0.0263668 -0.0240319 0.155654 -0.322434 0.133678 -0.314333 -0.0129106 0.229247 0.571517 -0.478341 0.128246 -0.772604 0.565189 0.178346 0.0509476 -0.205055 0.0506355 -0.016668 -0.0600076 -0.0424522 0.427921 -0.0370028 0.0389368 -0.01489 0.0713774 0.394497 -0.177369 -0.465001
27203 0.305846 -0.722291 -0.153171 -0.897811 0.585402 -0.0820731 -0.00769884 -0.461455 0.414876 0.451334 -0.999409 -0.070811 0.0658766 -0.0900697 0.812345 1.23012 0.452574 0.141223 0.0880179 -0.198745 -0.009116 0.0315419 -0.0515344 -0.0309637 0.148593 -0.451037 0.173624 -0.238177 0.00226726 0.467065 0.613571 -0.59744 0.0698542 -0.318964 0.696771 0.144338 0.0568311 -0.588615 0.0460558 -0.0312498 -0.0656467 0.021056 0.382987 -0.034 0.0710717 -0.36384 0.124713 0.267946 -0.205243 -0.724657
37541 0.294428 -0.384616 -0.0497388 -0.41341 0.649905 -0.0970179 -0.04915 0.127217 0.37855 0.308944 -0.492751 0.122787 0.0199401 -0.064951 0.125861 0.163483 0.12261 0.102422 0.0930872 -0.260344 0.131432 -0.0269954 0.0257843 0.114567 -0.202413 -0.09328 -0.107546 0.151179 -0.0407883 0.0578359 -0.0307182 -0.0491586 0.00608904 0.00575238 -0.0808156 0.21113 -0.0076363 -0.427473 0.586435 0.0701281 0.0887621 0.193416 0.207977 -0.326163 -0.0232114 -0.393114 -0.101182 0.0966507 0.212952 -0.426397
260979 -0.00717029 -0.293234 -0.0553018 -0.362301 0.309369 -0.099062 -0.106695 -0.232476 0.283001 0.316531 -0.266298 -0.143376 0.0541269 -0.166305 0.271837 0.231743 0.150115 0.202246 0.117709 -0.27743 0.175928 0.0083343 -0.0238733 0.184031 -0.273589 -0.266093 0.168183 0.28283 0.142159 0.318243 0.237684 -0.36072 -0.173684 0.241284 0.215494 -0.379532 0.0521359 -0.610887 0.281481 0.150388 0.151309 0.205976 0.370033 -0.370273 0.172605 -0.765505 -0.0268824 0.252038 0.382219 -0.414213
628667 0.246039 -0.120547 -0.00570649 -0.307215 0.182259 -0.115492 -0.0906334 -0.209286 0.235696 0.155835 -0.131698 -0.112131 0.0781971 -0.130296 0.188993 0.183943 0.0731879 0.129772 0.0732253 -0.176261 0.101801 -0.000401718 -0.019478 0.132586 -0.21487 -0.0645608 0.00392516 0.126257 0.0784433 0.0915761 0.0762062 -0.0305577 0.111905 -0.0319363 0.0340079 -0.0724842 0.0318883 -0.373888 0.116347 0.0846935 0.115828 0.279784 0.362139 -0.284436 0.0593648 -0.283658 0.00935188 0.0275613 0.00115593 -0.0815814
628668 0.257386 -0.0565626 -0.104077 -0.472372 0.220749 -0.114563 -0.114942 -0.339708 0.205133 0.212084 -0.156985 -0.180527 0.134031 -0.11697 0.0506925 0.293902 0.0795441 0.0707505 0.0695797 -0.165729 0.145773 0.0165368 -0.0210193 0.0864224 -0.203476 -0.0316123 -0.0334303 0.100163 0.124994 0.12619 0.0781285 0.102864 0.194688 0.209154 0.0726269 -0.163226 0.0308153 -0.23763 0.15541 0.113002 0.175617 0.293653 0.404829 -0.303244 -0.0185289 -0.461463 0.00262624 0.224467 0.00566607 -0.327335
28249 0.486311 -0.268382 -0.497394 -0.467231 0.3338 -0.0946145 -0.188937 -0.357576 0.353819 0.388915 -0.417453 -0.148853 0.0918037 -0.13963 0.138264 0.302791 0.15121 0.247132 0.132048 -0.26751 0.161846 0.00435392 -0.0190732 0.176036 -0.278659 -0.181106 0.179308 0.152897 0.17727 0.147574 0.320839 -0.371705 -0.145901 0.261662 0.126078 -0.272073 0.027959 -0.1816 0.266232 0.123593 0.183843 0.315407 0.477029 -0.394679 -0.0457694 -0.399062 -0.00123886 0.144036 0.22834 -0.312134
36131 0.441872 -0.548615 0.232044 -0.438282 0.292525 -0.102969 -0.10497 -0.365483 0.537212 0.468768 -0.0315705 -0.0340531 0.0113322 -0.0923525 0.205763 0.189327 0.00403548 0.058194 0.0332284 -0.0235407 0.0782543 0.00400062 -0.00618302 0.0677317 -0.209168 -0.228379 0.125545 0.13454 0.0216327 -0.32764 -0.0520327 0.107463 -0.0343333 -0.0306606 -0.0677523 0.0884667 -0.00741298 0.349732 0.227801 0.126805 0.12617 0.355677 0.25839 -0.234022 0.194697 -0.361209 -0.00611456 0.0116141 0.145527 0.132922
77438 0.263768 -0.676083 0.157041 -0.599652 0.380051 -0.126685 -0.142406 -0.590493 1.01356 0.883535 0.151666 -0.0930347 -0.00410071 -0.190284 0.207455 0.272479 -0.0200487 -0.000463807 0.00983193 0.0623016 0.107519 0.00368588 -0.013337 0.0158051 -0.242206 -0.395094 0.123524 0.0585364 0.0101585 -0.220474 -0.147087 0.184067 -0.151309 0.31998 -0.0583241 0.191411 -0.0178719 -0.0268813 0.248974 0.173553 0.0965604 0.429218 0.311681 -0.191368 0.340706 -0.451069 -0.0603532 0.303872 0.318921 0.0330614
106590 0.434323 -0.70382 -0.309717 -0.642472 0.376027 -0.152765 -0.111581 -0.497133 0.731283 0.655539 0.0717555 -0.035807 -0.0210385 -0.0881695 0.214001 0.210677 -0.0646858 -0.0175606 -0.012818 -0.0180668 0.106976 0.000733504 -0.0258501 0.0477197 -0.177122 -0.257902 -0.0175896 0.0993543 0.0488614 -0.021555 -0.214294 0.135561 -0.11958 0.072048 -0.08747 0.266497 -0.0419337 0.150132 0.163991 0.0773087 0.0446816 0.242621 0.371553 -0.135638 0.13919 -0.754694 -0.0513464 -0.0289289 0.0623906 0.19006
90470 0.420951 -1.09225 -0.503928 -0.822458 0.806153 -0.234616 -0.0961272 -0.564188 0.749285 1.0336 0.326289 -0.0279401 -0.0351972 -0.14793 0.554492 0.337738 -0.0299052 -0.0753141 -0.0121315 0.029007 0.153236 -0.00885763 -0.0172208 0.0471813 -0.27964 -0.445762 0.252438 0.35492 0.206272 -0.115961 -0.201772 0.198417 -0.230438 0.158737 -0.135011 0.354165 -0.0648389 0.0418257 0.446063 0.200434 0.104865 0.451765 0.525975 -0.187596 0.343715 -0.528662 -0.0847582 0.10658 0.184004 -0.006677
189566 0.41517 -1.17402 -0.112017 -0.814213 0.723106 -0.250054 -0.154632 -0.669569 0.863431 1.06923 0.398358 -0.0575742 -0.0587063 -0.0886282 0.601539 0.384659 -0.0810544 -0.0884018 -0.0517279 0.104817 0.133559 0.0101179 -0.0339629 0.0192981 -0.242828 -0.522818 0.272377 0.395519 0.24795 -0.109929 -0.186672 0.234817 -0.292817 0.32957 -0.12989 0.394078 -0.0546047 -0.00476894 0.522668 0.313599 0.197002 0.503049 0.754129 -0.486981 0.493958 -0.877837 -0.131667 0.270505 0.322037 -0.0312916
1153014 0.369729 -1.23178 -0.0814145 -0.836146 0.785611 -0.27956 -0.141866 -0.761095 0.95287 1.24295 0.280803 -0.104926 -0.0111408 -0.159397 0.656921 0.47576 -0.0353757 -0.118126 -0.0485522 0.0440326 0.163096 -0.0160805 -0.0281461 0.0018221 -0.236119 -0.580816 0.211163 0.320343 0.185766 0.00345503 -0.285883 0.287418 -0.340515 0.432064 -0.237985 0.413013 -0.0545655 -0.0627649 0.495117 0.272245 0.150662 0.5128 0.730328 -0.34979 0.628612 -0.644339 -0.117847 0.267515 0.428673 0.0547696
318071 0.313461 -1.29953 -0.682984 -0.923928 0.630427 -0.275972 -0.157747 -0.717839 0.975708 1.28299 0.370873 -0.119427 -0.030335 -0.206953 0.739641 0.469644 -0.0596764 -0.067999 -0.0359847 0.0401956 0.21581 -0.0115584 -0.027017 0.00419453 -0.331746 -0.734874 0.342127 0.433497 0.256095 -0.153562 -0.336081 0.346421 -0.352657 0.562987 -0.248657 0.502599 -0.0829054 0.504737 0.550085 0.264896 0.201871 0.569074 0.871005 -0.338221 0.585162 0.130325 -0.144451 0.206606 0.310027 0.221271
24043 0.0433831 -0.0910189 -0.0495576 -0.227381 0.226695 -0.0530672 -0.0639434 -0.260491 0.299946 0.269808 -0.259305 -0.1284 0.0388412 -0.141942 0.293238 0.16363 0.12535 0.178977 0.10071 -0.210434 0.098615 0.0037589 -0.00943138 0.153537 -0.205838 -0.17251 0.12573 0.169662 0.0767454 -0.0215507 0.0848442 -0.175453 -0.116162 0.134349 0.0593717 -0.185909 0.0209918 -0.39212 0.160807 0.0529999 0.0913971 0.13804 0.184246 -0.184938 0.128327 -0.172243 -0.0179233 0.0298189 0.0790068 -0.0116344
928873 0.228483 -0.134271 0.0845393 -0.217468 0.161761 -0.0176464 -0.0761189 -0.235411 0.366795 0.311387 -0.180166 -0.140274 0.0311608 -0.119752 0.279852 0.0293452 0.0613849 0.161531 0.123015 -0.228498 0.123137 -0.0127881 -0.0315282 0.171258 -0.250772 -0.318156 0.226806 0.219201 0.101375 -0.0211997 0.101048 -0.219965 -0.157339 0.255008 0.0358651 -0.167556 0.0335169 -0.29995 0.150337 0.05299 0.0932132 0.189033 0.255571 -0.15344 0.114309 -0.371172 0.0254696 0.00204655 0.0313359 0.12691
370366 0.437603 -0.421596 0.0571111 -0.504021 0.400327 -0.133001 -0.171691 -0.390082 0.480519 0.481101 -0.361572 -0.227031 0.105809 -0.209705 0.386338 0.252694 0.142019 0.252552 0.184784 -0.34622 0.192912 0.00368604 -0.0239099 0.277243 -0.428957 -0.362481 0.169995 0.202284 0.15414 0.128766 0.200833 -0.409661 -0.15981 0.223776 0.201418 -0.322173 0.0531145 -0.579141 0.356154 0.0763812 0.182429 0.266187 0.487969 -0.403267 0.0813274 -0.158537 -0.0464382 0.206593 0.243845 -0.270207
648232 0.245731 -0.230555 0.0292964 -0.27835 0.294959 -0.114271 -0.0944703 -0.253764 0.260746 0.263679 -0.293873 -0.134652 0.0465367 -0.125794 0.26061 0.159883 0.100326 0.165418 0.100474 -0.228395 0.125089 0.00430628 -0.0151025 0.151991 -0.237306 -0.150584 0.137202 0.165612 0.0657087 0.0272798 0.157828 -0.170534 -0.0143769 0.040235 0.0826166 -0.119696 0.0113445 -0.0232925 0.224352 0.084384 0.124325 0.227131 0.258278 -0.230592 0.0309188 -0.450618 -0.0218942 0.145153 0.221075 -0.285294
567005 0.282815 -0.271631 -0.661646 -0.303914 0.35341 -0.117487 -0.0948842 -0.31094 0.354044 0.352501 -0.333214 -0.169601 0.0823085 -0.197632 0.325215 0.226813 0.134259 0.254785 0.146185 -0.310097 0.158253 0.00840778 -0.0304222 0.210827 -0.325438 -0.22872 0.162577 0.233484 0.0725257 -0.210929 0.192648 -0.214597 -0.0520172 0.153033 0.138209 -0.231282 0.026908 0.170983 0.299839 0.102082 0.132537 0.279542 0.404402 -0.324489 0.0272505 0.513077 -0.0111418 0.111137 0.200195 0.00464894
1127810 0.181175 -0.271786 -0.477849 -0.352462 0.358643 -0.11693 -0.1022 -0.266883 0.270645 0.353998 -0.278811 -0.136776 0.0664352 -0.161202 0.366321 0.205192 0.138414 0.25764 0.118103 -0.305639 0.152526 0.0150356 -0.0178762 0.22211 -0.331434 -0.352725 0.280618 0.294003 0.149809 0.186075 0.21905 -0.245923 -0.0898184 0.379999 0.168659 -0.192658 0.0382945 -0.377182 0.378068 0.0645062 0.150538 0.286495 0.417624 -0.305293 0.146975 -0.165358 0.00219687 0.121379 0.283033 -0.215252
13960 0.149199 -0.22451 0.258925 -0.290342 0.252403 -0.0868642 -0.087763 -0.234903 0.244659 0.265491 -0.250383 -0.124846 0.0553316 -0.11271 0.259134 0.21579 0.119165 0.153149 0.097469 -0.194888 0.0966903 -0.00120639 -0.0264056 0.129664 -0.187571 -0.143763 0.104626 0.168153 0.0799772 0.359461 0.115484 -0.166888 -0.0472624 0.111357 0.056691 -0.116497 0.0186264 -0.611322 0.219508 0.0722105 0.0951149 0.251932 0.339512 -0.254383 0.104657 -0.616282 -0.0222793 0.0975225 0.149973 -0.181306
6213 0.780955 -0.417726 -0.977468 -0.668267 0.529433 -0.235193 -0.226276 -0.479061 0.393017 0.181902 -0.499901 -0.29917 0.13704 -0.261289 0.287719 0.369055 0.152587 0.157651 0.153454 -0.270554 0.159069 -0.00233507 -0.0379135 0.156632 -0.309608 -0.00408728 0.0261005 0.323327 0.165169 -0.272829 0.157222 -0.0373872 0.169516 0.282871 4.48142e-06 -0.257407 0.0151876 0.621799 0.350503 0.110182 0.176945 0.497525 0.380061 -0.314972 0.0883285 -0.430886 -0.0675765 0.282028 0.0327499 -0.270629
1106966 0.424426 -0.252462 0.149941 -0.394931 0.457042 -0.0914613 -0.0721901 -0.164365 0.267696 0.0668314 -0.216143 -0.208078 0.0279976 -0.227254 0.240929 0.0926883 0.0494523 0.20774 0.108975 -0.167081 0.118088 0.00608753 -0.0401365 0.160089 -0.274023 -0.023984 0.178492 0.219743 0.124059 0.0818821 0.121069 -0.155235 -0.0768565 0.287508 -0.00912155 -0.278512 0.00782357 0.0960342 0.145333 0.0779608 0.100691 0.270395 0.111555 -0.192876 -0.0649181 -0.30995 -0.0267219 -0.135513 0.00758787 -0.0651645
20534 0.596751 -0.273834 -0.90438 -0.420701 0.445598 -0.137794 -0.0902463 -0.178785 0.372618 0.0485743 -0.408265 -0.269948 0.0366471 -0.33062 0.298991 0.187504 0.0634284 0.218281 0.0984514 -0.159659 0.142949 0.0141106 -0.0351403 0.140844 -0.244156 -0.162873 0.306465 0.295492 0.170997 -0.666673 0.176373 -0.298479 -0.209948 0.566269 -0.0210697 -0.467398 0.00521299 0.772604 0.28661 0.0366733 0.140128 0.320505 0.211894 -0.289941 -0.139083 1.5408 -0.0765673 -0.0384235 -0.0137811 0.24443
23774 0.34283 -0.259428 0.107372 -0.510713 0.409183 -0.0748489 -0.10681 -0.199739 0.32881 0.254768 -0.268668 -0.202425 0.0382184 -0.222659 0.228691 0.169941 0.0790812 0.202132 0.117048 -0.204839 0.20762 0.00953409 -0.0378059 0.191776 -0.273693 -0.182208 0.228808 0.22952 0.137451 0.0788654 0.341884 -0.300484 -0.120995 0.503141 0.0773619 -0.264034 0.0242328 -0.575123 0.310408 0.0993549 0.153917 0.300102 0.290011 -0.177945 -0.0203002 -0.492816 -0.0351217 0.105443 0.194818 -0.318399
400455 0.0646683 -0.14961 0.269327 -0.227835 0.19594 -0.0706909 -0.0596702 -0.174329 0.199723 0.262219 -0.269434 -0.13482 0.0556316 -0.106326 0.266514 0.214774 0.122542 0.136725 0.0912033 -0.199628 0.0893612 8.52615e-05 -0.00994191 0.147943 -0.207633 -0.227329 0.168467 0.291917 0.142757 0.530091 0.1588 -0.254807 -0.139113 0.307556 0.0984524 -0.254288 0.0250522 -0.66072 0.204485 0.072653 0.0903421 0.166368 0.325606 -0.243461 0.154151 -0.653548 -0.0464295 0.29557 0.352038 -0.525656
1131314 0.108964 -0.241331 -0.183744 -0.135042 0.137706 -0.0657241 -0.031434 -0.178848 0.142667 0.132143 -0.239787 -0.117044 0.0853706 -0.0821274 0.312483 0.268853 0.165922 0.0980277 0.117997 -0.229127 0.0831673 -0.00174462 -0.00610971 0.129421 -0.226762 -0.130637 0.110475 0.23803 0.0301939 0.0388082 0.0695343 -0.194832 -0.122615 0.237655 0.0959792 -0.116194 0.0165754 -0.312761 0.255286 0.058308 0.112001 0.0797903 0.292597 -0.177349 0.0803744 -0.019578 -0.0141724 0.00275039 0.231551 -0.0130968
644494 0.215715 -0.381487 -0.330868 -0.299272 0.44953 -0.12078 -0.114404 -0.327604 0.378082 0.400256 -0.437135 -0.175379 0.0815448 -0.190138 0.391249 0.358184 0.245463 0.319805 0.191428 -0.403575 0.177846 0.00390132 -0.0216869 0.283703 -0.423572 -0.24637 0.199209 0.371897 0.148566 0.13785 0.286168 -0.505227 -0.234689 0.263246 0.111919 -0.274463 0.0332112 -0.675602 0.386704 0.12698 0.187093 0.263197 0.527365 -0.408696 0.151883 -0.0231423 -0.0485804 0.353317 0.510727 -0.291143
289088 0.10574 -0.166558 -0.179602 -0.0813082 0.0315573 -0.0316361 -0.044626 -0.314303 0.0964257 0.160664 -0.348446 -0.222462 0.0733836 -0.153115 0.0983697 0.11611 0.120805 0.124545 0.0706494 -0.120769 0.0377516 0.0127291 -0.0214331 0.107644 -0.181597 -0.129267 0.157159 0.329503 0.112859 0.104268 0.0365695 -0.0495624 -0.0948005 0.0826434 -0.0973269 -0.0250003 -0.00242014 -0.261656 0.0956882 0.0601883 0.0448847 0.114229 0.199072 -0.271401 0.138338 -0.0418675 -0.0174862 0.202078 0.151186 -0.0266004
689152 -0.00836448 -0.00918139 -0.228778 0.102259 -0.0195255 -0.0118331 -0.155184 -0.795683 0.260685 0.373499 -0.838568 -0.531621 0.193847 -0.351127 0.149017 0.472355 0.307311 0.344827 0.133586 -0.330873 0.144526 0.0176093 -0.0400027 0.141538 -0.210953 -0.479919 0.257961 0.420966 0.131463 0.324002 0.0216415 -0.052788 -0.20685 -0.143092 -0.331473 0.187549 -0.050378 -0.269736 -0.189182 0.091799 -0.0019688 0.218626 0.51954 -0.661956 0.314962 -0.0665588 -0.0306551 0.565085 0.499021 -0.104846
9716 0.161517 -0.294065 -0.0804225 -0.317846 0.352737 -0.0968939 -0.0868616 -0.314181 0.343283 0.318284 -0.348795 -0.160395 0.0646216 -0.135405 0.31003 0.22008 0.160549 0.200398 0.112307 -0.259973 0.106284 -0.000658686 -0.008067 0.163083 -0.23327 -0.157529 0.162365 0.253359 0.0968842 0.298939 0.139513 -0.23287 -0.116394 0.155892 0.131794 -0.231355 0.0352753 -0.411415 0.237483 0.0846474 0.0950887 0.173261 0.297691 -0.268972 0.104874 -0.433981 -0.015752 0.158135 0.228035 -0.256637
28674 0.0971696 -0.305168 -0.480847 -0.284259 0.294708 -0.0845342 -0.0925825 -0.280348 0.279931 0.308099 -0.27282 -0.170051 0.0768184 -0.120378 0.311323 0.277847 0.17798 0.216503 0.120358 -0.282569 0.132951 0.0105809 -0.0102926 0.193753 -0.289474 -0.259283 0.25635 0.30774 0.132777 0.245354 0.25572 -0.34557 -0.132964 0.155468 0.0921442 -0.234376 0.031277 -0.352542 0.346742 0.136405 0.126282 0.283196 0.363513 -0.343459 0.0912155 -0.0182894 -0.00519209 0.243835 0.323697 -0.212571
164885 0.242916 -0.307723 0.672832 -0.274573 0.199727 -0.0667419 -0.0605721 -0.391086 0.281759 0.39145 -0.386973 -0.168045 0.0944869 -0.142557 0.182292 0.14175 0.0682997 0.126904 0.0779991 -0.209543 0.0698804 0.0149228 -0.00936931 0.160909 -0.208623 -0.118402 0.062788 -0.0101832 0.0527207 0.184918 0.00916593 -0.126802 0.0353169 0.0449773 0.0267058 -0.126871 0.0325496 -0.113979 0.154347 0.0508403 0.11848 0.194137 0.172034 -0.155709 0.116738 -0.651849 -0.02499 0.118108 0.189836 -0.256669
447224 0.250834 -0.317002 -0.295381 -0.308097 0.0395273 -0.0403871 -0.0554225 -0.51758 0.296238 0.479382 -0.347927 -0.155959 0.0902915 -0.144129 0.105828 0.063648 0.00490754 0.0732959 0.0180155 -0.211116 0.0596981 0.00730063 -0.028871 0.178321 -0.263647 -0.0898753 0.0778001 -0.086046 0.0433021 0.0624649 -0.0437487 -0.138813 -0.0111839 0.279466 0.0517263 -0.139771 0.0441392 -0.273197 0.202608 0.0838809 0.123035 0.315784 0.112983 -0.130715 0.0837661 -0.154511 -0.0384941 0.170858 0.180087 -0.197051
134219 0.262167 -0.423926 -0.262424 -0.521227 0.518552 -0.164862 -0.153134 -0.535805 0.470593 0.508457 -0.445261 -0.25998 0.118541 -0.199187 0.391869 0.171177 0.202359 0.338458 0.165608 -0.385039 0.181778 0.00195097 -0.0379897 0.281657 -0.446602 -0.210117 0.280225 0.381606 0.170081 0.19273 0.271301 -0.416186 -0.209012 0.368805 0.127144 -0.404324 0.0330561 -0.656453 0.34956 0.175848 0.184108 0.317287 0.424491 -0.426348 0.0720484 -0.260485 -0.0472545 0.377609 0.421139 -0.352306
35343 0.341004 -0.422952 0.222443 -0.367203 0.290665 -0.130479 -0.112162 -0.461921 0.466444 0.488202 -0.52916 -0.276365 0.120574 -0.235403 0.479866 0.371018 0.261387 0.287973 0.186952 -0.412072 0.162723 0.00554382 -0.0168854 0.21302 -0.347818 -0.174019 0.196658 0.300813 0.108824 -0.0251229 0.145808 -0.287226 -0.0731132 -0.0434191 0.163068 -0.221879 0.0270093 -0.494607 0.312853 0.0790456 0.166398 0.195853 0.385064 -0.348364 -0.00500487 0.00508521 -0.0305021 0.205328 0.182031 -0.116442
35335 0.425549 -0.458551 -0.168684 -0.381109 0.327131 -0.160803 -0.143839 -0.467451 0.489645 0.482861 -0.531543 -0.286096 0.128777 -0.264595 0.467332 0.399773 0.251341 0.327137 0.191309 -0.431636 0.182279 0.000221724 -0.0243294 0.266912 -0.395369 -0.283734 0.248979 0.37302 0.126364 0.0647723 0.179209 -0.343895 -0.121713 0.0444179 0.187603 -0.314226 0.0331822 -0.556203 0.339459 0.0911046 0.174887 0.166861 0.432504 -0.390396 0.0395477 0.0149869 -0.0440823 0.2647 0.257373 -0.153585
59772 0.377843 -0.296261 -0.268047 -0.28107 0.350341 -0.140623 -0.0940356 -0.411427 0.361693 0.378509 -0.396104 -0.230467 0.0987781 -0.208471 0.404066 0.307053 0.191965 0.232979 0.139528 -0.334812 0.180197 0.00126344 -0.0293651 0.205147 -0.33049 -0.250525 0.239495 0.346017 0.123919 0.256241 0.195113 -0.372681 -0.17988 0.300901 0.153979 -0.282068 0.0443317 -0.351354 0.278736 0.108716 0.134189 0.19038 0.363452 -0.300499 0.0875323 -0.0376858 -0.0715334 0.298359 0.125525 -0.234294
13212 0.480614 -0.796273 0.317562 -0.376681 0.402242 -0.205055 -0.0856245 -0.560726 0.361989 0.58282 -0.865369 -0.382161 0.0823934 -0.215219 0.635608 0.393706 0.354156 0.314687 0.248407 -0.444158 0.191457 0.000130063 -0.0218015 0.216087 -0.29541 -0.057815 0.15414 0.248181 0.08933 0.0517348 0.0190908 -0.170696 -0.0678009 0.271118 0.0215035 0.082587 0.0123412 -0.0584082 0.165543 -0.0434449 -0.0263597 0.16561 0.2174 -0.151626 0.353513 -0.795812 0.0636631 0.391914 0.100091 -0.201987
411005 0.36994 -0.436774 -0.271812 -0.241124 0.12082 -0.203553 -0.0670263 -0.480501 -0.00580704 0.363383 -0.542676 -0.312935 0.0502576 -0.154614 0.628282 0.545126 0.390008 0.254103 0.217965 -0.342635 0.159277 0.00903832 -0.0147025 0.198173 -0.279667 0.0589277 0.140105 0.17944 0.144721 0.140967 0.0560486 -0.182863 -0.0999803 -0.0681294 -0.0895782 0.120011 -0.00613215 -0.491696 0.147282 -0.0102696 0.0149507 0.203507 0.22946 -0.262665 0.0781433 -0.767194 0.0295776 0.134229 0.170057 -0.158138
69198 0.111839 -0.533096 -0.0500506 -0.356528 0.328709 -0.0424727 -0.00521715 -0.228669 0.368512 0.488965 -0.44444 -0.39146 0.250118 -0.348461 0.469049 0.182898 0.205645 0.195927 0.16793 -0.423625 0.154365 -0.0138263 -0.0190524 0.12283 -0.225166 -0.0226211 0.0454308 0.432056 0.0684838 0.0771963 -0.260649 0.178723 -0.124203 -0.332111 -0.178194 -0.325189 -0.0161105 -0.547334 0.107313 0.0387912 0.10489 0.0860602 -0.217706 0.0094903 -0.0297895 0.00586237 -0.041934 0.213607 0.424113 -0.244887
231198 -0.0542234 -0.342748 -0.477665 -0.249595 0.126249 -0.0569271 -0.172352 -0.233968 0.299765 0.533509 -0.463938 -0.343238 0.202192 -0.331654 0.555497 0.217694 0.275795 0.419403 0.211283 -0.236971 0.162335 -0.0217678 -0.0352692 0.155172 -0.355783 -0.251016 0.069238 0.464324 0.0120695 -0.160419 -0.0955537 -0.015179 -0.092998 -0.504346 0.0125276 -0.222916 0.00647485 -0.0352556 0.160809 0.00700201 0.15266 0.0947397 0.0143989 0.0109105 0.172065 -0.641666 -0.0247468 0.279256 0.0245293 0.122708
1153195 -0.0627806 -0.30119 -0.170004 -0.0624344 0.0701624 -0.0399207 -0.086305 -0.12312 0.333149 0.555057 -0.46424 -0.313614 0.167542 -0.3095 0.425264 0.191902 0.249227 0.280124 0.161505 -0.202847 0.129093 -0.0242677 -0.0246762 0.149922 -0.325657 -0.215743 0.11082 0.457276 0.0354664 0.00938256 -0.0571038 0.0380548 -0.0648967 -0.286915 0.0147091 -0.297696 0.0195231 -0.344504 0.153788 0.037908 0.0731712 0.163844 -0.124613 -0.0591796 0.0485405 -0.226921 -0.0313977 0.363244 0.222974 0.0830285
267824 -0.000326897 -0.408519 -0.67759 -0.412897 0.334745 -0.0909521 -0.0944378 -0.325585 0.283586 0.405497 -0.313301 -0.344216 0.186133 -0.40854 0.573924 0.263615 0.20132 0.399268 0.195108 -0.445579 0.246989 0.00201948 -0.030141 0.168417 -0.311832 -0.248168 0.134554 0.303606 -0.0109566 0.176352 -0.0599027 -0.224179 -0.278896 0.020809 -0.0641832 -0.411923 -0.00794274 -0.523707 0.131787 0.0390834 0.194033 0.207694 0.0724284 -0.231947 0.0992536 -0.194642 -0.0205467 0.160882 0.245562 -0.30902
99023 0.338129 -0.205704 0.456762 -0.279128 0.243141 -0.0825057 -0.136112 -0.23665 0.460832 0.0636763 -0.165759 -0.117074 0.0639114 -0.254913 0.0736392 0.0333361 0.0352395 0.265996 0.0825119 -0.346372 0.232234 -0.00548554 -0.0112947 0.11006 -0.292268 -0.128263 0.166337 0.197707 0.0220654 0.331721 -0.108511 0.0131923 -0.10763 -0.361858 0.0471112 -0.290004 -0.039408 -0.0781173 -0.135925 -0.101407 0.0331303 0.0911157 0.192964 -0.174885 0.112692 -0.322585 -0.0691227 -0.177772 0.341262 -0.188863
578309 0.265961 -0.239483 -0.32485 -0.370768 0.324403 -0.107099 -0.183755 -0.33984 0.577054 0.0790197 -0.096653 -0.0973789 0.0921903 -0.268401 -0.0490148 -0.011947 0.0298783 0.293873 0.0534314 -0.355777 0.267561 -0.0042426 -0.0180926 0.131097 -0.359642 -0.232632 0.195804 0.223648 0.027388 0.183913 -0.142729 0.0688538 -0.220753 -0.157027 0.0543677 -0.354288 -0.0400378 -0.320315 -0.200637 -0.100936 0.074564 0.140459 0.280887 -0.297574 0.077802 -0.0760674 -0.0906955 -0.0905731 0.510227 -0.223803
578365 0.1573 -0.273283 -0.22339 -0.367129 0.321819 -0.135585 -0.126614 -0.297768 0.353525 0.364455 -0.210625 -0.207379 0.0978056 -0.177627 0.237724 0.225831 0.144021 0.285158 0.131614 -0.384032 0.233636 0.00391215 -0.0078937 0.170453 -0.277066 -0.232863 0.182537 0.275762 0.085145 0.129812 0.0993906 -0.219105 -0.18899 0.286565 0.0922484 -0.346911 0.0136853 -0.478434 0.211829 0.033273 0.1136 0.182623 0.348758 -0.405038 0.076905 0.029767 -0.0488862 0.0702451 0.432086 -0.237877
16843 0.183905 -0.2256 -0.652775 -0.243219 0.133032 -0.132181 -0.109754 -0.205413 0.271004 0.441904 -0.377632 -0.0843134 0.0482772 -0.217157 0.328598 0.166436 0.11693 0.216636 0.137477 -0.282595 0.129305 0.0174148 -0.021291 0.194122 -0.227429 0.0167111 0.145441 0.0998478 0.0244634 -0.143551 0.156428 -0.0536816 -0.0247579 0.0816004 0.0677242 0.0671989 -0.00604289 -0.0687882 0.273309 0.0934279 0.0879084 0.306721 0.245351 -0.330405 0.0866948 0.547645 -0.0121701 -0.210919 0.0609471 -0.274839
1152259 0.0358069 -0.18039 -0.372358 -0.176246 0.0618858 -0.106284 -0.104778 -0.136376 0.223033 0.366998 -0.271671 -0.0486927 0.0595149 -0.199562 0.23886 0.131163 0.108732 0.199897 0.0778089 -0.194167 0.110876 0.0123431 -0.0252536 0.148392 -0.162689 -0.00917373 0.101382 0.0772808 0.0748975 0.0578682 0.151524 0.00285269 -0.0243098 0.157559 0.0862175 0.0156236 0.0146256 -0.427978 0.180405 0.0719303 0.081051 0.228255 0.232274 -0.313567 0.0744293 -0.109049 -0.0328912 0.0179957 0.0955939 -0.406309
71736 0.180687 -0.348387 -0.43093 -0.514006 0.338019 -0.13114 -0.127451 -0.33358 0.40124 0.496316 -0.271791 -0.219062 0.0861576 -0.215031 0.400369 0.288931 0.113301 0.294031 0.14016 -0.313361 0.212705 0.0164082 -0.0369125 0.223163 -0.366576 -0.399478 0.284602 0.295853 0.110366 0.0281041 0.200359 -0.321146 -0.0901982 0.232772 0.179072 -0.239332 0.0369575 -0.702808 0.403326 0.131897 0.189867 0.300562 0.535791 -0.455653 0.165356 -0.125226 -0.0241461 0.283614 0.364295 -0.416378
1129096 0.358106 -0.110867 -1.38363 -0.254656 0.208144 -0.084643 -0.0896537 -0.265757 0.184283 0.207224 -0.0827887 -0.118161 0.051484 -0.0606854 0.123562 0.161803 0.072216 0.12448 0.0720592 -0.146142 0.0826101 0.00376235 -0.0164745 0.159164 -0.243477 0.0173832 0.0357057 0.137462 0.112802 -0.205263 0.156569 -0.0520216 0.0752305 0.110109 0.00241409 -0.0779192 0.01546 1.04726 0.0950025 0.0631107 0.139212 0.211583 0.196843 -0.148385 0.0309451 1.55489 -0.00784649 0.0400875 -0.0893838 0.152541
1116835 0.0521548 -0.227908 -0.253788 -0.225862 0.258054 -0.0978602 -0.0779828 -0.260539 0.265475 0.308791 -0.273567 -0.120638 0.0654834 -0.146433 0.332041 0.167178 0.130099 0.186675 0.0970373 -0.216347 0.107678 -0.0040461 -0.00822817 0.156465 -0.221353 -0.224282 0.182677 0.241268 0.114776 0.22692 0.205669 -0.311022 -0.141783 0.304476 0.154278 -0.281387 0.0291498 -0.380601 0.292787 0.127907 0.131639 0.216408 0.41239 -0.30693 0.0528649 -0.256017 -0.0242124 0.290373 0.324648 -0.332865
399173 0.0353833 -0.139694 0.162347 -0.113442 0.149793 -0.0463254 -0.0433134 -0.139197 0.174135 0.244909 -0.189142 -0.0754179 0.0523245 -0.0960547 0.231028 0.170671 0.11401 0.12517 0.0820922 -0.176755 0.0731514 0.0121703 -0.019519 0.106925 -0.157509 -0.188397 0.108993 0.171074 0.114456 0.500615 0.161519 -0.24989 -0.153283 0.324656 0.065176 -0.217031 0.0292046 -0.51121 0.212997 0.0931306 0.0799679 0.18212 0.25396 -0.264347 0.183208 -0.177586 -0.0403049 0.272446 0.263433 -0.451078
85452 0.113431 -0.211103 0.550624 -0.228487 0.374734 -0.0665052 -0.0468019 -0.044062 0.228558 0.228754 -0.28591 -0.0575519 0.0379575 -0.0284854 0.0450837 0.162356 0.0745016 0.0426761 0.0709051 -0.145506 0.0476087 -0.0208435 6.7737e-06 0.0487331 -0.0728185 -0.0129812 -0.0681721 -0.003988 -0.0564832 -0.00526734 0.0277487 -0.0247722 0.0847584 -0.172276 -0.0113728 0.162135 -0.00483321 0.519096 0.249853 0.0520774 0.0405544 0.0999323 0.0824057 -0.105225 0.0140244 -0.020765 -0.0358351 0.00592942 0.0615161 -0.156619
1152290 0.297841 -0.293183 -1.25055 -0.348476 0.707435 -0.0849795 -0.0352001 0.0468976 0.38645 0.36048 -0.520783 0.0425902 0.0394406 -0.0169204 0.0137408 0.00321819 0.0879905 0.128672 0.0919896 -0.236903 0.10675 -0.0338201 0.0219561 0.0864579 -0.165176 -0.010311 -0.247546 0.0568384 -0.0964182 -0.411438 -0.0725028 -0.0423239 0.0338074 -0.211751 -0.107292 0.290258 -0.00761939 0.81189 0.464697 0.0857146 0.111321 0.147834 0.106198 -0.162495 -0.156935 1.36981 -0.0549414 -0.0428234 0.0144383 0.0473478
46491 0.62689 -0.683025 -0.0111593 -0.723335 0.938723 -0.21978 -0.200371 0.202119 0.502833 0.385743 -0.627374 0.191665 0.00255907 -0.146804 -0.203275 0.28041 0.289171 0.135863 0.179694 -0.503606 0.247254 -0.0400488 0.0572361 0.0907178 -0.38032 -0.14387 -0.251452 0.408721 0.0678586 0.418114 0.208279 -0.146432 0.146269 0.305164 -0.271914 0.768041 -0.0324699 -0.8739 1.51858 0.190887 0.194041 0.301663 0.149658 -0.722901 -0.39394 -0.27493 -0.293014 -0.0754234 0.56582 -0.586298
51834 0.38656 -0.366162 -0.367793 -0.637649 0.76356 -0.179675 -0.0914517 0.067106 0.223008 0.34548 -0.28451 0.108275 0.0378408 -0.013238 0.079234 0.303653 0.164474 0.177581 0.122509 -0.364528 0.169289 -0.0291918 0.00403544 0.186098 -0.317239 -0.325018 -0.0248813 0.288905 0.0816635 0.350577 0.254556 -0.472148 -0.143099 0.416731 -0.0169728 0.17985 0.0139718 -0.545724 0.78215 0.0407097 0.146944 0.172666 0.386894 -0.521673 -0.268137 -0.135713 -0.153598 -0.00999626 0.1997 -0.504697
202639 0.278813 -0.530566 -0.385677 -0.360485 0.0336765 -0.0931597 -0.499251 -0.533812 0.0627872 0.624392 -0.345142 -0.37185 0.228074 -0.165852 0.541927 0.0621112 0.244754 0.720841 0.366237 -0.161525 0.232926 -0.0161522 -0.0447291 0.2685 -0.499821 -0.438851 0.0864154 0.412684 -0.0632406 -0.0402477 0.223277 -0.458744 0.16847 -0.33574 0.290495 0.322999 0.0344247 -0.149131 0.231669 0.0471258 0.0824371 0.46929 0.193553 -0.200253 0.0543847 -0.479701 0.0416476 0.449262 -0.799683 0.208493
643597 0.16397 -0.233076 -0.21964 -0.279247 0.242982 -0.135258 -0.250399 -0.63259 0.295121 0.594581 -0.662677 -0.254307 0.0245962 -0.0914061 0.190912 -0.181036 -0.00542405 0.267562 0.185547 -0.22135 0.181173 -0.0110952 -0.0189984 0.0740936 -0.191123 -0.143828 0.069639 0.283168 -0.0770365 0.0343978 0.131337 -0.300255 -0.113586 0.0416035 0.109815 0.0495612 0.00737587 -0.288687 0.334285 0.0799591 -0.0558491 0.248578 -0.0375032 -0.164468 0.237854 -0.448232 0.0809638 0.220726 -0.411684 0.110986
643695 0.0858906 -0.537392 0.316519 -0.203353 0.266915 -0.321032 -0.297169 -0.481658 0.298428 0.572298 -1.07423 -0.555993 0.11639 -0.229426 0.313006 -0.180898 -0.0739213 0.558919 0.276183 -0.384405 0.367495 -0.0183205 -0.00322729 0.102496 -0.306155 -0.414679 0.245861 0.514636 -0.062668 0.083481 0.292138 -0.359157 -0.0433995 0.644018 0.0652069 0.0986408 -0.0195101 -0.148842 0.190181 -0.0406858 -0.12868 0.350596 0.181762 -0.0310633 0.581741 -0.574311 0.296418 0.611113 -0.377403 -0.0583935
46476 0.0804808 -0.142591 -0.175217 -0.239649 0.168298 -0.0854872 -0.0757875 -0.24123 0.097907 0.201148 -0.267477 -0.174353 0.0451055 -0.131259 0.251077 0.151649 0.111665 0.156065 0.0871766 -0.208639 0.0824459 0.00315718 -0.00428137 0.137182 -0.197217 -0.125414 0.130986 0.18226 0.072475 0.140354 0.171711 -0.234012 -0.10021 0.204516 0.0429605 -0.228652 0.0113537 -0.258342 0.20052 0.09145 0.108575 0.205152 0.340901 -0.320095 0.0589243 -0.11702 -0.00784923 0.13809 0.132553 -0.0965915
17798 0.372758 -0.152151 -1.83414 -0.335949 0.394556 -0.0122961 -0.0525771 -0.143838 0.220183 0.220617 -0.384326 -0.273814 0.0383822 -0.105938 0.185306 0.316903 0.125181 0.17359 0.0975604 -0.142936 0.108767 -0.0109317 -0.0132532 0.200083 -0.272485 -0.23595 0.118937 0.0569967 0.0368177 -0.504702 0.165119 -0.30643 0.084674 -0.365111 0.0952858 -0.0450615 0.0531963 0.605139 0.245769 0.132959 0.212661 0.211538 0.347261 -0.121225 0.0486363 1.89757 0.0557235 -0.108558 0.0101912 0.406074
39131 0.187265 -0.233269 -0.0154723 -0.343011 0.353587 -0.104909 -0.0889847 -0.374698 0.311553 0.414977 -0.620834 -0.391302 0.0824476 -0.28 0.417858 0.414793 0.143051 0.127944 0.100238 -0.173954 0.126531 0.00260031 -0.0248942 0.173394 -0.254459 -0.381116 0.246883 0.0461014 0.0235389 0.455725 0.116434 -0.354925 -0.0654514 0.107952 0.181703 0.0521134 0.0415235 -0.761633 0.234852 0.114246 0.0637459 0.231427 0.520541 -0.325217 0.185483 -0.65995 -0.0372288 0.374695 0.222366 -0.290924
39130 0.219715 -0.26819 -0.368622 -0.181989 0.184237 0.00426524 -0.0540347 -0.238666 0.322114 0.327181 -0.381836 -0.192854 0.0705929 -0.188026 0.480202 0.426898 0.227285 0.213371 0.121349 -0.22648 0.154207 0.00929052 -0.0069257 0.120222 -0.207051 -0.218572 0.196728 0.0927756 0.0686218 0.21719 0.182446 -0.208066 0.0215377 -0.0444649 0.084423 -0.0898103 0.0413164 -0.365054 0.218052 0.149518 0.0546416 0.233667 0.305312 -0.154437 0.142252 -0.124191 0.0224768 0.0416067 0.0695365 0.0490155
308920 0.252818 -0.213412 -0.549642 -0.261505 0.529284 -0.0973178 -0.0945957 -0.302644 0.3158 0.199963 -0.251125 -0.0500496 0.0232454 -0.000139373 0.255045 0.192983 0.134877 0.164259 0.114636 -0.253587 0.0429005 -0.0133064 -0.00912691 0.0937473 -0.145583 0.156572 -0.128845 -0.000500023 -0.0190247 -0.0108418 0.0166653 -0.0593254 0.0705713 -0.262048 0.00180722 0.0169467 0.00960064 0.422321 0.18485 0.0772084 0.122562 0.228679 0.14913 -0.264477 0.0502831 -1.20557 0.0276498 -0.0381547 0.127244 -0.0923738
15984 0.528385 -0.302064 0.604887 -0.415387 1.00387 -0.142102 -0.156861 -0.515561 0.634507 0.324418 -0.503459 -0.0781882 0.0890293 0.0932672 0.576025 0.358342 0.312523 0.253089 0.142503 -0.413397 -0.0122958 -0.0144383 0.00957604 0.149496 -0.230152 0.503005 -0.361342 -0.0146763 -0.0313861 -0.152184 -0.0687555 -0.14203 0.170419 -0.489437 -0.0999064 -0.0733097 0.0193481 -0.099687 0.293024 0.12436 0.226015 0.413552 0.429505 -0.518803 0.0662384 -0.17416 0.0915265 -0.365233 0.0611616 0.161238
158098 0.458663 -0.347431 -0.320245 -0.48779 1.16426 -0.183626 -0.169844 -0.511582 0.666974 0.287445 -0.558826 -0.0928842 0.0957851 0.0994274 0.687077 0.418973 0.346862 0.236961 0.140878 -0.427607 -0.0757543 -0.0262118 0.00469441 0.143846 -0.194209 0.614532 -0.435229 -0.0794147 -0.0418551 -0.0709396 -0.0478258 -0.182543 0.154163 -0.493857 -0.150486 -0.0659833 0.0081805 -0.234861 0.326269 0.130723 0.272519 0.423138 0.535306 -0.579691 0.140744 -0.331025 0.102137 -0.314002 0.148132 0.175856
15987 0.510398 -0.451272 -0.984494 -0.501475 0.992401 -0.158787 -0.196644 -0.496192 0.572587 0.352181 -0.430554 0.00599807 0.0462669 0.142424 0.626205 0.312951 0.278999 0.273567 0.129544 -0.421775 -0.0159936 -0.00700536 0.00711021 0.182352 -0.178636 0.440928 -0.489698 -0.137414 -0.0488034 -0.117386 0.124345 -0.511551 -0.0846871 -0.15024 0.00143479 -0.0829448 0.0203007 -0.284527 0.254721 0.0722968 0.212591 0.306906 0.421803 -0.385164 0.0907242 0.540826 0.127776 -0.429775 0.0705091 0.372651
653441 0.466592 -0.316338 -0.384347 -0.38845 0.616009 -0.108273 -0.174592 -0.32514 0.369371 0.109725 -0.304056 -0.0416881 0.04797 0.0448208 0.527624 0.281829 0.228751 0.275265 0.146402 -0.360574 0.0458743 -0.0158316 -0.0103436 0.174675 -0.162196 0.336578 -0.257255 -0.0573736 -0.022604 0.153572 0.143882 -0.395379 -0.0450159 -0.0768822 -0.00087177 -0.0942958 0.00249809 -0.543038 0.202576 -0.00380405 0.146925 0.253677 0.381703 -0.383133 0.247549 -0.318203 0.108131 -0.288602 0.152867 0.00973389
1134346 0.560398 -0.295986 -0.225967 -0.0869338 0.560387 -0.0882665 -0.254798 -0.462812 0.422067 0.100532 -0.443662 -0.0576332 0.0168366 0.0854004 0.927611 0.484898 0.387613 0.445083 0.171138 -0.4009 -0.00778508 -0.0341867 0.0158543 0.241399 -0.19933 0.568166 -0.603822 -0.194027 -0.0326058 0.0793258 0.240672 -0.63411 -0.0512059 0.0264662 -0.0206135 -0.396364 0.0508914 -0.493193 0.178322 0.0359581 0.168937 0.340519 0.271151 -0.565662 0.42949 -0.1735 0.137249 0.0338712 0.275353 -0.0760286
1154520 0.0869324 -0.174485 -0.283009 -0.148344 0.119574 -0.0700768 -0.0668386 -0.26816 0.32546 0.335931 -0.283475 -0.18255 0.0684799 -0.174074 0.320698 0.228794 0.15409 0.175237 0.105637 -0.237957 0.0911141 0.00862371 -0.0112604 0.121296 -0.161313 -0.198245 0.104621 0.144258 0.0535151 0.0982401 0.173538 -0.291855 -0.098795 0.245234 0.0967877 -0.188653 0.0229417 -0.242214 0.206831 0.0908033 0.112956 0.132999 0.291581 -0.313754 0.0860296 0.00247377 -0.0423423 0.316243 0.304495 -0.318703
95589 0.112065 -0.229167 -0.0262611 -0.404122 0.24954 -0.0961541 -0.0900086 -0.272869 0.270191 0.270514 -0.318 -0.16295 0.0526418 -0.0585831 0.155742 0.139854 0.106407 0.243171 0.113595 -0.23601 0.0911793 -0.00460403 -0.0277851 0.148827 -0.197921 -0.0397015 0.0526991 0.177482 0.0690316 0.136647 0.149016 -0.152024 -0.0533548 0.0207751 0.0571435 -0.151069 0.0206511 -0.485629 0.251892 0.0815454 0.174175 0.257873 0.381549 -0.248748 0.0882867 -0.28829 -0.016259 0.00258907 0.0346349 -0.103901
95586 0.0816047 -0.160247 0.0794325 -0.23333 0.148018 -0.0341334 -0.0834324 -0.219463 0.191196 0.228526 -0.146614 -0.143122 0.0330614 0.00947343 0.117854 0.0898569 0.103838 0.217446 0.0846476 -0.208269 0.087102 -0.00554357 -0.0127158 0.164147 -0.204042 -0.0880326 0.00723369 0.131022 0.0528078 0.136943 0.126509 -0.187187 -0.0818501 0.436715 0.054977 -0.225928 0.0330458 -0.295868 0.165958 0.0646809 0.0989397 0.106491 0.117 -0.183144 -0.0173664 0.107698 -0.0262318 0.0554175 0.0587014 -0.157197
28487 0.287486 -0.243887 -0.406414 -0.364611 0.359397 -0.114024 -0.121476 -0.301987 0.323931 0.378881 -0.425496 -0.289045 0.10507 -0.20379 0.476543 0.301729 0.21307 0.315949 0.133646 -0.345456 0.186326 0.0128476 -0.0158209 0.179912 -0.279258 -0.282776 0.219521 0.227604 0.117268 0.223058 0.244287 -0.445625 -0.140084 0.344292 0.114557 -0.199146 0.0147589 -0.386765 0.27948 0.0597734 0.154313 0.137651 0.40791 -0.351198 0.111837 0.00112546 -0.0743574 0.2253 0.455752 -0.209545
109323 0.0211718 -0.220107 -0.169498 -0.19242 0.165842 -0.0606665 -0.018008 -0.197269 0.0887522 0.212005 -0.25672 -0.158973 0.0674668 -0.0434023 0.164409 0.134253 0.0773764 0.144456 0.0843729 -0.228574 0.0637513 0.0106335 -0.00951149 0.123755 -0.144193 -0.0716723 0.029514 0.187557 0.0575186 0.00301813 0.0835976 -0.140442 -0.0276589 0.0250263 -0.0267453 -0.143647 0.0126767 -0.21365 0.161288 0.0742422 0.0841983 0.179827 0.209215 -0.140874 0.0820341 -0.276585 -0.00355335 0.162104 0.217124 -0.0930781
137849 -0.15834 -0.295444 -0.259276 -0.218724 0.165186 -0.0322055 0.0273078 -0.17393 0.00901274 0.235484 -0.350449 -0.195634 0.0885642 0.0124002 0.162152 0.139658 0.0995712 0.206998 0.112419 -0.275196 0.0674457 -0.00647942 -0.0113685 0.12895 -0.110064 -0.0969912 0.0124327 0.297397 0.0698239 -0.00789128 0.106764 -0.169572 -0.0076998 0.0132707 -0.129658 -0.128906 0.000381095 -0.326747 0.214429 0.143208 0.11586 0.113643 0.164021 -0.0869368 0.148486 -0.127934 0.0124126 0.376491 0.39478 -0.249611
17242 0.194512 -0.327456 -0.454139 -0.44155 0.391058 -0.154591 -0.166361 -0.39319 0.46379 0.524511 -0.457321 -0.265203 0.0987594 -0.195835 0.327798 0.308673 0.168178 0.30323 0.165143 -0.350276 0.188891 0.00872859 -0.0276419 0.212955 -0.332328 -0.346427 0.16638 0.385258 0.145486 0.157142 0.243004 -0.456718 -0.153119 0.295229 0.121592 -0.29461 0.0377758 -0.664983 0.294537 0.105042 0.159406 0.350512 0.505672 -0.388754 0.0695115 -0.363059 -0.0545453 0.361498 0.411306 -0.295819
210871 0.39568 -0.336595 0.0551604 -0.16125 0.584237 -0.0458172 -0.0520299 -0.139648 0.216137 0.322793 -0.305542 -0.155448 0.0618798 0.0374212 0.402192 0.120982 0.199795 0.135939 0.138446 -0.284 0.029007 0.00535478 0.00889141 0.158231 -0.25641 -0.0371786 -0.10549 0.0112745 0.0329798 -0.0813272 0.0444377 -0.163414 0.0867635 -0.0515288 0.132481 -0.0575491 0.0248344 -0.372309 0.177345 0.0357448 0.121727 0.0136902 0.0610334 -0.0834804 0.0696249 -0.394254 -0.0144142 0.00851743 0.1088 0.0744445
273152 0.241609 -0.167421 -0.451106 -0.185109 0.0408284 -0.101266 -0.0759226 -0.0340363 0.197426 0.193216 -0.0980338 -0.0273783 0.0254118 -0.147872 0.260322 0.0952875 0.0101133 0.113018 0.0650731 -0.148855 0.096894 -0.00308835 -0.000841454 0.0571039 -0.14704 -0.149543 0.097636 0.149431 0.00530299 -0.286557 0.178176 -0.270648 -0.0838473 -0.11842 0.0340621 -0.188011 0.00897772 -0.0836289 0.268593 0.0529956 0.0319448 0.100691 0.295203 -0.190477 0.0221501 0.56461 -0.0342881 0.0308858 -0.118704 0.188121
82920 0.784302 -0.328075 -0.860213 -0.293054 -0.0191355 -0.287908 -0.304899 -0.164949 0.652103 0.408479 -0.0270404 0.165824 0.0177396 -0.371212 0.802451 0.0379882 -0.282817 -0.0492009 0.122157 -0.155268 0.125697 0.0150618 -0.0264624 -0.0454052 -0.285518 -0.272791 0.198128 0.276001 -0.0052744 -0.301746 0.506905 -0.629693 -0.195407 -0.0450985 0.108378 -0.58139 0.0114494 -0.467584 0.650009 0.154638 -0.271818 -0.00764123 0.60848 -0.436464 -0.116302 0.459803 -0.146963 0.411862 -0.492041 0.251795
1125492 0.456376 -0.292986 -0.575893 -0.379003 -0.106639 -0.281488 -0.143811 0.0179229 0.451247 0.462098 -0.0875254 -0.100241 0.0455757 -0.295104 0.650556 0.172774 0.03311 0.268716 0.150062 -0.269998 0.210623 0.00915488 -0.0136226 0.131058 -0.326583 -0.506797 0.306719 0.369724 0.0292985 -0.00644784 0.398694 -0.568452 -0.259231 0.0567408 0.0880071 -0.327847 0.0400334 -0.616429 0.460035 0.0938966 0.0312316 0.130247 0.487566 -0.418072 0.121132 -0.302716 -0.100525 0.165041 -0.10373 0.150992
70970 0.200391 -0.360063 -0.725008 -0.496838 0.327919 -0.136488 -0.140818 -0.277296 0.438234 0.451716 -0.473631 -0.166424 0.0936794 -0.22489 0.469505 0.317124 0.141136 0.216692 0.16604 -0.365023 0.191279 0.00572945 -0.0248159 0.167695 -0.321228 -0.246837 0.226286 0.160838 0.0541066 -0.10187 0.258044 -0.370829 -0.123283 0.0194549 0.101256 -0.116153 0.0137169 0.110509 0.3834 0.0965831 0.110656 0.282879 0.427004 -0.290663 0.0353914 0.695709 -0.0333838 0.0701611 0.0108707 0.214579
608191 0.20107 -0.305841 -0.172006 -0.273791 0.262601 -0.138283 -0.126886 -0.289038 0.306548 0.330402 -0.386283 -0.193251 0.0721841 -0.178771 0.363141 0.235342 0.137456 0.182598 0.138466 -0.271279 0.121104 0.0178123 -0.0164328 0.172811 -0.273321 -0.230169 0.229707 0.265599 0.122264 0.132069 0.193719 -0.241126 -0.101334 0.0977956 0.100562 -0.169665 0.0305314 -0.75242 0.307104 0.105195 0.109029 0.289485 0.399993 -0.350198 0.0954297 -0.770354 -0.0530026 0.191627 0.244119 -0.28668
608190 0.0734893 -0.330074 0.0746556 -0.382131 0.304181 -0.14632 -0.121662 -0.33743 0.30701 0.432075 -0.332088 -0.207389 0.085443 -0.195867 0.414029 0.246817 0.166899 0.262888 0.154037 -0.365039 0.174455 0.0133202 -0.0315453 0.219037 -0.339827 -0.336472 0.298465 0.355517 0.160348 0.272931 0.272454 -0.525204 -0.220404 0.339103 0.117959 -0.321264 0.0312007 -0.914533 0.421722 0.125483 0.166463 0.351421 0.543636 -0.450482 0.13233 -0.824433 -0.0743188 0.213124 0.266319 -0.27924
675847 0.210644 -0.263577 -0.250054 -0.298779 0.296847 -0.106014 -0.0830231 -0.256979 0.279358 0.258039 -0.293865 -0.145786 0.0497148 -0.13349 0.275464 0.238656 0.118287 0.151045 0.089581 -0.228555 0.119256 0.00701942 -0.0213878 0.137972 -0.215276 -0.173717 0.156398 0.182196 0.0869765 0.053873 0.169233 -0.204246 -0.0897531 0.104953 0.0750612 -0.195232 0.0227848 -0.379647 0.195256 0.0818444 0.082084 0.210181 0.30031 -0.278508 0.0785678 -0.118295 -0.0286906 0.12542 0.205949 -0.104156
240321 0.205229 -0.304682 -0.452906 -0.402454 0.354033 -0.153582 -0.16891 -0.31326 0.309165 0.481322 -0.337032 -0.269425 0.111851 -0.221215 0.299808 0.190048 0.116814 0.339818 0.161345 -0.400189 0.247305 0.00536577 -0.0296078 0.267819 -0.383771 -0.365806 0.309084 0.471529 0.190124 0.233444 0.367756 -0.534648 -0.272357 0.262045 0.0962239 -0.339476 0.0284552 -0.533493 0.382806 0.159246 0.173118 0.310103 0.292402 -0.387659 -0.135314 -0.215983 -0.0555714 0.162229 0.420667 -0.317089
1140547 0.182745 -0.22535 -0.131373 -0.168636 0.136659 -0.0577751 -0.0686349 -0.218048 0.217508 0.285503 -0.239046 -0.174941 0.0609982 -0.119833 0.266482 0.168676 0.12539 0.168205 0.106255 -0.185408 0.0896751 0.0100417 -0.0207349 0.147794 -0.219672 -0.177914 0.113151 0.212187 0.118553 0.418044 0.151679 -0.242807 -0.104013 0.193507 0.0758361 -0.168906 0.0335086 -0.042734 0.216835 0.0970084 0.103772 0.176733 0.247417 -0.217609 0.106971 0.0707045 -0.0302668 0.236801 0.294882 -0.271383
49660 0.666571 -0.34594 0.281188 -0.326212 0.329111 -0.0902488 -0.0583935 -0.336805 0.299643 0.247992 -0.302992 -0.107834 0.003184 -0.118268 0.114388 0.294397 0.111806 0.101786 0.0661011 -0.197137 0.0686799 0.00484771 -0.0103094 0.14544 -0.210457 -0.189693 0.154768 0.169269 0.0604361 0.0527029 0.0744303 -0.104187 0.0292193 -0.116903 0.107483 -0.124469 0.044212 -0.351357 0.147146 0.0645715 0.0693331 0.242596 0.344409 -0.247419 0.0973522 -0.747759 -0.0198783 -0.0446178 -0.0453195 -0.0142403
10169 0.314092 -0.454681 0.188827 -0.29019 0.2873 -0.0356674 -0.044613 -0.423898 0.44667 0.531058 -0.76286 -0.338907 0.0138355 -0.225673 0.423049 0.732346 0.134229 0.0833508 0.125391 -0.113341 0.078008 0.00436914 -0.0327445 0.197896 -0.101429 -0.301744 0.00921482 -0.280968 -0.073889 0.0439419 0.111177 -0.249925 -0.00539725 -0.603715 0.433604 -0.163058 0.0750529 0.0689274 0.316905 0.141781 0.0546122 0.191269 0.657333 -0.0210371 0.137294 -0.397784 0.0941105 0.14813 -0.030494 -0.124779
35854 0.415293 -0.236233 -0.060781 -0.479501 0.426813 -0.0994026 -0.0734348 -0.340213 0.304141 0.306136 -0.518713 -0.112618 0.0474934 -0.0778838 0.328341 0.385861 0.157583 0.115402 0.0845092 -0.152912 0.0652613 -0.0012637 -0.0192846 0.0913604 -0.0559494 -0.283325 0.0526098 -0.0179043 0.0150512 0.0869509 0.191588 -0.355958 -0.0289559 -0.180471 0.344192 -0.144018 0.0547228 -0.209994 0.264571 0.0809337 0.101831 0.0840657 0.41831 -0.165093 0.0586494 -0.57063 -0.000897929 0.139075 0.147518 -0.16328
15431 0.231492 -0.257988 -0.486323 -0.555752 0.389201 -0.101946 -0.084457 -0.365037 0.239057 0.25681 -0.406224 -0.0554238 0.0290982 -0.0666072 0.414297 0.457283 0.210312 0.193507 0.0957885 -0.200415 0.0882941 0.00904866 -0.0356643 0.113693 -0.095036 -0.308727 0.142299 -0.0374418 0.098103 0.156874 0.243992 -0.454857 -0.0857457 -0.118679 0.372752 -0.262467 0.0507847 -0.249163 0.23514 0.102177 0.0900679 0.208811 0.376559 -0.23849 0.0561982 -0.222802 -0.00225796 0.170902 0.141178 -0.154054
1120059 -0.0215115 -0.715821 -0.329483 -0.475422 0.707413 -0.0405453 0.0368326 -0.0824798 0.225455 0.330377 -0.424479 -0.330869 0.3046 -0.456394 0.976449 0.351634 0.188432 0.206951 0.139665 -0.542067 0.205408 0.021192 -0.00768577 0.103242 -0.243487 -0.20907 0.110509 0.502301 0.114548 0.305601 -0.310219 -0.207553 -0.240556 -0.0748668 -0.213308 -0.540303 -0.040851 -0.488379 -0.144394 0.0126657 0.211296 0.126665 -0.248905 0.00974775 -0.102009 0.333858 -0.0794895 -0.0208167 0.300481 -0.385854
1128839 0.22109 -0.223284 0.175612 -0.275692 0.251604 -0.105389 -0.0911008 -0.227667 0.169218 0.207499 -0.266343 -0.0978957 0.0484755 -0.1309 0.215944 0.185907 0.126351 0.177994 0.0942305 -0.235747 0.106454 0.00196158 -0.00704411 0.150393 -0.177772 -0.0422975 0.0730098 0.121383 0.0240402 0.10202 0.069224 -0.0827979 -0.0126837 -0.0805627 0.0567005 -0.124304 0.0140204 -0.305656 0.139185 0.0623853 0.10054 0.139595 0.237755 -0.171739 -0.00934303 -0.311964 0.00750777 0.00264309 0.097403 0.13506
4584 0.708388 -0.631646 -0.058269 -0.470528 0.384734 -0.217594 -0.293133 -0.975217 0.714328 0.418843 -0.505366 -0.378084 0.183042 -0.154283 0.482016 0.504308 0.434949 0.128382 0.0756969 -0.273994 0.0222485 -0.00748011 0.00699351 0.166747 -0.0921566 0.313454 0.19931 0.297819 0.0447664 -0.195745 0.047876 0.0953436 -0.120829 0.252474 -0.227549 0.202067 0.00514335 0.104836 0.239301 0.184963 0.143983 0.414917 0.3191 -0.196019 0.420523 -0.655263 -0.0148605 0.692156 1.00342 -0.0302103
6184 0.346293 -0.358246 -2.1251 -0.380955 0.269323 -0.130801 -0.176922 -0.401729 0.447431 0.25525 -0.445091 -0.117525 0.101258 -0.121769 0.0822925 0.162366 0.206758 0.288276 0.0931626 -0.214383 0.109137 0.00137754 0.00193005 0.222343 -0.213215 0.282897 -0.196685 -0.0336054 -0.036322 -0.477053 0.18045 0.0417109 0.0647007 0.23811 0.0247444 -0.0527577 0.00321751 0.346794 0.424353 0.175882 0.187939 0.301924 0.444285 -0.147471 -0.112996 1.28357 0.000603144 -0.0612385 0.230387 0.304601
1120731 0.351192 -0.437267 -0.287817 -0.232115 0.368823 -0.131052 -0.210173 -0.3689 0.197709 0.331482 -0.363013 -0.250293 0.165404 -0.220466 0.370499 0.225224 0.13327 0.307426 0.118024 -0.271213 0.155741 -0.013069 -0.00633059 0.172674 -0.188931 0.0907028 -0.00374497 0.0746189 0.0487332 -0.105497 0.104092 -0.133157 -0.0355419 0.496934 0.0037469 -0.112407 0.0281582 -0.542985 0.13158 0.0418663 0.125884 0.326399 0.336388 -0.202158 0.0512881 -0.411742 -0.0422765 0.0686277 0.27267 -0.214157
13195 0.331953 -0.404714 -0.729236 -0.248047 0.417076 -0.129865 -0.15201 -0.307434 0.327288 0.512742 -0.308107 -0.272865 0.141795 -0.232094 0.368939 0.328861 0.204848 0.318534 0.158993 -0.454599 0.25056 0.0125476 -0.0166114 0.196796 -0.295137 -0.158482 0.187135 0.129624 0.0414446 0.0448179 0.1118 -0.238676 -0.0633264 0.282802 0.118052 -0.14081 0.020009 -0.0471928 0.338126 0.0898547 0.161705 0.360136 0.417985 -0.308714 0.0711397 0.503053 -0.0163151 0.191132 0.536864 -0.204771
578645 0.253592 -0.244517 -0.393075 -0.399314 0.347038 -0.0938424 -0.0765903 -0.309506 0.301967 0.307785 -0.358187 -0.155825 0.0467344 -0.122149 0.272323 0.204801 0.149748 0.216827 0.109702 -0.211581 0.0754634 -0.000159067 -0.00778214 0.143905 -0.198671 -0.126365 0.0909527 0.168178 0.0703992 0.192925 0.0685984 -0.0833122 0.0161767 0.0389375 0.0657245 -0.167631 0.0247998 -0.548604 0.209976 0.0566807 0.116505 0.17713 0.210946 -0.21626 0.0842043 -0.540038 -0.0163761 0.0849898 0.182179 -0.128615
578845 0.15437 -0.289872 0.0130825 -0.356949 0.0919402 -0.0832075 -0.098242 0.0109128 0.015833 0.309903 -0.374793 -0.228221 0.109277 -0.11109 0.45775 0.42423 0.235793 0.251412 0.0967315 -0.187345 0.12873 -0.0139211 -0.00496717 0.0217559 -0.100691 -0.251785 0.0948924 0.115407 0.0481699 0.116437 0.105126 -0.197581 0.044976 0.119878 0.0128363 -0.0318257 0.0405346 -0.126789 0.173421 0.0104147 0.135018 0.194306 0.492473 -0.23941 0.107914 -0.339352 -0.00131002 0.267734 0.305832 -0.298322
593559 0.160179 -0.30934 -0.111907 -0.36314 0.0983881 -0.0727277 -0.0942222 0.0108157 0.0578258 0.351159 -0.411532 -0.228189 0.100806 -0.0962461 0.415468 0.388474 0.214831 0.237159 0.0620584 -0.171167 0.127505 -0.0128741 -0.00564334 -0.00505835 -0.0710325 -0.250273 0.0165774 0.059846 0.0359222 0.00567386 0.0994579 -0.220871 0.0065794 0.138713 0.025416 -0.0279744 0.0485269 -0.298722 0.143149 -0.00221791 0.164185 0.16022 0.542752 -0.213546 0.0891963 -0.130657 0.00669681 0.289954 0.293011 -0.334835
593560 0.276255 -0.435417 -0.625371 -0.29578 0.35087 -0.144157 -0.120372 -0.33147 0.340086 0.456805 -0.562909 -0.259402 0.12061 -0.208719 0.533954 0.40593 0.229176 0.255985 0.166432 -0.365367 0.191051 0.000448459 -0.0179252 0.189598 -0.352971 -0.368051 0.285783 0.374734 0.152816 0.229203 0.298602 -0.415343 -0.0852304 0.257757 0.155144 -0.286379 0.0393169 -0.196152 0.320197 0.110871 0.178997 0.290816 0.493951 -0.370249 0.093301 -0.24273 -0.0504811 0.240057 0.308439 -0.27451
1131330 0.049666 -0.23011 -0.140135 -0.171288 0.177306 -0.0657544 -0.0756822 -0.253115 0.243651 0.270167 -0.359811 -0.181426 0.0651337 -0.151521 0.311031 0.185152 0.119318 0.195687 0.102989 -0.22025 0.116631 0.0016293 -0.018091 0.15368 -0.242472 -0.188197 0.187873 0.231486 0.118679 0.268895 0.164055 -0.231819 -0.0798401 0.311879 0.0632869 -0.21139 0.0282678 -0.248621 0.19459 0.0824912 0.0914901 0.179648 0.280181 -0.229928 0.184708 -0.222405 -0.0326673 0.317968 0.357955 -0.400616
738941 0.223955 -0.289786 -1.21317 -0.320144 0.250121 -0.11157 -0.115782 -0.346691 0.289978 0.375225 -0.346874 -0.202477 0.0856574 -0.171196 0.351958 0.254019 0.156281 0.275281 0.116177 -0.302148 0.150837 0.0106345 -0.0181235 0.22648 -0.333895 -0.188046 0.167911 0.240196 0.0760268 -0.140977 0.155304 -0.265103 -0.0456755 0.0593528 0.124871 -0.163146 0.0279782 0.454543 0.302412 0.136704 0.138472 0.274215 0.371133 -0.309471 0.0321335 0.604719 -0.00766055 0.192921 0.234634 -0.0151097
1135455 0.246405 -0.319063 -0.475761 -0.363859 0.28093 -0.138345 -0.10129 -0.320439 0.348978 0.360911 -0.291164 -0.201821 0.091676 -0.220727 0.359713 0.242403 0.141321 0.271864 0.124937 -0.294812 0.179113 0.0158159 -0.0324187 0.227361 -0.377113 -0.233662 0.214866 0.291892 0.130913 0.115415 0.23905 -0.34061 -0.105724 0.351495 0.111307 -0.248023 0.0214907 -0.201879 0.31833 0.0921276 0.146701 0.261948 0.375671 -0.27137 0.0922949 -0.101015 -0.0345175 0.301434 0.296621 -0.324926
1133028 0.0109805 -0.185931 -0.0597713 -0.142498 0.125597 -0.062866 -0.0626538 -0.15045 0.205435 0.223215 -0.196597 -0.124577 0.0484414 -0.123878 0.260568 0.163116 0.115829 0.152225 0.076631 -0.157342 0.104827 -0.00181816 -0.00699186 0.132746 -0.189871 -0.174229 0.144291 0.262964 0.138835 0.589605 0.23325 -0.34064 -0.141536 0.311237 0.0790308 -0.201677 0.0316009 -0.311287 0.175847 0.0817907 0.0798902 0.119725 0.211673 -0.195275 0.0396048 0.121645 -0.0298564 0.224432 0.301833 -0.224606
1272 0.267761 -0.246081 -0.254063 -0.367772 0.448569 -0.119674 -0.0886496 -0.291216 0.311499 0.350266 -0.468543 -0.123131 0.0576568 -0.0843523 0.209667 0.245505 0.137954 0.170109 0.106238 -0.253806 0.0888518 -0.00957294 -0.00425069 0.158916 -0.233602 -0.138271 0.0404341 0.157284 0.0429544 -0.192751 0.130512 -0.145569 0.0863922 -0.139282 0.101814 -0.0461341 0.0222778 0.222562 0.292453 0.116806 0.131395 0.212156 0.250673 -0.277487 0.105609 -0.400633 -0.00919909 0.0418856 0.101781 -0.375941
65653 0.294468 -0.114013 -0.226902 -0.18934 0.244885 -0.0688622 -0.0790588 -0.338726 0.186852 0.237676 -0.268676 -0.105892 0.0393355 -0.0508531 0.186436 0.142726 0.131834 0.157479 0.0882438 -0.210211 0.0552221 0.00692729 -0.0152405 0.158678 -0.199781 -0.0848149 0.00404305 0.0865603 -0.00727633 0.0114011 0.0494344 -0.0845862 0.0284039 -0.145372 0.041785 -0.0711797 0.00786189 -0.126191 0.183559 0.09902 0.102308 0.169593 0.226887 -0.27442 0.081782 -0.355559 -0.0466592 -0.044789 0.1721 -0.085982
6771 0.332558 -0.16932 -0.949507 -0.31839 0.226901 -0.100955 -0.0612377 -0.277988 0.151561 0.287245 -0.303827 -0.0923138 0.0219872 -0.0170946 0.157102 0.150816 0.131227 0.145386 0.0945418 -0.229844 0.059104 -0.000992981 -0.0136893 0.139842 -0.166746 -0.1374 0.0408486 0.0652328 -0.050836 -0.379884 0.0700688 -0.134213 0.0461989 -0.285146 0.0196638 -0.0339072 0.0218028 1.02696 0.225201 0.106102 0.0769859 0.234061 0.299254 -0.188817 -0.0158432 1.19454 -0.033713 -0.052347 0.0306901 0.185486
22563 0.610627 -0.186642 -1.72731 -0.560381 0.406683 -0.205094 -0.181016 -0.178938 0.323995 0.266467 -0.365677 0.0513376 -0.023099 -0.105684 0.0273215 0.271796 0.127223 0.157247 0.171592 -0.420039 0.170419 -0.00327684 -0.0117516 0.191462 -0.312195 -0.351356 0.172474 0.396323 -0.00284469 -0.317897 0.188147 -0.260838 0.11176 0.0263045 -0.0402596 0.0889383 0.0218878 0.764907 0.750866 0.193118 0.0342725 0.126578 0.0891273 -0.377858 -0.19597 1.83964 -0.139638 -0.344331 -0.0964419 0.338801
22564 0.118767 -0.103413 -0.38771 -0.496444 0.254578 -0.12658 -0.165071 -0.268029 0.29378 0.263702 -0.18 -0.0737122 -0.00171874 -0.131691 0.17394 0.231303 0.109881 0.317697 0.133987 -0.310819 0.230859 0.00342898 -0.0317068 0.238579 -0.309033 -0.388617 0.20559 0.311777 0.0826067 0.190645 0.159276 -0.264741 0.0557332 0.250106 0.109517 -0.204243 0.0316082 -0.39595 0.491095 0.17339 0.141666 0.317319 0.437718 -0.455989 0.00520358 -0.215551 -0.104844 0.142343 0.28469 -0.441435
1127530 0.482973 -0.346901 -1.68183 -0.269322 0.428241 -0.0875419 -0.123618 -0.353413 0.336654 0.281067 -0.403852 -0.0187005 0.0323502 0.049084 0.322197 0.180475 0.134803 0.155666 0.0772925 -0.247684 0.0107282 0.00395063 -0.00829551 0.156831 -0.141755 0.219555 -0.196318 -0.0740754 -0.0549959 -0.464494 0.0434204 -0.149519 0.0722436 -0.204803 0.0626677 -0.0372246 0.00141905 0.290753 0.21138 0.104749 0.196035 0.258912 0.292188 -0.230476 -0.00613933 0.978696 0.0787391 -0.345643 -0.132849 0.452511
523394 0.57098 -0.269036 -0.272965 -0.422392 1.00006 -0.154092 -0.153307 -0.40792 0.432592 0.179659 -0.409145 0.0399258 0.0747734 0.177014 0.737348 0.379432 0.330921 0.261951 0.152012 -0.423703 -0.00426455 -0.0222484 0.0114575 0.174295 -0.174371 0.518749 -0.526835 -0.0747605 -0.0229881 -0.00581335 0.00391061 -0.0953278 0.134076 -0.280572 -0.0572952 -0.0923829 0.0299864 -1.14213 0.323109 0.118018 0.271873 0.353749 0.418748 -0.587615 0.146147 -0.882659 0.11237 -0.214607 0.221403 0.209834
39890 0.564664 -0.358665 -1.38778 -0.454145 1.08795 -0.135945 -0.264653 -0.568751 0.67121 0.208418 -0.562627 -0.00799598 0.0470542 0.166127 0.957858 0.498749 0.406709 0.366176 0.127079 -0.435453 -0.101666 -0.0358174 0.022355 0.145301 -0.116552 0.802581 -0.627254 -0.141559 -0.106566 -0.46193 0.0217184 -0.552124 -0.0822566 -0.372568 -0.149127 -0.177073 0.0252364 0.15379 0.341649 0.136243 0.261385 0.329908 0.27819 -0.54111 0.137236 1.76587 0.191422 -0.259871 0.225226 0.361853
242663 0.261601 -0.286155 -0.189555 -0.33529 0.604261 -0.0997925 -0.120633 -0.337724 0.313383 0.153366 -0.428081 -0.0431333 0.048779 0.105676 0.519253 0.355407 0.203545 0.263273 0.0925022 -0.262082 0.00612549 -0.0111471 0.00411223 0.181425 -0.119635 0.260527 -0.341942 -0.0492946 -0.0389765 -0.330612 0.110354 -0.392443 -0.103842 -0.188669 0.0069867 -0.124735 0.0132423 0.5845 0.165525 0.0589312 0.151752 0.222606 0.178642 -0.348484 -0.010791 1.11712 0.0954918 -0.0679693 0.0993241 -0.105093
51049 0.535937 -0.297014 -0.337917 -0.115778 0.655476 -0.177827 -0.21568 -0.476684 0.40897 0.0526946 -0.689098 -0.066178 0.0213916 0.11501 0.92913 0.427402 0.307024 0.397412 0.151658 -0.40817 -0.0336285 -0.0298015 0.0268503 0.261752 -0.246197 0.642904 -0.645619 -0.0746403 -0.093821 -0.0918192 0.135176 -0.529873 -0.0262036 -0.371597 -0.145158 -0.213935 0.0302613 -0.448597 0.0929876 0.00461506 0.194169 0.209405 0.141119 -0.592818 0.331139 -0.369998 0.176462 -0.108182 0.098993 0.0353989
1134320 0.469741 -0.25665 -0.41415 -0.254024 0.803844 -0.171609 -0.283305 -0.572338 0.612005 0.135135 -0.830817 -0.118432 0.0656842 0.0812915 0.981013 0.354264 0.269994 0.40325 0.160379 -0.391197 -0.0351082 -0.0447212 0.0153331 0.204929 -0.170114 0.697131 -0.685831 -0.147759 -0.053627 0.0379601 0.103911 -0.525663 -0.0272055 -0.27068 -0.0822531 -0.324864 0.0258369 -0.934651 -0.00255306 -0.0540187 0.174688 0.30456 0.160166 -0.56107 0.35169 -0.744808 0.154857 -0.0559589 0.102655 -0.109461
73162 0.421262 -0.0136 -0.387212 -0.223185 0.946571 -0.201309 -0.344608 -0.562099 0.515241 -0.137575 -0.824621 -0.0455065 0.0705628 0.192994 1.3243 0.411383 0.40178 0.383336 0.124728 -0.451274 -0.189574 -0.0380579 0.0317505 0.332789 -0.263333 1.19181 -0.915797 -0.0133032 -0.0185831 0.0324632 0.322282 -0.87059 -0.115393 -0.217341 -0.217595 -0.430135 0.0498808 -1.19922 0.313115 0.146564 0.358659 0.479021 0.545019 -0.980485 0.520345 -0.878336 0.29114 -0.136851 0.361967 -0.0855109
714879 0.345073 -0.142908 0.118088 -0.154984 0.944527 -0.153222 -0.342556 -0.740405 0.761286 0.0157716 -0.620578 0.00753478 0.0177208 0.164067 1.27259 0.481668 0.429664 0.507544 0.155448 -0.438753 -0.0942687 -0.0490938 0.02744 0.196634 -0.0814301 1.05828 -0.883334 -0.157873 -0.096415 0.164809 0.198735 -0.596315 -0.119342 0.129701 -0.108864 -0.464329 0.0578195 -1.00062 0.273799 0.00166479 0.300282 0.289962 0.595417 -0.913744 0.378937 -0.523145 0.198191 -0.144233 0.212735 -0.216963
1120431 0.150636 -0.0948263 0.592821 -0.126216 0.088628 -0.062553 -0.0791431 -0.20551 0.0820681 0.136025 -0.161174 -0.102253 0.0413952 -0.0218104 0.0394942 0.0450103 0.0692701 0.158895 0.0888442 -0.172292 0.0884388 -0.00184035 -0.0016411 0.11138 -0.201033 -0.11117 0.0672377 0.149502 0.0431123 0.0596966 0.050769 -0.0173343 0.0398362 0.0795807 0.0387451 -0.081443 0.0244327 0.130183 0.266688 0.0849088 0.109842 0.127441 0.167898 -0.197793 -0.0369188 -0.286166 -0.0352748 0.0891598 0.197758 -0.299812
13686 0.542076 -0.291541 -0.104155 -0.786485 0.486197 -0.112381 -0.29699 -0.279062 0.431832 0.250948 -0.387859 -0.108331 0.109614 -0.0576658 -0.0711114 0.13543 0.176998 0.277937 0.189126 -0.253828 0.147436 -0.0247333 0.0137471 0.150475 -0.265393 -0.148046 -0.238513 0.143392 -0.0629301 0.287956 0.0172859 -0.215932 0.389605 -0.0411875 0.0215298 0.115065 0.0171502 -0.418901 0.869121 0.162146 0.189687 0.207012 0.233004 -0.392195 -0.32685 -1.1254 -0.152483 0.00993135 -0.0404692 -0.579141
94229 0.483938 -0.163866 0.222739 -0.526734 0.174944 0.0832021 -0.229178 -0.291515 0.0655699 0.535205 -0.0777917 -0.12773 0.0479957 0.0973813 0.0307007 -0.056499 0.151345 0.330422 0.165266 -0.266669 0.0693913 0.00910985 -0.0206396 0.168662 -0.202693 0.0865809 0.129518 0.491518 0.0946894 -0.00677988 0.184024 -0.276839 0.050744 0.233062 0.00399569 -0.0983228 0.0169517 -0.427948 0.330792 0.0819433 0.0633888 0.437963 0.128248 -0.224164 0.0089348 -0.369273 0.0113875 0.117973 0.0272958 -0.175598
1111733 0.209421 -0.341467 -0.362788 -0.395126 0.146687 -0.0469669 -0.166587 -0.428515 0.220573 0.548753 -0.338175 -0.292587 0.101728 -0.0638105 0.198153 0.151961 0.18816 0.372409 0.155154 -0.303558 0.138964 0.0117818 -0.00772061 0.183279 -0.263964 -0.153037 0.174403 0.374005 0.0707841 -0.131446 0.229254 -0.360168 -0.110429 0.1929 0.0338729 -0.154988 0.0143048 -0.169541 0.360705 0.0752842 0.140289 0.29689 0.305612 -0.322273 -0.0919746 0.169339 -0.00502966 0.134931 0.115275 -0.0712341
116021 0.306983 -0.223115 0.323033 -0.074472 0.270949 -0.108284 -0.0498538 -0.338079 0.376933 0.400305 -0.418488 -0.280995 0.0572481 -0.281384 0.25436 0.23801 0.164672 0.183057 0.114348 -0.17595 0.10345 0.00520654 -0.0269278 0.147133 -0.247009 -0.166952 0.253229 0.193944 0.126308 0.309426 0.133401 -0.194554 -0.157132 0.192992 0.0365731 -0.14271 0.0439198 -0.604207 0.10935 0.0682992 0.110657 0.148713 0.321565 -0.255302 0.118026 -0.665279 -0.0289351 0.308554 0.409432 -0.230979
593248 -0.0070556 -0.124329 0.207939 -0.111463 0.136638 -0.0653706 -0.060883 -0.18645 0.270975 0.248633 -0.210336 -0.103725 0.0402073 -0.102383 0.235744 0.12387 0.0936091 0.156124 0.0736999 -0.173914 0.0756739 -0.0050954 -0.0205518 0.108095 -0.169192 -0.071977 0.0743245 0.190303 0.104321 0.423424 0.144389 -0.255854 -0.118967 0.245988 0.0480974 -0.165376 0.0207946 0.0303543 0.146754 0.0593562 0.0660528 0.172097 0.279094 -0.243195 0.16474 -0.277668 -0.0237565 0.279853 0.244243 -0.421138
1107067 0.366211 -0.286848 0.0130752 -0.177634 0.0879194 -0.0843357 -0.0238184 -0.278724 0.188966 0.26526 -0.270108 -0.185111 0.0124027 -0.0498707 0.0591928 0.17079 0.0308858 0.0671166 0.0663716 -0.165123 0.0796635 -0.00649066 -0.0134845 0.121192 -0.179449 -0.0989217 0.0750889 0.0546387 0.100646 0.303061 0.077775 -0.159132 0.0574651 -0.211749 0.166097 -0.12977 0.026985 -0.713128 0.209455 0.094637 0.100121 0.217094 0.301431 -0.181313 0.0846768 -0.910809 -0.00782375 0.125212 0.0826959 0.0748692
6334 0.415327 -0.356636 0.0277495 -0.27781 0.0396301 -0.174911 -0.0106852 -0.338279 0.116743 0.428806 -0.32255 -0.516753 0.0860083 -0.210747 0.0639946 0.184078 -0.015322 -0.0297378 0.00318893 -0.143295 0.0823941 -0.00021204 -0.0411241 0.112121 -0.187641 -0.262293 0.270326 -0.0760841 0.0578864 -0.115541 0.297619 -0.2009 0.0964687 -0.140992 0.313994 -0.383558 0.0356615 -0.790652 0.398776 0.169378 0.0163775 0.266164 0.549714 -0.234073 0.252193 -0.437428 -0.0903473 0.313555 0.388325 -0.321795
1152448 0.218345 -0.115505 -0.158546 -0.0973387 -0.0173539 -0.105358 -0.0275872 -0.0943862 0.0139124 0.143722 -0.0757537 -0.249699 0.0294465 -0.069019 -0.0451988 0.0275009 -0.0117391 0.0897913 0.0386891 -0.161623 0.0882245 -0.00457871 -0.0261045 0.0659972 -0.130112 -0.127564 0.134939 0.0870344 0.0517569 0.0896499 0.175891 -0.173293 -0.0598726 -0.0103013 0.101958 -0.250311 0.0138223 -0.358257 0.243385 0.101212 0.084532 0.228778 0.422818 -0.326467 0.132163 -0.443202 -0.0490106 0.297007 0.279668 -0.00840092
36162 0.100646 -0.200899 0.214142 -0.423687 0.106967 -0.208585 -0.175197 -0.430611 0.161372 0.473765 -0.32877 -0.423145 0.137716 -0.210083 0.228518 0.202475 0.0431763 0.147024 0.115983 -0.318206 0.258956 0.00801506 -0.0395087 0.214708 -0.292165 -0.382841 0.25748 0.292795 0.130179 0.178021 0.322965 -0.845857 -0.242446 0.322064 0.200056 -0.490442 0.0616793 -0.780099 0.4567 0.181057 0.0670534 0.356433 0.672896 -0.281078 0.267014 -0.83975 -0.0550295 0.253615 0.407883 -0.216229
202522 0.0338516 -0.151301 -0.285144 -0.214671 0.181844 -0.0845488 -0.0705807 -0.184006 0.233263 0.31403 -0.287031 -0.173983 0.0546139 -0.161486 0.294475 0.231287 0.115898 0.174697 0.0893396 -0.199704 0.121208 0.0125029 -0.0185108 0.11212 -0.158573 -0.218847 0.205404 0.210302 0.11563 0.403534 0.169926 -0.270932 -0.18264 0.251507 0.0858292 -0.184559 0.0306186 -0.151626 0.187804 0.0599218 0.0293508 0.0925806 0.252694 -0.217015 0.138049 -0.0877801 -0.0583925 0.215632 0.21467 -0.294173
28447 0.374055 -0.209071 -1.21485 -0.324723 0.276173 -0.100652 -0.115326 -0.235123 0.182463 0.215505 -0.317702 -0.176147 0.0685714 -0.141031 0.28393 0.189204 0.111893 0.169255 0.120962 -0.272854 0.114019 0.00323482 -0.023531 0.167214 -0.24596 -0.131538 0.114037 0.135126 0.0714129 -0.112111 -0.00587832 0.00243118 0.0356868 -0.0527824 0.0854066 -0.161899 0.0172718 0.116832 0.231678 0.0769137 0.111484 0.134339 0.266562 -0.254214 -2.84614e-05 0.163846 -0.033968 0.0582732 0.20902 -0.0537078
95642 0.255054 -0.105243 0.152924 -0.252383 0.163734 -0.192218 -0.290386 -0.126609 -0.0464298 0.416484 -0.283814 -0.355482 0.155198 -0.285797 0.333435 0.111666 0.0759527 0.248905 0.230536 -0.560233 0.16488 -0.0217115 0.00385168 0.249069 -0.485581 -0.209427 0.153193 0.201352 0.0675518 0.250978 -0.0212071 0.00576434 0.0941439 0.231371 0.0121787 -0.0822688 0.0511049 -0.563571 0.0865276 0.126825 0.0944202 0.124147 0.158905 -0.28842 0.0862124 0.0526061 -0.0153393 0.566724 0.544111 -0.155156
990075 0.177477 -0.364933 -0.0855257 -0.385303 0.420575 -0.199972 -0.159777 -0.387098 0.399441 0.508775 -0.557953 -0.251371 0.115471 -0.208872 0.503103 0.278015 0.193873 0.317452 0.190087 -0.455876 0.190275 -0.00190839 -0.0142991 0.284539 -0.429344 -0.227741 0.272029 0.357624 0.164095 0.125761 0.237545 -0.342275 -0.137242 0.169774 0.120192 -0.344822 0.0503353 -0.685003 0.319453 0.120898 0.201713 0.379341 0.522328 -0.445362 -0.100424 -0.145384 -0.0100737 0.257557 0.308608 -0.305848
1955 0.201094 -0.199587 -0.968406 -0.414855 0.325932 -0.10896 -0.0919769 -0.346964 0.306337 0.335039 -0.331244 -0.15788 0.0506492 -0.0832853 0.213172 0.153769 0.107267 0.197769 0.117432 -0.305656 0.11764 0.0136994 -0.0219316 0.185852 -0.283979 -0.160137 0.158116 0.238721 0.0747309 0.0267733 0.149983 -0.24433 -0.0391317 0.0151918 0.122562 -0.305419 0.0389595 -0.0863018 0.241833 0.109479 0.156384 0.207525 0.355496 -0.273976 0.0311472 0.41811 -0.0274436 0.0607187 0.196406 0.0883729
110163 0.188888 -0.256806 0.127121 -0.440403 0.496352 -0.145187 -0.101378 -0.510141 0.441698 0.467644 -0.434572 -0.199859 0.0678423 -0.135198 0.347556 0.260098 0.192786 0.291931 0.141684 -0.401816 0.168708 0.0167558 -0.0239872 0.257709 -0.32902 -0.191128 0.148065 0.276008 0.0910658 0.2095 0.129221 -0.256856 -0.116312 0.0747246 0.148801 -0.332092 0.0354729 -0.766087 0.264493 0.117109 0.173417 0.259542 0.40559 -0.388899 0.176508 -0.791707 -0.0175957 0.102283 0.223881 -0.181248
110164 0.444163 -0.270156 -0.634689 -0.478251 0.309236 -0.132263 -0.0905212 -0.420622 0.348104 0.321683 -0.350651 -0.204572 0.0796415 -0.164289 0.282644 0.322548 0.200893 0.268335 0.147579 -0.381138 0.177413 0.0239272 -0.0235063 0.212346 -0.313124 -0.181629 0.217399 0.162042 0.0724806 -0.226387 0.126797 -0.263898 -0.0862658 0.220644 0.15361 -0.295203 0.023003 -0.188415 0.281807 0.0837831 0.153746 0.309008 0.416932 -0.30696 0.101806 0.231632 0.00995044 0.0508882 0.140612 -0.0952275
261040 0.276399 -0.304461 0.191792 -0.339116 0.312468 -0.101895 -0.122963 -0.339824 0.360297 0.437734 -0.406673 -0.173421 0.0786634 -0.201664 0.263433 0.255507 0.187756 0.291721 0.146936 -0.308951 0.170097 0.010437 -0.0264223 0.219986 -0.333343 -0.247559 0.227681 0.308437 0.167807 0.335839 0.232837 -0.354522 -0.186471 0.286694 0.128617 -0.357307 0.0373217 -0.83257 0.320823 0.118962 0.144722 0.259526 0.293322 -0.326501 0.132174 -0.726496 -0.0154134 0.345664 0.289522 -0.0944916
582511 0.19155 -0.206109 -0.170949 0.00648226 -0.0116035 -0.122314 -0.0691036 -0.573094 0.170438 0.382643 -0.186389 -0.0827667 -0.01475 -0.0569468 0.342956 0.0675809 0.196051 0.209274 0.0826103 -0.211678 0.0270803 0.00578777 -0.0047014 0.200039 -0.195402 -0.157922 0.179759 0.152784 0.0706386 0.205521 0.0763535 -0.0593194 -0.0269353 -0.174473 -0.18872 0.0381452 0.0185435 -0.28503 0.161996 0.0984967 0.0178807 0.224412 0.0907188 -0.326572 0.0312261 -0.0508563 -0.0466121 0.140071 0.311449 -0.204753
11335 0.297723 -0.49189 -0.154392 -0.164719 0.116022 -0.135615 -0.16057 -0.576885 0.411159 0.432459 -0.216039 -0.145256 0.0552543 0.0116267 0.471473 0.198967 0.268457 0.251985 0.122578 -0.400542 0.0789905 0.0127176 -0.0310921 0.269753 -0.293259 -0.0126638 0.152518 0.360377 0.10471 0.163127 0.0731265 0.0165588 0.0303222 -0.210965 -0.13536 -0.144035 0.029461 -0.228379 0.356744 0.137606 0.0442865 0.308248 0.358959 -0.360095 -0.00983483 -0.389566 -0.0557196 0.268096 0.625909 -0.394286
217139 0.332322 -0.33198 -0.125961 0.189395 -0.270318 -0.148242 -0.136666 -0.464065 0.288975 0.412091 0.0347744 0.021295 -0.0442802 0.0608686 0.34718 0.0082902 0.128846 0.253062 0.104029 -0.307426 0.0631598 0.0061387 -0.0233412 0.253592 -0.203881 -0.150774 0.187032 0.421498 0.158226 0.319253 0.0921616 0.0472744 0.0282091 0.00810082 -0.291367 -0.152835 0.0126942 -0.322359 0.252951 0.127774 0.062498 0.336021 0.137558 -0.459749 0.0223101 -0.146071 -0.0730203 0.160833 0.601769 -0.23179
143323 0.237517 -0.232567 -0.568416 -0.178878 0.187566 -0.204538 -0.104753 -0.623576 0.382484 0.54015 -0.326155 -0.242481 0.0279172 -0.203358 0.460533 0.0982133 0.158533 0.298641 0.102777 -0.273598 0.116385 0.0120382 -0.0172388 0.231071 -0.23711 -0.388212 0.254106 0.267339 0.117006 0.18254 0.10053 -0.167265 -0.173322 0.159092 -0.0493516 -0.275373 0.0222128 -0.510844 0.270519 0.10332 0.0994414 0.181744 0.210894 -0.462439 0.0374808 -0.306844 -0.0655926 0.340373 0.558581 -0.354785
7532 0.167019 -0.271984 -0.889141 -0.288208 0.265393 -0.106427 -0.0958892 -0.257386 0.249622 0.264554 -0.278038 -0.125947 0.0599713 -0.0822587 0.236292 0.178834 0.0948731 0.175134 0.105558 -0.249908 0.0947748 0.00803493 -0.0179623 0.161897 -0.238364 -0.138897 0.0749433 0.179717 0.027261 -0.24983 0.142288 -0.228878 -0.0640835 -0.0010765 0.0777539 -0.143035 0.0117678 0.141334 0.21344 0.0767014 0.142958 0.208144 0.30949 -0.221257 0.0389415 0.606084 -0.00935903 0.0566332 0.171142 0.0715103
141171 0.303676 -0.201624 -0.249179 -0.263985 0.224293 -0.097163 -0.0735859 -0.307771 0.223885 0.196267 -0.261696 -0.14367 0.0562394 -0.0914991 0.22459 0.189873 0.118683 0.163343 0.101326 -0.236943 0.0909839 -0.00153605 -0.0254937 0.143039 -0.206284 -0.163738 0.12814 0.216442 0.0677593 0.0413971 0.133666 -0.20091 -0.0669232 0.0881175 0.103207 -0.250101 0.0279193 -0.232838 0.164088 0.0537664 0.0997357 0.198833 0.247715 -0.230011 0.0457728 -0.173342 -0.0123841 0.0786794 0.108867 -0.138509
75318 0.456181 -0.253652 -0.374887 -0.312017 0.220166 -0.0801759 -0.0876324 -0.278249 0.250289 0.235982 -0.286749 -0.145489 0.0639678 -0.081397 0.183219 0.162498 0.121373 0.176769 0.095449 -0.214039 0.0824226 0.00328123 -0.0130481 0.157813 -0.223863 -0.116849 0.0801929 0.1595 0.0194835 0.0482297 0.122472 -0.214184 -0.0480531 -0.0914703 0.0784215 -0.180266 0.015166 -0.0623245 0.228796 0.0970284 0.143647 0.199275 0.355465 -0.208446 0.118384 -0.315188 -0.0118217 0.0890734 0.181463 -0.196025
103430 0.165301 -0.257231 -0.250394 -0.281422 0.276118 -0.0936726 -0.0853485 -0.275642 0.28423 0.334376 -0.278851 -0.156956 0.0609271 -0.109294 0.219347 0.179795 0.118572 0.213707 0.125551 -0.267533 0.125006 -0.00316463 -0.0140453 0.19328 -0.296519 -0.217929 0.142394 0.228554 0.0847323 0.14323 0.170236 -0.281319 -0.0773454 0.0408045 0.146466 -0.237072 0.0268773 -0.289713 0.293204 0.11667 0.146492 0.26426 0.411105 -0.31315 0.0333278 -0.0150446 -0.021084 0.218976 0.277051 -0.139332
1154074 0.169962 -0.227041 -0.390331 -0.241099 0.253719 -0.0781891 -0.0714776 -0.209129 0.24406 0.310215 -0.303688 -0.149869 0.0628115 -0.134475 0.268154 0.272868 0.160298 0.232747 0.107617 -0.261891 0.141822 0.0130068 -0.0141083 0.15626 -0.234114 -0.32127 0.223193 0.258686 0.135367 0.145739 0.235235 -0.371221 -0.17472 0.236482 0.15817 -0.29639 0.0379327 -0.419108 0.307846 0.0976221 0.144779 0.2461 0.448737 -0.298866 0.0389565 0.0105107 -0.0176814 0.253598 0.353955 -0.124072
561593 0.249269 -0.278082 -0.286269 -0.23101 0.218119 -0.101251 -0.078765 -0.32194 0.357212 0.329886 -0.489142 -0.224059 0.090016 -0.22434 0.284266 0.240831 0.11591 0.167815 0.115307 -0.266797 0.135583 0.00700315 -0.0236412 0.180357 -0.263341 -0.228696 0.226631 0.282451 0.13138 0.0541892 0.223731 -0.230933 -0.10974 0.127768 0.0814452 -0.241123 0.0297153 -0.234803 0.264354 0.0853987 0.117684 0.206207 0.360719 -0.293702 0.284098 -0.0542211 -0.0323575 0.259188 0.381582 -0.449376
593091 0.0707695 -0.167552 -0.152849 -0.208231 0.217492 -0.0538002 -0.092325 -0.165055 0.187241 0.209244 -0.311784 -0.153976 0.0657274 -0.129591 0.207593 0.122524 0.126709 0.113079 0.0870095 -0.205374 0.0664604 0.00144286 -0.0214026 0.142567 -0.232593 -0.171048 0.203084 0.248695 0.0797938 -0.111672 0.163421 -0.227111 -0.0382776 0.00217432 0.118267 -0.271283 0.0212531 -0.199179 0.230075 0.0380968 0.110174 0.102349 0.278328 -0.235451 0.0822383 -0.152556 -0.03998 0.0325529 0.10949 -0.00474502
85352 0.267919 -0.354354 -0.423313 -0.638692 0.291189 -0.201494 -0.110002 -0.0824047 0.257529 0.299532 -0.62044 -0.189312 0.158144 -0.659577 0.368963 -0.0553603 -0.0646049 -0.0144258 0.108894 -0.180725 0.104453 0.0324928 -0.0280268 0.195601 -0.375527 -0.395442 0.656836 0.595554 0.204781 -0.184818 0.327551 -0.423513 -0.00437049 0.192711 0.277475 -0.639605 0.0543647 -0.33463 0.479235 0.0786051 -0.0957497 0.0173181 0.34964 -0.204744 -0.0422035 -0.781596 -0.0865826 0.226279 -0.335987 -0.144571
152483 0.0522369 -0.026582 -0.799892 -0.308199 0.316619 -0.0329836 -0.137482 -0.0247935 0.0795717 0.3098 -0.398479 -0.434909 0.240359 -0.519603 0.204467 -0.151669 0.0672833 -0.0166554 0.0478299 -0.146245 -0.0538335 0.0222656 -0.0428488 0.241297 -0.366345 -0.25612 0.528031 0.342189 0.146973 -0.159272 0.381782 -0.42422 0.157598 -0.0259437 0.38551 -0.629638 0.0829692 -0.40101 0.205395 -0.0298879 0.011646 -0.0431449 0.203797 -0.133101 0.0560244 -0.122375 -0.00579563 0.100675 -0.358543 0.289954
583318 0.0696818 -0.135973 -1.04782 -0.416801 0.277148 -0.0422655 -0.124393 -0.0683608 0.206565 0.412426 -0.5152 -0.518244 0.231244 -0.590544 0.343902 -0.0355461 0.0524505 -0.0302696 0.038803 -0.186553 0.00561638 0.0167666 -0.0184838 0.222452 -0.34506 -0.295393 0.50346 0.40647 0.177336 0.0164824 0.399118 -0.561666 0.0210687 0.0308862 0.422797 -0.745356 0.0718584 -0.386416 0.18397 -0.0975525 -0.0107605 -0.0410099 0.200116 -0.0954174 0.145435 -0.139559 -0.0445459 0.248389 -0.332619 0.265711
177998 0.0809718 -0.0406574 -0.509519 -0.455104 0.287016 -0.00904765 -0.15708 -0.0982431 0.114517 0.284837 -0.387851 -0.474475 0.327972 -0.493807 0.271276 -0.062685 0.183578 0.160958 0.105384 -0.175816 0.00837967 0.0152085 -0.0496001 0.230556 -0.360168 -0.336151 0.62539 0.469987 0.207691 -0.0657127 0.488072 -0.698447 -0.0487436 0.373487 0.431996 -0.753206 0.112826 -0.446372 0.300364 -0.0172558 0.0405888 -0.0651459 0.317253 -0.183471 -0.0178404 -0.250282 -0.0349971 0.225908 -0.276362 0.0711354
58436 0.0444579 -0.154274 -0.202671 -0.171007 0.127169 -0.0708278 -0.0618434 -0.253575 0.287084 0.240104 -0.215978 -0.107581 0.0443737 -0.133431 0.202518 0.124084 0.0647328 0.132216 0.077758 -0.157627 0.0937352 0.00949827 -0.00358467 0.10107 -0.164708 -0.125367 0.146734 0.204568 0.0834793 0.0357115 0.101054 -0.160122 -0.0644284 0.212713 0.0544718 -0.111253 0.0269569 -0.199097 0.0951453 0.0572367 0.0525256 0.153483 0.232808 -0.204063 0.100233 -0.140435 -0.030643 0.193704 0.211869 -0.115013
1114239 0.215483 -0.226674 -1.08163 -0.354436 0.221939 -0.0983696 -0.113468 -0.345192 0.367202 0.420164 -0.345597 -0.19118 0.0807213 -0.16176 0.342324 0.200319 0.170509 0.205891 0.121667 -0.273263 0.137858 0.0120956 -0.0162159 0.173629 -0.251452 -0.260625 0.208067 0.280644 0.0519706 -0.189528 0.236073 -0.374822 -0.137845 0.143959 0.134828 -0.283019 0.030024 0.021192 0.329401 0.124162 0.177248 0.255648 0.413743 -0.424306 0.0788488 0.406095 -0.00780555 0.219946 0.240119 -0.0193366
65057 0.346555 -0.0775137 -0.299635 -0.189525 0.466517 -0.100391 -0.126444 -0.432258 0.385588 0.0757652 -0.461689 -0.155813 0.0811906 -0.0611112 0.444598 0.0540301 0.192038 0.206315 0.109144 -0.241235 -0.0251924 -0.0293464 0.0130236 0.20728 -0.246312 0.488167 -0.294963 -0.0008829 0.0058644 -0.0278579 0.205833 -0.21692 -0.040487 -0.142632 -0.115568 -0.152516 0.0159344 -0.144992 0.0197259 0.0448903 0.119329 0.310806 0.244041 -0.373489 0.162214 -0.786002 0.0528026 -0.113652 -0.0373725 0.154573
65074 0.322956 0.105832 0.0224939 -0.0813175 0.460626 -0.0953211 -0.191716 -0.392073 0.655473 0.121813 -0.461905 -0.157686 0.0169152 -0.187736 0.31305 -0.0267003 0.249987 0.276439 0.14415 -0.351548 -0.0121499 -0.0164526 -0.0228941 0.224483 -0.29681 0.288907 0.0350931 0.340889 0.16884 0.197024 0.204908 -0.256543 -0.152931 -0.0219472 0.0116459 -0.182506 0.0180821 -0.701315 -0.0276929 0.0240485 0.147319 0.243 0.324876 -0.335357 0.0145206 0.0340312 0.0238494 0.00998067 -0.0171599 -0.0701535
142268 -0.0454819 0.245739 -0.318625 -0.310798 0.299454 -0.141263 -0.156838 -0.299674 0.509602 0.10869 -0.267328 -0.299078 0.11225 -0.448727 0.465847 -0.00663204 0.171467 0.301333 0.0842726 -0.265642 0.121584 -0.00971872 -0.03248 0.221331 -0.37923 -0.191377 0.27579 0.397723 0.142478 0.262654 0.485976 -0.363182 -0.223742 0.443791 -0.0267414 -0.324108 0.030744 -0.425047 0.0677079 0.154033 0.179464 0.441818 0.615091 -0.463925 0.0468436 -0.193042 -0.0369342 0.251149 0.135149 -0.113386
70442 0.385272 -0.222432 -0.00489371 -0.143208 0.0606574 -0.0337099 0.00946043 0.139866 0.406003 0.123247 -0.312738 -0.205766 0.0107357 -0.274952 0.0685765 0.16851 -0.0443685 0.207139 0.0115236 0.000449771 0.170386 0.0182377 -0.0249248 0.0267863 -0.117433 -0.391252 0.308853 0.386959 0.173744 -0.0509364 0.105929 -0.372054 -0.240288 0.524027 0.00164434 -0.344635 -0.0287041 -0.159863 0.159331 0.0314263 0.13832 0.435953 0.198828 -0.165626 0.12045 -0.276383 -0.0492179 0.0668556 0.220648 -0.10149
70444 0.22446 -0.334818 -0.188633 -0.516199 0.434773 -0.152708 -0.147929 -0.343426 0.615812 0.347649 -0.435153 -0.275043 0.0816582 -0.394332 0.344168 0.369015 0.138861 0.354256 0.155438 -0.329904 0.264821 0.0146775 -0.0339716 0.205935 -0.396037 -0.357173 0.330517 0.378331 0.20903 0.281731 0.319835 -0.352183 -0.169708 0.177249 0.0393886 -0.273947 0.0153303 -0.342785 0.152693 0.0720112 0.115386 0.457205 0.551895 -0.399877 0.0308467 -0.152243 -0.0549369 0.296793 0.360018 -0.405484
8213 0.103395 -0.151812 -0.177202 -0.207148 0.201613 -0.0481443 -0.066878 -0.308763 0.252515 0.301542 -0.279556 -0.177888 0.0417224 -0.101699 0.210667 0.141733 0.108157 0.154434 0.102978 -0.220925 0.072819 -0.000926963 -0.00187963 0.126066 -0.188388 -0.085093 0.102766 0.199827 0.0993064 0.254831 0.0907582 -0.233035 -0.133916 0.0723751 0.0469071 -0.161756 0.0213884 -0.122566 0.168523 0.0857903 0.0793753 0.093835 0.109816 -0.194843 -0.0319152 -0.0654464 -0.0400806 0.0041389 0.0968705 -0.118241
74821 0.199315 -0.296228 -0.278306 -0.317252 0.347278 -0.111658 -0.104922 -0.330586 0.339713 0.3545 -0.304671 -0.164714 0.0553068 -0.140249 0.37836 0.312078 0.178542 0.221657 0.108635 -0.251438 0.125733 0.00488579 -0.0197926 0.193274 -0.303328 -0.271751 0.186959 0.216984 0.0782706 0.0307984 0.185249 -0.282683 -0.06785 -0.00525155 0.140742 -0.193511 0.0288229 -0.321184 0.257876 0.0930648 0.144507 0.274109 0.455666 -0.292058 0.128396 -0.103756 0.0211759 0.129345 0.259707 -0.0636358
1131150 0.21417 -0.327039 0.0022396 -0.328942 0.349735 -0.140459 -0.15034 -0.314566 0.32039 0.430788 -0.319196 -0.200677 0.0673395 -0.186415 0.361178 0.270353 0.157569 0.245046 0.139013 -0.287996 0.190508 0.0110788 -0.0236955 0.180042 -0.334001 -0.3128 0.242745 0.276728 0.129015 0.385407 0.229374 -0.436678 -0.170487 0.240618 0.10263 -0.175419 0.0183558 -0.712431 0.32115 0.0681413 0.181362 0.325841 0.579544 -0.316373 0.181634 -0.6369 -0.00473896 0.207226 0.341965 -0.113913
36145 0.43345 -0.506305 -0.020211 -0.528513 0.598717 -0.173557 -0.0969086 -0.182187 0.349131 0.445025 -0.515068 -0.135031 0.0970378 -0.123642 0.138569 0.253009 0.154014 0.212108 0.13947 -0.324634 0.154344 -0.0155688 0.00304896 0.178358 -0.292206 -0.157637 -0.0710042 0.106234 -0.0104969 0.185331 0.0930594 -0.164837 -0.0306001 0.0393308 -0.0365222 0.098646 0.0186962 -0.595198 0.545599 0.101354 0.139891 0.301084 0.262258 -0.385741 0.089162 -0.43228 -0.0788327 0.171935 0.260546 -0.443506
1105672 0.457595 -0.387491 -0.0108884 -0.560783 0.6391 -0.153768 -0.0819678 0.0380182 0.345032 0.444001 -0.376444 0.038262 0.0269006 -0.0414681 -0.0683139 0.137871 0.14929 0.121875 0.101283 -0.260597 0.116453 -0.0370415 0.0249785 0.0898475 -0.220015 -0.182813 -0.135207 0.130753 -0.0593732 0.291995 0.0858803 -0.25 -0.0994253 0.214158 -0.123098 0.459303 -0.00559561 -0.226882 0.729447 0.0769977 0.181485 0.276345 0.352255 -0.385649 -0.187563 0.102717 -0.157392 -0.106409 0.237946 -0.338379
46547 0.604686 -0.495924 -0.26431 -0.84066 0.679156 -0.246676 -0.116917 0.0496934 0.261812 0.34171 -0.308158 0.182671 -0.0317007 -0.0449353 -0.0544769 0.426173 0.177631 0.0994424 0.112525 -0.349748 0.187909 -0.0220679 0.0141523 0.177005 -0.294075 -0.295157 -0.0354737 0.445879 0.12251 0.326047 0.18554 -0.306151 0.0691307 0.230863 -0.0378294 0.157228 0.0237945 -0.614072 1.0099 0.113901 0.153944 0.211403 0.347253 -0.648512 -0.16713 0.145727 -0.202973 -0.039375 0.142294 -0.406685
1116181 0.0665674 -0.15465 -0.290147 -0.28051 0.254658 -0.071984 -0.0613544 -0.217398 0.309529 0.305657 -0.243425 -0.142978 0.040762 -0.142734 0.219642 0.187542 0.123304 0.190968 0.0956521 -0.227982 0.121104 -0.00402692 -0.0175574 0.136895 -0.222668 -0.231156 0.218789 0.249714 0.100369 0.159634 0.268336 -0.339509 -0.120663 0.307585 0.107649 -0.21688 0.0181804 -0.223532 0.259788 0.0836445 0.090907 0.154222 0.326636 -0.219107 0.119684 -0.143173 -0.0203315 0.190607 0.228405 -0.315201
634902 0.192636 -0.200013 -0.27717 -0.266474 0.253707 -0.0983373 -0.0999415 -0.286396 0.336663 0.28377 -0.309746 -0.177836 0.0745086 -0.159534 0.29961 0.238 0.143113 0.197596 0.127263 -0.279842 0.135642 0.00414919 -0.0111984 0.154506 -0.245787 -0.213059 0.125147 0.168657 0.0738291 0.073653 0.145981 -0.222538 -0.0637221 0.109029 0.126512 -0.240119 0.0287223 -0.35903 0.246113 0.0729135 0.120838 0.214901 0.349261 -0.306993 0.0565413 -0.023831 -0.0268984 0.144165 0.234665 -0.192792
634975 0.202721 -0.336919 -0.0108631 -0.291858 0.257982 -0.131051 -0.148005 -0.346566 0.471546 0.3792 -0.372162 -0.200769 0.0907514 -0.242071 0.395202 0.359254 0.186629 0.263147 0.144852 -0.365885 0.188124 0.00705243 -0.0278695 0.204281 -0.333558 -0.29042 0.207198 0.265379 0.0710717 0.242353 0.247038 -0.383528 -0.151465 0.182562 0.12796 -0.339322 0.018317 -0.329399 0.331013 0.0936 0.113557 0.22935 0.357285 -0.332611 -0.00716087 0.0403544 -0.0603489 0.225758 0.353441 -0.431659
259702 0.186427 -0.274028 -1.46521 -0.257423 0.112106 -0.153414 -0.0843449 -0.119019 0.291783 0.268657 -0.191693 -0.0874324 0.00611447 -0.179768 0.267643 0.0712847 0.015931 0.0833518 0.108533 -0.210404 0.0609987 -0.00796424 -0.0128675 0.135492 -0.313532 -0.170595 0.224299 0.2688 0.0578329 -0.564699 0.20844 -0.259387 0.00816117 -0.120973 0.0841734 -0.18087 0.0224022 0.338022 0.352755 0.0598478 0.0272845 0.148524 0.266912 -0.221527 0.0555999 0.33315 -0.0464188 0.0306604 -0.0841668 0.265839
640617 0.146714 -0.181437 -0.253526 -0.375748 0.144911 -0.105425 -0.0644684 -0.102116 0.18464 0.286449 -0.350869 -0.179764 0.0660614 -0.274869 0.203474 -0.0117702 0.0319118 0.0837904 0.0889654 -0.158372 0.0337823 0.0132393 -0.0106889 0.145672 -0.283716 -0.164687 0.369589 0.383314 0.131099 0.105775 0.189935 -0.196291 0.0875503 0.018599 0.111556 -0.137573 0.0194125 -0.301701 0.313951 0.0414721 -0.0150534 0.0836969 0.156398 -0.186197 0.0516123 -0.275746 -0.0451379 -0.0762014 -0.0904396 0.137897
576691 0.357682 -0.339447 -0.181019 -0.328003 -0.246973 -0.249099 -0.101765 0.0455996 0.541385 0.636249 -0.464722 -0.214312 0.0789971 -0.485959 0.723252 0.140751 0.0637554 0.116966 0.09486 -0.141172 0.0759828 0.00372365 -0.00914076 0.0491669 -0.319015 -0.598047 0.658836 0.525069 0.0443846 0.00308173 0.586198 -0.508331 -0.0911641 0.094166 0.230292 -0.333677 0.0359137 -0.589247 0.707829 0.0387345 -0.0326042 0.0377269 0.55226 -0.400068 0.131016 -0.171157 -0.164596 0.23295 -0.0227726 0.385041
200480 0.0599129 -0.213411 0.10692 -0.214332 0.164094 -0.0520422 -0.0860192 -0.243988 0.181719 0.230842 -0.309874 -0.180261 0.0522019 -0.0687543 0.171847 0.107286 0.0406301 0.121844 0.0978944 -0.214612 0.0875715 -0.00405657 -0.01729 0.15772 -0.218591 -0.117207 -0.000188947 0.104511 0.0290321 -0.0499229 0.0747041 -0.161447 0.0495653 -0.128693 0.0865213 -0.169098 0.0185871 -0.605752 0.239733 0.0564704 0.142369 0.198042 0.334927 -0.267524 0.118506 -0.279958 -0.0314423 0.0546357 0.102318 -0.066728
3231 0.453318 -0.311215 -1.01122 -0.321674 0.240806 -0.0607235 -0.0574265 -0.401033 0.364524 0.378267 -0.494364 -0.298086 0.0511392 -0.141008 0.167174 0.344988 0.124502 0.179304 0.0919342 -0.224948 0.0981323 -0.00578972 -0.0208166 0.156365 -0.232777 -0.238652 0.132282 0.049762 0.00743343 -0.138252 0.0904052 -0.123025 0.0781063 -0.367862 0.206192 -0.171974 0.0373176 -0.264967 0.301717 0.0992283 0.139456 0.190414 0.364376 -0.176799 -0.0318276 0.0824508 0.00132835 -0.0338524 0.0883711 0.137075
1128536 0.327472 -0.140637 0.187566 -0.161428 0.322648 -0.063832 -0.0935808 -0.282471 0.202015 0.244171 -0.20432 -0.0328167 -0.0145156 0.0435913 0.032851 0.0629949 0.0309401 0.130032 0.100015 -0.207166 0.0695656 -2.91579e-05 -0.00883148 0.173829 -0.212685 -0.0705912 0.0147474 0.177856 0.0679165 0.301458 0.131895 -0.112311 0.0319702 -0.0198586 0.116342 -0.182051 0.0300045 -0.624139 0.292002 0.10268 0.139009 0.102719 0.179661 -0.229039 0.0388801 -0.683901 -0.00556479 -0.0195242 0.111303 -0.212033
3232 0.42735 -0.222684 -2.10447 -0.346816 0.587406 -0.147588 -0.109405 -0.273921 0.300347 0.287441 -0.428513 -0.0454021 0.0270066 -0.11982 0.426337 0.254555 0.165533 0.289387 0.170236 -0.435437 0.181602 0.0121925 -0.030344 0.240925 -0.331064 -0.0792915 0.0591077 0.0725714 -0.0299367 -0.344432 0.229249 -0.178954 -0.0744335 0.0222401 0.0769452 -0.137399 0.0244064 0.671976 0.427296 0.106201 0.173224 0.16369 0.233486 -0.33678 -0.181412 2.04259 -0.02368 -0.137117 -0.0287631 0.11959
20942 0.259954 -0.22179 -0.226442 -0.0157739 0.288589 -0.0263707 -0.0934594 -0.264342 0.179464 0.38316 -0.113649 -0.0587543 0.00195551 0.0379737 0.174023 0.167899 0.088888 0.219179 0.125114 -0.201464 0.110784 0.0165658 -0.0126601 0.19191 -0.225085 -0.154284 0.095239 0.188176 0.0674884 0.161464 0.239316 -0.23753 -0.0593853 0.212211 0.176948 -0.249701 0.0296692 -0.161971 0.393694 0.152518 0.162762 0.246404 0.289097 -0.23563 -0.000819494 -0.100042 -0.0389736 0.0536792 0.0711026 -0.108686
1152676 0.508196 -0.515892 -0.082595 0.186727 0.42194 0.0425243 -0.0646521 -0.00213927 -0.076531 0.412471 -0.470046 -0.251445 0.179313 0.345053 0.253545 0.154772 0.281963 0.199278 0.166042 -0.305718 0.0354532 -0.00285548 0.0218585 0.125508 -0.190033 -0.149023 -0.319306 0.0314407 0.0243971 -0.23912 -0.0153592 -0.382421 0.187098 -0.147672 0.327887 -0.153085 0.0739625 -0.373443 0.220334 0.0510181 0.273246 -0.0948074 0.23742 -0.207475 0.0997929 -0.528802 0.00781594 -0.232314 0.398943 -0.112288
57119 0.84259 -1.08313 -1.40233 0.40182 0.789246 0.148161 -0.0542835 0.0299527 0.0636503 0.872451 -1.14988 -0.568281 0.373003 0.69077 0.567799 0.457097 0.60289 0.251869 0.226738 -0.488703 -0.0588577 -0.00602198 0.0433582 0.159528 -0.224723 -0.295818 -0.638178 0.0673643 0.0536427 -0.731811 0.0268444 -0.935274 0.33047 0.161194 0.706076 -0.314409 0.145187 0.47691 0.28339 0.0669713 0.457831 -0.11878 0.3135 -0.236487 -0.0445251 0.57391 0.0740114 -0.351812 0.786403 0.00404615
1132731 0.72404 -1.14942 -0.0731074 0.389669 0.906448 0.0610356 -0.11631 0.00606881 -0.0656646 0.864961 -1.05042 -0.670261 0.41187 0.723596 0.754002 0.472825 0.758592 0.382899 0.303116 -0.625472 0.0398213 -0.00858979 0.0290697 0.210771 -0.304847 -0.31642 -0.607134 -0.0164704 0.090387 -0.227256 0.0227287 -0.91323 0.217124 0.0431461 0.821982 -0.450704 0.129747 -0.359778 0.265302 0.0356442 0.489814 -0.150651 0.344206 -0.346087 -0.0964525 -0.7131 0.00918483 -0.271355 0.974303 -0.321394
646900 0.668193 -1.17048 -0.135262 0.636985 0.925733 0.148098 -0.0477708 0.149937 -0.191589 1.05436 -1.07851 -0.613132 0.468695 0.807566 0.723862 0.640156 0.776576 0.430927 0.228773 -0.562905 -0.0284106 0.0340774 0.0471459 0.134351 -0.163401 -0.440832 -0.696065 0.0911394 0.143274 0.0715746 0.0839462 -1.13775 0.29444 0.0877223 0.952162 -0.389014 0.176428 -0.815535 0.373973 0.0839252 0.560893 -0.233434 0.359733 -0.408295 0.0453982 -0.743165 0.0982136 -0.375616 1.10585 -0.611653
1131359 0.611633 -1.13266 -0.701098 0.675997 1.1397 0.133062 -0.0786537 0.24095 -0.146663 1.00966 -1.15921 -0.754031 0.520424 0.934155 0.910102 0.671074 0.912074 0.518986 0.373794 -0.895784 0.0928788 -0.0158873 0.0538802 0.228055 -0.294461 -0.454332 -0.713446 0.059289 0.160044 -0.0427265 0.172902 -1.28792 0.442794 0.222539 1.00542 -0.42292 0.178886 -0.545634 0.505984 0.0937583 0.642919 -0.200839 0.465947 -0.444038 0.0226354 -0.147343 0.0519209 -0.319252 1.05521 -0.481606
592973 0.45895 -0.494462 -1.31772 0.101094 0.408869 0.00133978 -0.0505321 -0.00133113 0.0165073 0.373355 -0.387995 -0.244776 0.127867 0.267651 0.223251 0.12466 0.227009 0.167774 0.134176 -0.292549 0.0346908 -0.0032721 0.0225726 0.137412 -0.200141 -0.110306 -0.262542 0.0803332 0.0133172 -0.50321 -0.0573499 -0.185755 0.23249 -0.202917 0.233871 0.00504716 0.022953 0.241547 0.149053 0.0392537 0.236807 0.0218367 0.211844 -0.158163 -0.0812861 0.842276 0.0319203 -0.431928 0.0833752 0.406733
592975 0.710508 -0.619009 -0.799184 0.163061 0.581089 0.0131724 -0.0875844 -0.0372658 0.041546 0.493317 -0.660738 -0.285487 0.198525 0.373523 0.354464 0.233215 0.312187 0.189595 0.172949 -0.362558 0.0177096 0.00201323 0.0253643 0.156687 -0.23324 -0.123249 -0.481271 -0.0717203 -0.0178589 -0.208158 -0.0240319 -0.373693 0.275485 -0.189002 0.345199 -0.0247465 0.0612557 0.0974545 0.172256 0.0420718 0.304705 -0.0628263 0.217808 -0.136293 -0.0128941 0.0272583 0.0259243 -0.275595 0.350088 -0.140036
592986 0.857254 -0.762166 -1.37571 0.275061 0.616905 0.0464246 -0.075901 0.0390214 0.018965 0.505949 -0.76305 -0.394457 0.264096 0.416472 0.455535 0.242557 0.384779 0.236666 0.174742 -0.413222 0.0302941 -0.0146078 0.0319336 0.184438 -0.26227 -0.16895 -0.523187 -0.0681233 -0.0131323 -0.604344 -0.0292167 -0.400437 0.327499 -0.204455 0.442889 -0.0659098 0.0812982 0.511269 0.196063 0.0515169 0.351721 -0.0723682 0.320672 -0.227015 0.0272838 0.765372 0.0383383 -0.475641 0.333981 0.22225
18251 0.159009 -0.273476 -0.186696 -0.278976 0.304722 -0.11019 -0.124209 -0.382732 0.376506 0.380223 -0.350012 -0.211976 0.08395 -0.186267 0.368327 0.283126 0.165864 0.221732 0.137815 -0.282622 0.126153 0.0105751 -0.0157134 0.176048 -0.256565 -0.19785 0.165598 0.250565 0.133602 0.173701 0.185861 -0.381239 -0.160123 0.255103 0.12954 -0.233823 0.0302894 -0.132648 0.231499 0.102164 0.135628 0.213978 0.314018 -0.288357 -0.0449654 0.0218808 -0.0502453 0.319481 0.367919 -0.284062
634938 -0.00380437 -0.159065 -0.231781 -0.226482 0.198695 -0.0707146 -0.0804184 -0.179262 0.259904 0.25592 -0.264574 -0.135284 0.060514 -0.12168 0.255315 0.192256 0.0977844 0.125614 0.0730924 -0.186311 0.10791 0.00163589 -0.0127641 0.102773 -0.149178 -0.199691 0.22289 0.242097 0.13925 0.28751 0.193363 -0.2909 -0.167394 0.346271 0.112136 -0.285638 0.0196705 -0.267241 0.221549 0.0770324 0.0678151 0.164886 0.289464 -0.227196 0.161387 -0.0600145 -0.0198015 0.223973 0.264931 -0.357035
1108169 0.0768956 -0.325563 0.155436 -0.357777 0.238345 -0.0553984 -0.0322534 -0.180267 0.267859 0.199874 -0.282282 -0.1282 0.0741407 -0.201414 0.298057 0.239895 0.111434 0.142171 0.0976967 -0.258708 0.109051 0.0207641 -0.00907142 0.109526 -0.166905 -0.0782255 0.0818507 0.163524 0.0403296 0.107203 -0.0114477 -0.141156 -0.0915508 -0.16058 0.000581812 -0.169645 -0.000603265 -0.442722 0.0628899 0.0152034 0.0643306 0.101855 0.120531 -0.100163 0.0592339 -0.450111 -0.0115472 -0.0437992 0.058613 -0.23476
124828 0.0312208 -0.307947 -0.147718 -0.206581 0.253318 -0.0629401 -0.079263 -0.207067 0.195759 0.237516 -0.324326 -0.186895 0.0713742 -0.149647 0.243834 0.130251 0.128259 0.226883 0.0856995 -0.167308 0.113297 0.00523636 -0.0227083 0.124 -0.233241 -0.234942 0.121332 0.267234 0.0939246 0.303715 0.174148 -0.316922 -0.137631 0.213398 0.101933 -0.270848 0.0328556 -0.177224 0.23699 0.0726864 0.0961207 0.168272 0.256093 -0.197471 0.0895307 -0.056305 0.00361834 0.186105 0.226724 -0.190188
126927 0.249846 -0.0920311 -0.55346 -0.329112 -0.0980662 -0.0623946 -0.00978092 -0.0538442 0.562245 0.45784 -0.858991 -0.138553 0.094616 0.102477 0.307063 0.586233 0.140913 0.305928 0.105442 -0.342213 0.119481 0.0365119 0.00675149 -0.113081 -0.0772506 0.058516 0.464197 0.579452 0.0707758 0.250949 -0.0856491 0.205159 0.180993 -0.686915 -0.12293 0.157562 0.00939386 0.1586 0.260795 0.389603 0.470451 0.415693 0.16126 -0.29958 0.161089 -1.20742 0.123029 -0.0293141 0.0790037 -0.080657
126920 0.375058 -0.113921 -0.0666142 -0.232564 -0.0260445 -0.0433306 0.0181461 -0.0738522 0.423665 0.372118 -0.81197 -0.0616349 0.0527137 0.0277777 0.306223 0.544804 0.170096 0.264739 0.0647319 -0.23047 0.0746358 0.0406762 0.0126143 -0.0978662 -0.0388769 0.00511166 0.48216 0.494385 0.0572635 0.376823 -0.119788 0.294498 0.127189 -0.477676 -0.0428616 0.0297278 0.0138465 -0.391051 0.27507 0.345561 0.409865 0.40208 0.247787 -0.213642 0.109202 -0.801479 0.121644 -0.0793937 0.000645459 -0.064825
645897 0.443817 -0.0667958 -1.57261 -0.430424 0.0651685 -0.10326 -0.0091939 0.0812889 0.461506 0.423092 -1.14149 -0.146016 0.120171 0.135125 0.394256 0.730617 0.180934 0.300057 0.0788294 -0.340951 0.105202 0.0594274 -0.00562314 -0.214237 0.0441525 0.0608874 0.629108 0.577279 0.0712843 -0.139969 -0.0665183 0.272746 0.10541 -0.682446 -0.209476 0.231565 -0.0021993 0.387157 0.241624 0.448649 0.517298 0.448075 0.182968 -0.348738 -0.098318 1.05257 0.107798 -0.0786154 0.0938101 -0.00225471
645571 0.42146 -0.205659 0.101583 -0.190714 -0.207631 0.000118548 -0.0573593 -0.159544 0.47841 0.503194 -0.999851 -0.20898 0.0946699 0.0389474 0.320791 0.505326 0.0927302 0.283552 0.0968262 -0.235193 0.105867 0.0353153 0.00587391 -0.0451026 -0.101048 -0.0312024 0.431139 0.458147 0.0605969 0.125516 0.0738945 -0.0727001 0.0392835 -0.235159 -0.0494983 0.0584854 0.0291837 -0.471576 0.415264 0.30852 0.388213 0.395265 0.269653 -0.240989 0.144518 -0.618339 0.162865 -0.063083 0.024741 -0.266694
127940 0.327806 -0.451581 -0.622942 -0.353569 0.375474 -0.134106 -0.11305 -0.423016 0.425505 0.359731 -0.478271 -0.221813 0.0899312 -0.208588 0.483238 0.376844 0.236403 0.277182 0.166731 -0.364024 0.153901 0.0175865 -0.0236349 0.237424 -0.327936 -0.214584 0.222456 0.299027 0.122689 0.216696 0.189126 -0.26884 -0.0119511 -0.046636 0.172859 -0.343945 0.0370625 -0.818193 0.241259 0.0845521 0.128849 0.22549 0.429571 -0.363315 0.0856879 -0.298256 -0.0118165 0.286061 0.277088 -0.363189
243274 0.216417 -0.242478 0.187771 -0.191946 0.257659 -0.0998655 -0.104181 -0.273347 0.303289 0.293044 -0.295341 -0.188398 0.0701688 -0.164863 0.246091 0.137787 0.11064 0.18213 0.0877189 -0.186558 0.0896855 0.0119256 -0.012831 0.120134 -0.221847 -0.167576 0.180287 0.190286 0.0969228 0.288971 0.128898 -0.216544 -0.128402 0.301819 0.104169 -0.292517 0.0247948 -0.682325 0.252561 0.0667467 0.111904 0.177586 0.37502 -0.311481 0.0892078 -0.915367 -0.0208463 0.290328 0.330704 -0.45592
1154103 0.161338 -0.318015 -0.554384 -0.289918 0.313188 -0.0934708 -0.0941833 -0.295594 0.315192 0.327113 -0.307339 -0.147734 0.0715539 -0.140137 0.254946 0.233326 0.154204 0.183413 0.106442 -0.302197 0.141032 0.00284755 -0.011331 0.187636 -0.258028 -0.150089 0.110152 0.175056 0.0735301 0.109799 0.161405 -0.286519 -0.101476 0.116854 0.0879828 -0.197975 0.0254876 -0.252906 0.26305 0.0914881 0.11177 0.208708 0.331802 -0.278732 0.174807 -0.279571 -0.0115995 0.202339 0.242167 -0.109053
169279 0.271389 -0.355057 -0.469961 -0.28437 0.312621 -0.0990039 -0.123325 -0.330121 0.346647 0.353394 -0.296758 -0.211404 0.0835297 -0.186359 0.291222 0.208218 0.136065 0.224723 0.138268 -0.354497 0.211551 0.012743 -0.0228311 0.212134 -0.322315 -0.255515 0.192923 0.325023 0.139872 0.155073 0.221651 -0.34735 -0.164938 0.245028 0.162085 -0.380629 0.0468986 -0.403498 0.378213 0.138821 0.114523 0.233502 0.442885 -0.428721 0.214594 -0.189027 -0.0353291 0.293424 0.255199 -0.194117
194223 0.194648 -0.277818 -0.432406 -0.294675 0.300244 -0.113777 -0.0672047 -0.19367 0.256799 0.296788 -0.328259 -0.208082 0.0640625 -0.200858 0.328266 0.237413 0.130548 0.179976 0.0915608 -0.245809 0.137672 0.00117151 -0.0240769 0.147346 -0.209683 -0.227384 0.19863 0.273764 0.128313 0.206939 0.172136 -0.242144 -0.118513 0.290399 0.114492 -0.265121 0.039589 -0.343254 0.285898 0.0869395 0.0775195 0.161069 0.347865 -0.278776 0.104972 -0.0940965 -0.0358858 0.321859 0.345381 -0.387248
1110256 -0.0211615 -0.218593 -0.0854185 0.067379 0.263951 -0.0367274 -0.0451506 -0.368553 -0.0530497 0.244799 -0.647762 -0.586602 0.1007 0.141079 0.0357969 0.261469 0.125971 0.269058 0.213453 -0.423499 0.0236205 0.00217053 -0.00106463 0.240169 -0.411092 0.0550483 0.0761853 -0.0521922 0.113721 0.111466 0.168129 -0.576845 0.210331 -0.117488 0.163884 -0.217951 0.0465374 0.0379245 0.0974183 -0.0242081 0.237271 0.358764 0.623987 -0.392859 0.187685 -0.851999 -0.00331131 0.625444 0.275739 -0.307672
